-0.02237340807914734
-0.06274804472923279
-0.014874890446662903
-0.0690474659204483
0.08060573786497116
-0.08286508917808533
-0.08163158595561981
-0.04436158761382103
-0.008910208940505981
-0.004754789173603058
0.06558383256196976
0.013704665005207062
0.1084609404206276
0.002726156497374177
-0.03496687859296799
0.0352683924138546
0.0308726504445076
-0.07774681597948074
0.04714510589838028
0.03858073800802231
-0.0687904953956604
-0.028063952922821045
7.05718994140625e-05
0.020077787339687347
0.03989753872156143
-0.04602961987257004
-0.054891664534807205
-0.02868496999144554
0.03114660084247589
-0.04327123984694481
0.07233051210641861
-0.058062195777893066
0.005618647672235966
-0.03423584997653961
-0.003713370533660054
0.08870141953229904
0.022588280960917473
0.19170422852039337
0.1670282483100891
0.24744276702404022
0.056594058871269226
0.17860530316829681
-0.03169368579983711
-0.30043548345565796
-0.7402659058570862
-0.23544324934482574
0.14123308658599854
0.3273685872554779
0.2616787254810333
0.10583926737308502
-0.14413630962371826
-0.0652536004781723
-0.054085299372673035
0.08279325813055038
-0.030035633593797684
-0.0068128108978271484
-0.042169906198978424
0.0834980234503746
0.03922334313392639
-0.2443823665380478
-0.3106858432292938
0.15633945167064667
0.09043410420417786
0.34076279401779175
0.49295705556869507
0.2840668261051178
0.31850704550743103
0.10737485438585281
0.2369237244129181
0.3965526819229126
0.29763147234916687
0.23724737763404846
0.33394598960876465
0.31321385502815247
0.5285672545433044
0.766832172870636
0.9021706581115723
0.6123171448707581
0.6245802044868469
-0.17498521506786346
-0.35302361845970154
-0.5057091116905212
0.07323261350393295
-0.035796187818050385
-0.011141255497932434
0.03215114772319794
-0.24961555004119873
-0.2708321511745453
-0.14105556905269623
0.19441427290439606
0.5145624876022339
0.38254860043525696
0.3031415045261383
0.4641980826854706
0.24747897684574127
0.2423619031906128
-0.0826864019036293
-0.2116386890411377
0.015232479199767113
-0.1942901462316513
-0.16538259387016296
-0.11240880936384201
0.23428502678871155
0.2894003987312317
0.4306403696537018
0.499266654253006
0.6748199462890625
0.8246510028839111
0.4334928095340729
-0.01047617755830288
0.03578043729066849
0.027289316058158875
-0.0073357149958610535
-0.06453398615121841
-0.19729307293891907
-0.34329456090927124
0.10792964696884155
-0.27504462003707886
-0.2765209972858429
-0.20467478036880493
-0.370195597410202
-0.05516659840941429
-0.2886432707309723
-0.22872424125671387
-0.18517129123210907
-0.2035781294107437
-0.07401628792285919
-0.14027564227581024
-0.09872991591691971
-0.0037673269398510456
-0.05338602885603905
-0.1169506162405014
-0.08483722805976868
-0.02594101056456566
0.0031523974612355232
0.15959954261779785
0.3509259819984436
0.07288020849227905
0.038575198501348495
0.40533900260925293
0.014854185283184052
-0.01907120645046234
0.11570103466510773
-0.6082794070243835
-0.10673459619283676
-0.4777538776397705
-0.4960012137889862
-0.15457592904567719
-0.026540840044617653
-0.012644647620618343
-0.19177354872226715
-0.12581445276737213
-0.019567985087633133
-0.2128564864397049
0.007754744496196508
-0.28155264258384705
-0.07830096781253815
0.026938626542687416
-0.09423878788948059
-0.0003691677120514214
0.10244222730398178
-0.033325184136629105
-0.07175377011299133
-0.04083428531885147
0.07806959748268127
0.2955114543437958
0.13149408996105194
0.17490218579769135
0.040200136601924896
0.010340087115764618
-0.05728152021765709
-0.7381709218025208
-0.14417895674705505
-0.10855454951524734
-0.34060537815093994
0.06476634740829468
-0.09523939341306686
-0.12428121268749237
-0.18801537156105042
-0.19016440212726593
-0.0652613490819931
-0.23027941584587097
-0.12042929232120514
-0.02883741818368435
-0.23301644623279572
-0.021888917312026024
-0.2588573396205902
0.044493794441223145
-0.06070804223418236
-0.10714471340179443
0.013908043503761292
0.34641140699386597
0.5594997406005859
0.38954412937164307
0.011119830422103405
0.04173574224114418
0.05871050804853439
-0.2745048403739929
-0.2515779137611389
-0.6916334629058838
-0.42958879470825195
-0.016544153913855553
-0.24848726391792297
-0.03408633917570114
0.1356469690799713
-0.04014972969889641
-0.0002115646202582866
-0.14538788795471191
-0.17821148037910461
-0.18908053636550903
-0.08478791266679764
-0.056021127849817276
-0.10832971334457397
-0.05477019026875496
-0.10079547017812729
-0.04655613750219345
-0.13593831658363342
0.039778269827365875
0.01566305011510849
0.08959247916936874
0.40103933215141296
0.0006157684256322682
-0.24034692347049713
0.10583057254552841
-0.08549459278583527
-0.41848012804985046
-0.26285967230796814
-0.8605276942253113
-0.3884696960449219
0.008533972315490246
0.0048207566142082214
-0.1711745411157608
0.0873856469988823
0.14361988008022308
-0.008263944648206234
-0.040396448224782944
-0.07528509199619293
-0.12783868610858917
-0.12525968253612518
-0.0850088819861412
-0.17403413355350494
-0.27128368616104126
-0.21027441322803497
-0.17627547681331635
-0.1781025230884552
-0.08433843404054642
0.040744103491306305
0.0013348200591281056
0.43482059240341187
0.5393779277801514
-0.017825884744524956
0.5307251811027527
-0.005872897803783417
-0.5029608011245728
-0.4158942699432373
-0.9930787682533264
-0.3734357953071594
-0.20424342155456543
0.06174613535404205
0.027150768786668777
-0.014323909766972065
0.10447075217962265
0.1310630440711975
0.07211915403604507
-0.15799757838249207
-0.2809188961982727
-0.4326170086860657
-0.27027592062950134
-0.1148601621389389
-0.13855023682117462
-0.14176297187805176
-0.027709200978279114
-0.05852607637643814
0.07653500884771347
-0.042995501309633255
0.14634564518928528
0.4043067395687103
0.4455791115760803
-0.24264931678771973
-0.09557205438613892
-0.1102789044380188
-0.3405912518501282
-0.696314811706543
-0.990207314491272
-0.17291216552257538
-0.27095213532447815
0.09162505716085434
0.15903589129447937
0.1513902097940445
0.17032520473003387
0.22694805264472961
0.20056767761707306
0.23960787057876587
-0.29047897458076477
-0.8533170223236084
-0.5085453987121582
-0.34305089712142944
-0.25224727392196655
-0.1483379304409027
-0.026684831827878952
-0.10028921067714691
0.014724859036505222
0.04937725141644478
0.08711950480937958
0.12561342120170593
0.3786897361278534
-0.13786838948726654
-0.24429430067539215
-0.05624708905816078
-0.5519849061965942
-0.3504355251789093
-0.9846044182777405
-0.5036778450012207
0.15870918333530426
0.2663908004760742
0.14911147952079773
0.23475365340709686
0.3054746091365814
0.29482901096343994
0.2991778552532196
0.4147338569164276
0.255209356546402
-0.1693769097328186
-0.3269892930984497
-0.18199826776981354
-0.1588800698518753
-0.16229742765426636
-0.10877981036901474
-0.11092343181371689
-0.1662578135728836
-0.1614728569984436
-0.027078181505203247
0.03215048462152481
0.3210066556930542
0.2944685220718384
0.042541854083538055
-0.03238356485962868
-0.14886553585529327
-0.2766874134540558
-0.8936561942100525
-0.603905200958252
-0.08285878598690033
0.30202779173851013
0.28305014967918396
0.1322418451309204
0.21542112529277802
0.1398063749074936
0.3827878534793854
0.2653934955596924
0.5437418818473816
-0.10431116819381714
-0.02423885464668274
0.16573204100131989
0.01573384739458561
-0.01870896853506565
-0.10275575518608093
0.034453872591257095
0.1218012347817421
-0.039239611476659775
0.13415253162384033
0.27373942732810974
-0.3332860469818115
-0.5605499744415283
-0.5983561873435974
0.015480056405067444
-0.1367572546005249
-0.3404216170310974
-0.7574157118797302
-0.40958693623542786
-0.03161541372537613
0.10663306713104248
0.10718082636594772
0.16528260707855225
0.17625120282173157
0.23855167627334595
0.3371416926383972
0.24816474318504333
0.3417224586009979
0.08112264424562454
0.2326495200395584
0.13997508585453033
0.18875381350517273
0.213949516415596
0.02134915441274643
0.04190859571099281
0.14535315334796906
0.17119725048542023
-0.1731104701757431
-0.1073901504278183
-0.6201937794685364
-0.9241926670074463
-0.1909860372543335
0.032735951244831085
-0.07445275038480759
0.04813135042786598
-0.32892030477523804
0.2752596139907837
0.029677657410502434
0.10298983007669449
0.059035103768110275
0.08656826615333557
0.1238728016614914
0.05949889123439789
0.42277297377586365
0.18340200185775757
0.20360715687274933
0.2461860179901123
0.12733739614486694
0.15107065439224243
0.21896252036094666
-0.0709058865904808
0.12504754960536957
-0.05002913996577263
-0.029045043513178825
-0.05844418331980705
-0.1214037835597992
-0.10421978682279587
-0.45238441228866577
-0.9824172258377075
-0.21415677666664124
-0.08843345195055008
0.047757528722286224
0.19672924280166626
0.02696993201971054
0.2219994068145752
-0.0009056436247192323
0.11928226053714752
0.27989307045936584
0.022792819887399673
0.00852157361805439
0.05825402960181236
0.2107360064983368
0.2873247265815735
0.19005371630191803
0.16764356195926666
0.08998329937458038
0.153815358877182
0.10409824550151825
-0.07560183852910995
-0.039533909410238266
-0.1628846824169159
-0.23977288603782654
-0.07994367182254791
0.17338056862354279
-0.2604638934135437
-0.39965036511421204
-0.8110368251800537
0.09134826064109802
-0.025372590869665146
0.015072483569383621
-0.2844277322292328
-0.09469778090715408
-0.40432462096214294
-0.24985657632350922
0.006226864643394947
0.23241755366325378
0.13645057380199432
0.09917673468589783
0.004873177036643028
0.22705736756324768
0.4066631495952606
0.09717584401369095
0.07550162076950073
0.20645596086978912
0.24637162685394287
0.013945766724646091
-0.06916188448667526
-0.17691852152347565
-0.16395385563373566
-0.12257575243711472
-0.09151582419872284
0.1263682246208191
-0.2147706151008606
-0.5054293274879456
-1.0117653608322144
-0.19222010672092438
0.04514209181070328
-0.04310590401291847
-0.2751748561859131
-0.4726598560810089
-0.5301200151443481
-0.49092400074005127
-0.1871166080236435
-0.05561767891049385
0.08047217130661011
0.24173332750797272
0.1977386325597763
0.273857980966568
0.2793051302433014
0.06359806656837463
0.16655081510543823
0.044428251683712006
-0.043151527643203735
-0.16541938483715057
-0.10813295841217041
-0.13902553915977478
-0.06725878268480301
-0.0980503037571907
-0.06221824139356613
-0.1650690883398056
-0.23902708292007446
-0.49766436219215393
-0.8426429629325867
-0.2520427107810974
-0.1530449241399765
0.08257678896188736
-0.3337903618812561
-0.7969218492507935
-1.032727599143982
-0.23064446449279785
-0.05647881701588631
-0.13106442987918854
-0.05756327882409096
0.25343021750450134
0.06210104003548622
0.13622137904167175
0.2426721602678299
0.046197958290576935
0.001354397158138454
-0.12265315651893616
-0.07959672063589096
-0.12000034749507904
-0.1277223527431488
-0.030968554317951202
-0.1467352658510208
-0.11921001970767975
-0.27645909786224365
-0.16532838344573975
-0.3775140941143036
-0.46974635124206543
-0.3478047847747803
-0.2264188528060913
0.011055447161197662
-0.26187005639076233
-0.6556872129440308
-0.38388997316360474
-0.853538453578949
0.0035952129401266575
-0.07425055652856827
-0.1581752598285675
-0.07852018624544144
-0.054170913994312286
0.10253070294857025
0.06014943867921829
-0.03898158296942711
-0.07648637145757675
-0.07067852467298508
0.01930031180381775
0.028780732303857803
0.011975281871855259
-0.10566473752260208
0.03929620236158371
-0.06570091098546982
-0.08115833252668381
-0.07496426999568939
0.14412106573581696
-0.28193941712379456
-0.7178441882133484
-0.2173059731721878
-0.1821528971195221
-0.03686102107167244
-0.0593591071665287
-0.23728899657726288
-0.4653354287147522
-0.9586478471755981
-0.013457050547003746
0.025109484791755676
0.017076216638088226
-0.01998620107769966
-0.1666395664215088
-0.08508899807929993
-0.1498829871416092
0.0700434073805809
0.0021864441223442554
-0.07556448131799698
0.17457659542560577
-0.03167097270488739
-0.007963243871927261
-0.04895416274666786
-0.033992476761341095
-0.1109330803155899
0.012304958887398243
0.09020618349313736
0.0514594167470932
-0.5706905126571655
-0.44881781935691833
-0.5301260352134705
-0.18941545486450195
0.04660015553236008
0.07626582682132721
-0.17420844733715057
-0.287291944026947
-0.6195495128631592
-0.019846709445118904
-0.04155474901199341
-0.018922356888651848
-0.11942516267299652
0.015884140506386757
-0.07107984274625778
0.04534154757857323
0.06104841083288193
0.20542044937610626
0.05301631614565849
-0.03796542063355446
-0.024272151291370392
0.03817730396986008
-0.0003123313654214144
-0.08377892524003983
0.019361449405550957
-0.12917551398277283
0.1800270974636078
0.1579110324382782
-0.5195237994194031
-0.2695661187171936
-0.5160840749740601
0.04313049092888832
-0.026171069592237473
0.05791524425148964
-0.34911811351776123
0.2975803315639496
-0.09736374020576477
-0.2528250217437744
-0.22868800163269043
-0.0957755446434021
-0.17024311423301697
-0.13502387702465057
-0.0342918336391449
0.014204018749296665
0.02156856469810009
0.06029495969414711
0.001945531228557229
-0.06091256067156792
0.04437152296304703
-0.01775481179356575
0.08300880342721939
-0.08371365070343018
-0.022151175886392593
0.08515973389148712
-0.202333003282547
-0.13915984332561493
-0.1351357400417328
0.06934445351362228
-0.24484723806381226
-0.008458739146590233
0.052522070705890656
0.05085261911153793
0.168795645236969
-0.031162556260824203
-0.14883358776569366
-0.20006345212459564
-0.37702181935310364
-0.24576683342456818
0.05236825346946716
-0.03291096165776253
0.06978263705968857
0.05435812845826149
0.11911416053771973
0.1535639613866806
0.138006329536438
0.17382726073265076
0.21876278519630432
0.09373501688241959
0.10705892741680145
-0.059952039271593094
0.02041003853082657
0.03958282619714737
-0.24017839133739471
0.2710520327091217
-0.0058028800413012505
0.024508321657776833
-0.3217063546180725
0.012265048921108246
0.02301718294620514
-0.0489579513669014
-0.03669320419430733
-0.3498678207397461
-0.3434212803840637
-0.5182326436042786
-0.41625526547431946
-0.2688201665878296
-0.004092240706086159
0.021976253017783165
-0.09271487593650818
0.15124519169330597
-0.028800753876566887
-0.0016146382549777627
-0.05644574016332626
-0.03182375803589821
0.18244026601314545
-0.003346826881170273
0.2795538604259491
0.42937296628952026
0.3513541519641876
0.1667526513338089
0.22045865654945374
0.40649640560150146
-0.3785261809825897
-0.1910865306854248
-0.37321534752845764
0.017720282077789307
-0.040801212191581726
-0.042700108140707016
0.1641877144575119
0.0625968724489212
0.24163874983787537
-0.07457446306943893
-0.09229683876037598
0.007333245128393173
-0.3850260078907013
-0.4338482916355133
-0.16635917127132416
-0.35240596532821655
-0.3650972247123718
-0.28243404626846313
-0.15127576887607574
-0.05138591304421425
-0.09473215788602829
0.0418582521378994
0.12477109581232071
-0.0597393773496151
0.3643982708454132
0.09852197021245956
0.4864824116230011
0.7388164401054382
-0.0895928144454956
-0.020281927660107613
-0.3138905465602875
-0.04027538746595383
-0.043373871594667435
0.04858001321554184
-0.007340461015701294
0.2035304307937622
0.5577670931816101
-0.22029773890972137
-0.36602383852005005
-0.2650047242641449
-0.07636401057243347
-0.3418886363506317
-0.2997142970561981
-0.3019067645072937
-0.02927480824291706
-0.1849105954170227
-0.1856231838464737
-0.16465112566947937
-0.4178253412246704
-0.2212560772895813
-0.1439296305179596
-0.22350069880485535
0.002600758569315076
-0.28220561146736145
-0.49206849932670593
0.23967726528644562
-0.04474138841032982
-0.05363891273736954
-0.004813753068447113
0.031297050416469574
0.017870187759399414
0.06293872743844986
0.06186874955892563
-0.055225782096385956
-0.05522468313574791
0.0584980770945549
-0.18543565273284912
-0.24070638418197632
-0.5396103858947754
-0.28174275159835815
-0.4495350420475006
-0.09072933346033096
-0.02215847559273243
-0.6666172742843628
-0.25072574615478516
-0.008361369371414185
0.057392045855522156
-0.4575140178203583
-0.281790167093277
-0.3228190541267395
-0.41040951013565063
-0.39492347836494446
-0.38019436597824097
-0.0013991740997880697
-0.0719723328948021
0.0072317346930503845
-0.06203390657901764
-0.04027625545859337
