-0.07486116141080856
0.019249550998210907
0.05213310569524765
0.03652673959732056
-0.012333676218986511
-0.03391087055206299
-0.031679682433605194
0.02104104310274124
0.03561092168092728
-0.08361893892288208
-0.08452963829040527
-0.056514643132686615
0.03535753861069679
-0.14031249284744263
-0.2846248745918274
-0.3069421052932739
-0.01470954716205597
-0.06773371994495392
0.025351226329803467
-0.014673314988613129
-0.040346890687942505
-0.06286893784999847
0.0756322368979454
0.05235729366540909
-0.051341716200113297
0.007437646389007568
0.02649865299463272
-0.012387067079544067
0.051228635013103485
-0.06840366870164871
-0.03131503984332085
0.008355513215065002
0.040296170860528946
0.23621530830860138
0.49362051486968994
0.6278197765350342
0.4958113133907318
0.6013259291648865
0.5343383550643921
0.26605546474456787
0.40762484073638916
0.36951789259910583
-0.2529892027378082
-0.3008843660354614
-0.4484874904155731
0.10857182741165161
0.8177764415740967
0.7230879664421082
0.61618971824646
0.4615457355976105
0.37770918011665344
0.19543881714344025
0.04842367023229599
0.06499473005533218
-0.007505454123020172
0.03390116989612579
-0.022935859858989716
-0.008660510182380676
0.18476365506649017
-0.19431303441524506
-0.12392579019069672
0.30726829171180725
0.4460262954235077
0.5553172826766968
0.8445107936859131
1.096092939376831
0.9164405465126038
0.6811041235923767
0.5744100213050842
0.056377168744802475
0.16432203352451324
-0.1238127052783966
-0.061411302536726
0.2297479659318924
0.032942645251750946
0.27394935488700867
0.41100677847862244
0.4972366690635681
0.4866447448730469
0.3676300048828125
0.6060493588447571
0.29735666513442993
-0.06702043116092682
0.08001848310232162
-0.004340708255767822
0.06684108823537827
-0.28842753171920776
-0.18913911283016205
-0.10586542636156082
0.5421035289764404
0.7341917753219604
0.3373368978500366
0.03248601779341698
0.14362028241157532
-0.19465407729148865
0.062449321150779724
-0.11462830752134323
-0.2515150308609009
-0.03044697269797325
-0.025144625455141068
0.02564997971057892
0.0608464814722538
0.0058425422757864
0.2207673043012619
0.09404569864273071
0.33041542768478394
0.3025747537612915
0.2399321049451828
0.3945276737213135
0.6715101599693298
0.14959417283535004
-0.0715421736240387
-0.0003989487886428833
-0.0031342804431915283
-0.15106046199798584
-0.5600035190582275
-0.06683006882667542
0.1278703510761261
0.2384384721517563
0.17366960644721985
0.18293330073356628
0.1318049132823944
0.06483644992113113
0.13041479885578156
0.16542492806911469
0.03717876225709915
0.019599316641688347
-0.09857270866632462
-0.019508425146341324
0.08257006108760834
0.05827842652797699
0.03204616904258728
0.1115131825208664
-0.147981658577919
-0.21756692230701447
0.024739772081375122
-0.16502270102500916
0.07554265111684799
-0.054515380412340164
-0.08361168205738068
0.06999292224645615
-0.03720767796039581
0.13620051741600037
-0.2801674008369446
-0.026642611250281334
-0.2502753436565399
0.2280855029821396
0.12874619662761688
0.22167354822158813
0.2583918571472168
0.04583551734685898
-0.09273727238178253
0.10369067639112473
-0.16476941108703613
-0.05485386773943901
-0.14786382019519806
-0.25371092557907104
-0.11416114866733551
-0.11491065472364426
-0.06024514511227608
-0.0315401591360569
-0.09703726321458817
-0.3564024865627289
0.101112961769104
-0.011364836245775223
0.12551145255565643
-0.0815812423825264
-0.02395864948630333
-0.036961935460567474
-0.18705935776233673
0.10875141620635986
-0.3095397353172302
0.2293301820755005
0.07847192138433456
-0.14782528579235077
0.10205496102571487
-0.20449712872505188
-0.07645565271377563
-0.2473154515028
-0.18215392529964447
-0.07046204805374146
-0.17207159101963043
-0.07154287397861481
0.015339832752943039
-0.0582784004509449
-0.011635915376245975
-0.06214110180735588
-0.11853530257940292
-0.1996426284313202
-0.2119099646806717
-0.16804514825344086
-0.11961251497268677
-0.24740508198738098
-0.1920357495546341
-0.3632241487503052
-0.4634447395801544
0.010400667786598206
-0.22551168501377106
0.25162073969841003
-0.41119927167892456
0.07482826709747314
-0.03647974133491516
-0.20630179345607758
-0.2323606014251709
-0.19235526025295258
-0.3133769929409027
-0.2755347192287445
-0.05943373218178749
-0.15731719136238098
-0.012157157994806767
-0.08643722534179688
0.042150020599365234
0.07071279734373093
0.05220514535903931
-0.21071921288967133
-0.09256234019994736
-0.1036631166934967
-0.21702630817890167
-0.058043044060468674
-0.2605786621570587
-0.14803121984004974
-0.34898823499679565
-0.10778375715017319
-0.5901467204093933
-0.39241474866867065
-0.2841893136501312
0.056704211980104446
-0.38412922620773315
-0.20850764214992523
-0.1756405383348465
-0.15507835149765015
-0.31055566668510437
-0.266034334897995
-0.009667064063251019
-0.21695660054683685
-0.17781031131744385
-0.1332903355360031
-0.03284347057342529
-0.14531953632831573
-0.18496760725975037
-0.2139165997505188
-0.26052823662757874
-0.19252797961235046
-0.1430433839559555
-0.2244352251291275
-0.025286849588155746
-0.18169420957565308
-0.3072752058506012
-0.4124712347984314
-0.3482452630996704
0.07379700988531113
-0.33382150530815125
-0.09985912591218948
-0.10940658301115036
-0.1548018455505371
-0.22455571591854095
-0.31561747193336487
-0.35251176357269287
-0.07685580104589462
-0.14842261373996735
-0.12608052790164948
-0.12599501013755798
0.015912247821688652
-0.227277010679245
-0.16133739054203033
-0.09949614852666855
-0.05266488343477249
-0.18524762988090515
-0.19760796427726746
-0.2723153829574585
-0.08989494293928146
-0.2208988517522812
-0.14757317304611206
-0.20180644094944
-0.3105085492134094
-0.35145890712738037
-0.7503159046173096
-0.6643168330192566
-0.17315508425235748
-0.21935027837753296
-0.060408130288124084
-0.004567218944430351
-0.514241635799408
-0.45868268609046936
-0.45107659697532654
-0.1071886196732521
0.11128318309783936
-0.022654907777905464
0.055248748511075974
-0.03424409404397011
-0.0031895784195512533
-0.013277921825647354
0.03618783503770828
-0.061590954661369324
-0.25878238677978516
-0.40291109681129456
-0.273700475692749
-0.04849700629711151
0.05112079530954361
-0.08763359487056732
-0.22479559481143951
-0.23184873163700104
-0.09134644269943237
-0.42279425263404846
-0.7936196327209473
-0.6136806011199951
-0.8991267085075378
-0.35983675718307495
-0.06310631334781647
-0.2419256865978241
-0.38337698578834534
-0.46421512961387634
-0.344340056180954
0.23325498402118683
0.01738557033240795
-0.04275120049715042
0.053985822945833206
0.08497639000415802
0.03628993779420853
-0.3105385899543762
-0.17421895265579224
-0.5570583343505859
-0.5133690237998962
-0.2424248903989792
0.05336150527000427
-0.05026659741997719
-0.07764090597629547
0.09415656328201294
0.11820433288812637
0.09318295866250992
-0.09971988946199417
-0.37438398599624634
-0.848444938659668
-0.7414297461509705
-0.8448380827903748
-0.3094504177570343
0.09219541400671005
0.03719957917928696
-0.20291024446487427
-0.5628272891044617
-0.14912903308868408
0.03502681106328964
-0.05020696669816971
0.06932444870471954
0.0372387059032917
0.06409197300672531
0.09188966453075409
0.09304331988096237
-0.04086661711335182
-0.12742890417575836
-0.09295713156461716
0.11960335820913315
0.14418919384479523
0.0954093262553215
0.08732815831899643
0.22992031276226044
0.0881478488445282
0.31533926725387573
0.024159695953130722
-0.014579882845282555
-0.06724324822425842
-0.633759081363678
-0.75278240442276
-0.3093607723712921
0.009676598012447357
0.08106725662946701
-0.14296893775463104
-0.44533276557922363
0.11580264568328857
0.09774428606033325
0.23545214533805847
0.16547629237174988
0.11443280428647995
0.19255714118480682
0.15835244953632355
0.1168612614274025
-0.08786395192146301
0.03381268307566643
0.09361562132835388
0.11651574075222015
0.11576464772224426
0.17419607937335968
0.2106676995754242
0.13498011231422424
0.10847164690494537
0.3352621793746948
0.07056363672018051
0.12133829295635223
-0.003616646397858858
-0.48967108130455017
-0.6436684131622314
-0.14858628809452057
-0.07008616626262665
0.04416375979781151
-0.3500140607357025
0.026006536558270454
0.5404365658760071
0.12108319997787476
0.16243118047714233
0.23043181002140045
0.21304932236671448
0.2249128818511963
0.14940103888511658
0.33902883529663086
0.14689961075782776
0.0407741516828537
0.10294413566589355
0.04013841599225998
0.19747892022132874
0.17444618046283722
0.058347657322883606
0.1631101816892624
0.04053444415330887
0.08954929560422897
0.12093792110681534
0.01530440803617239
-0.12351028621196747
0.08090409636497498
-0.5833193063735962
-0.19889505207538605
-0.042594779282808304
0.4055962860584259
-0.12956492602825165
0.46668246388435364
0.14145775139331818
0.017454886808991432
0.3237608075141907
0.18695469200611115
0.1694592982530594
0.0831773653626442
0.08090586215257645
0.31186643242836
0.1653130203485489
0.020326709374785423
0.07391982525587082
0.1925353854894638
0.2900707423686981
0.26046687364578247
0.011781460605561733
0.0190841406583786
-0.032154642045497894
-0.09277211874723434
0.11676432937383652
-0.05992545560002327
-0.17018629610538483
0.30211523175239563
0.03545835241675377
0.2770217955112457
0.0367228128015995
0.04685462266206741
-0.18215586245059967
-0.1827763319015503
-0.20629915595054626
-0.0004389449895825237
0.1718171089887619
0.1649811714887619
0.06391451507806778
-0.001307508908212185
0.2919974625110626
0.42088979482650757
0.06741245836019516
0.01782427914440632
0.15809136629104614
0.26926881074905396
0.282903254032135
0.2580859661102295
0.046423688530921936
-0.06881193816661835
0.0913480818271637
0.07415950298309326
-0.05236031487584114
-0.2919093370437622
0.09004560112953186
0.8834624290466309
0.06521507352590561
-0.09209991246461868
-0.08149610459804535
-0.3524818420410156
0.29809731245040894
-0.40561166405677795
-0.16104505956172943
-0.1614585518836975
-0.03288198634982109
0.17105397582054138
0.30566295981407166
0.14660486578941345
0.2629433572292328
0.2962057888507843
-0.12016531825065613
0.3238239884376526
0.1885034739971161
0.247942715883255
0.18861612677574158
-0.011716214008629322
0.052033938467502594
0.01403004303574562
0.10899940878152847
0.27322694659233093
-0.10176927596330643
-0.0169193334877491
-0.07108228653669357
0.7128764986991882
-0.09843329340219498
-0.355034202337265
0.012282035313546658
-0.2292850762605667
-0.20628535747528076
-0.165106400847435
0.05302153527736664
-0.17728665471076965
-0.05954242870211601
0.20658563077449799
0.17375242710113525
0.17381832003593445
0.10614054650068283
0.031657785177230835
0.018551163375377655
0.17878489196300507
0.25047019124031067
0.1861066222190857
0.16483891010284424
0.1181403398513794
0.11459939181804657
0.19972831010818481
0.01781088300049305
0.058955710381269455
-0.0002467039739713073
0.08323324471712112
0.03055042400956154
0.6271750330924988
0.44276225566864014
0.287130743265152
-0.036792028695344925
-0.402629017829895
-0.5089618563652039
-0.08546911925077438
0.03968333452939987
0.07091331481933594
-0.14721180498600006
-0.08891615271568298
-0.0853927731513977
-0.13624069094657898
0.032071709632873535
0.22368213534355164
0.10491007566452026
0.0464177168905735
0.16565610468387604
0.24210092425346375
0.15796010196208954
0.15004131197929382
0.23917309939861298
0.09866081178188324
0.039651427417993546
0.1950184404850006
-0.17528629302978516
0.008002826012670994
0.3456805646419525
0.21509455144405365
0.2840752899646759
0.29551589488983154
0.01756749302148819
-0.26802775263786316
-0.36696648597717285
-0.007441645488142967
0.06932391971349716
0.10840654373168945
-0.15704447031021118
-0.09728201478719711
-0.1536792516708374
-0.2041643112897873
-0.16904571652412415
0.02492406964302063
-0.10758285969495773
0.0012950391974300146
0.051124799996614456
0.19197893142700195
0.12474939227104187
0.024646388366818428
0.12616349756717682
0.20832127332687378
-0.027392180636525154
0.04902028664946556
-0.2840595543384552
0.0050828950479626656
0.563647985458374
0.20047444105148315
0.2576058804988861
-0.040544528514146805
0.039042405784130096
0.2788141965866089
0.08403642475605011
-0.011333517730236053
-0.01356380432844162
0.1710958480834961
-0.18843179941177368
-0.20280516147613525
-0.03247492015361786
-0.13035082817077637
-0.12058568000793457
-0.12010402232408524
0.09325966238975525
-0.014565267600119114
0.10520537942647934
-0.052704889327287674
0.04047640040516853
-0.01161374244838953
-0.00546959787607193
-0.06757751107215881
-0.07964392751455307
-0.05483279749751091
-0.08408467471599579
0.18137992918491364
0.1856183409690857
-0.21685791015625
-0.17401644587516785
-0.04544462263584137
-0.027981318533420563
0.03629494458436966
0.2780342698097229
0.3163345158100128
0.23318468034267426
-0.06549708545207977
-0.19325192272663116
-0.08479289710521698
-0.11825533956289291
-0.1231602132320404
-0.10682662576436996
-0.21908509731292725
-0.20454230904579163
-0.22038820385932922
-0.28984585404396057
-0.38665997982025146
-0.2288811206817627
-0.4234919846057892
-0.37696757912635803
-0.1305946409702301
-0.18278768658638
0.013867936097085476
0.08691386133432388
-0.21846185624599457
-0.10508643090724945
-0.31779175996780396
-0.09717090427875519
0.0723583996295929
0.026615343987941742
0.06153576821088791
-0.0049725784920156
0.09424284845590591
0.12143884599208832
0.01637355610728264
-0.2110169529914856
-0.003018126590177417
0.023520873859524727
-0.23498570919036865
-0.2875584363937378
-0.2611837387084961
-0.4117632806301117
-0.5399073362350464
-0.33158567547798157
-0.3006882965564728
-0.3812227249145508
-0.25008663535118103
-0.15965643525123596
-0.23191125690937042
-0.19247318804264069
0.02852724865078926
0.18082699179649353
-0.35837340354919434
-0.07374943047761917
-0.21174931526184082
-0.16482238471508026
0.03635498881340027
-0.0500711165368557
-0.06553591787815094
-0.06205803528428078
-0.5428336262702942
-0.28480109572410583
-0.09957995265722275
-0.3207377791404724
-0.06743310391902924
-0.1703607141971588
-0.11005793511867523
-0.14028578996658325
0.05326741188764572
-0.0903882309794426
-0.026722555980086327
-0.03605683147907257
-0.04707833752036095
0.061469584703445435
0.09381566941738129
0.036503370851278305
0.09673122316598892
0.17580246925354004
0.34502294659614563
0.23623892664909363
-0.08876244723796844
-0.1709262877702713
0.2152150720357895
-0.15531736612319946
-0.02722935378551483
0.08054549247026443
0.0148162841796875
0.1142181009054184
-0.12540245056152344
0.10805556923151016
0.42501577734947205
0.26057571172714233
0.17369423806667328
0.211456298828125
0.12832432985305786
0.11476394534111023
0.19328176975250244
0.213356614112854
0.1691177487373352
0.17344439029693604
0.0031803897581994534
0.2619341015815735
0.10501284897327423
0.3916982412338257
0.3424830138683319
0.9764042496681213
0.7462729215621948
0.056117091327905655
-0.345762699842453
-0.5615519285202026
0.06263605505228043
-0.15042893588542938
0.021167971193790436
0.04024314135313034
0.013089865446090698
-0.018323414027690887
0.3010558485984802
0.6732480525970459
0.65118807554245
0.4947863221168518
0.4523012638092041
0.39473408460617065
0.19789430499076843
0.147769033908844
-0.0201133880764246
0.23963843286037445
0.016214489936828613
0.16277310252189636
-0.04123253375291824
-0.113133504986763
-0.002033818745985627
0.15433454513549805
0.07307741045951843
0.370061457157135
0.28423386812210083
-0.05071403086185455
0.3162030875682831
-0.070961594581604
-0.04585258290171623
-0.05002320185303688
0.0419049933552742
-0.030698560178279877
-0.029837723821401596
-0.04132380709052086
0.06790300458669662
-0.006970079615712166
0.023984747007489204
0.09018639475107193
0.05615849420428276
-0.3231238126754761
-0.22846579551696777
-0.041711803525686264
-0.15624751150608063
-0.04059856757521629
-0.3012804090976715
0.24131420254707336
0.10241430252790451
-0.25253936648368835
-0.19270552694797516
0.06483477354049683
0.1530269831418991
0.1805788278579712
-0.07246489822864532
-0.3290684223175049
-0.17681847512722015
-0.05740956962108612
-0.07030965387821198
0.0698033943772316
0.03598066419363022
