0.008959971368312836
0.012448430061340332
0.06754287332296371
0.06522750109434128
0.0659131184220314
-0.05067669600248337
-0.08049788326025009
-0.08049280196428299
-0.07610198110342026
0.0025022923946380615
-0.06547407805919647
0.011728882789611816
0.016543008387088776
-0.019264623522758484
0.014157228171825409
-0.03926800191402435
-0.07240168750286102
0.02374197542667389
0.0069353580474853516
-0.07666251808404922
-0.050413794815540314
-0.014607615768909454
-0.03905407339334488
-0.019126109778881073
-0.021106936037540436
0.04722923785448074
0.07511765509843826
-0.08058677613735199
0.05200687795877457
-0.05782708525657654
-0.058698736131191254
-0.07943464070558548
-0.06476520001888275
0.030540525913238525
-0.16212198138237
-0.17551444470882416
-0.08031333982944489
-0.23008106648921967
-0.4292575716972351
-0.5043081045150757
-0.4331299066543579
-0.3494630455970764
-0.1127510592341423
-0.25635677576065063
-0.3026657998561859
-0.3242919147014618
-0.08597977459430695
-0.1707977056503296
-0.32908105850219727
-0.22141240537166595
-0.31143152713775635
-0.4136032462120056
0.00949396938085556
0.07666406780481339
0.002491764724254608
0.05348820239305496
0.03623045235872269
0.07212620228528976
0.05891682952642441
-0.28308942914009094
-0.27139517664909363
-0.030354078859090805
-0.19707909226417542
-0.29936516284942627
-0.3203392028808594
-0.5103508830070496
-0.7289290428161621
-0.6932312846183777
-0.520590603351593
-0.511146068572998
-0.505488395690918
-0.615925669670105
-0.6025282740592957
-0.3347071409225464
-0.4774130880832672
-0.4235750734806061
-0.2842578887939453
-0.41866642236709595
-0.35356467962265015
-0.5702316164970398
-0.2333875447511673
0.07220575958490372
0.010763533413410187
-0.013239569962024689
-0.018312260508537292
0.02654174715280533
0.10347380489110947
-0.31307655572891235
-0.34408485889434814
-0.25036877393722534
-0.41938790678977966
-0.6154307126998901
-0.8550428748130798
-0.6748326420783997
-0.966725766658783
-1.0165170431137085
-1.1489038467407227
-1.1447701454162598
-1.180135726928711
-1.1804994344711304
-0.7409341335296631
-0.6326877474784851
-0.5317438244819641
-0.5684462785720825
-0.5484445691108704
-0.9949266314506531
-0.7334921360015869
-0.08249703049659729
-0.03556547686457634
0.1467236429452896
0.03762977570295334
-0.0544954352080822
0.02976493537425995
0.04195479303598404
0.11775362491607666
0.017184121534228325
-0.32413503527641296
-0.11456813663244247
-0.15186895430088043
-0.2902360260486603
-0.27946510910987854
-0.4877133071422577
-0.40888726711273193
0.02693539299070835
-0.10604066401720047
0.032161202281713486
-0.19608861207962036
0.12227506935596466
0.0769440159201622
-0.005173863843083382
0.07840622961521149
0.2837669551372528
0.1647859364748001
0.20129992067813873
0.11655597388744354
0.33972206711769104
-0.30838122963905334
-0.4221067428588867
-0.2221403270959854
-0.16926774382591248
-0.04809568449854851
0.004294931888580322
0.07036228477954865
0.2596457004547119
-0.18073780834674835
0.23068325221538544
0.03238500654697418
-0.1912742704153061
0.12903080880641937
-0.0033259475603699684
-0.225200355052948
-0.048049699515104294
-0.08348966389894485
-0.2437717318534851
-0.14328348636627197
-0.002249842043966055
-0.21751412749290466
-0.18217089772224426
-0.07806777209043503
-0.04819631576538086
-0.029918357729911804
0.1510382890701294
0.22339028120040894
0.04571670666337013
-0.05080990865826607
-0.2421397566795349
-0.6504769325256348
-0.23828135430812836
-0.02658195048570633
-0.2195700705051422
-0.08506067842245102
0.3380768597126007
-0.11794828623533249
0.1530464142560959
-0.026407085359096527
0.20721617341041565
0.01743815466761589
-0.11138691008090973
-0.15399950742721558
-0.010317221283912659
-0.04923113435506821
-0.0747792199254036
-0.043781597167253494
-0.09907924383878708
-0.10997220128774643
0.05084946006536484
0.07155198603868484
-0.061314262449741364
-0.06805334240198135
0.14002403616905212
0.20001284778118134
-0.16836096346378326
-0.05952191725373268
-0.1381855607032776
-0.06852378696203232
-0.17716479301452637
0.12679342925548553
-0.22896058857440948
0.07636182755231857
0.9017971754074097
0.0642179474234581
1.3277938705869019e-05
0.1543416529893875
0.005094469990581274
-0.14704932272434235
0.03769547864794731
-0.02046215906739235
-0.11003714054822922
-0.06557700783014297
0.030937107279896736
-0.11601562798023224
-0.07781200855970383
0.06033308058977127
0.048197947442531586
-0.006308269686996937
0.08283913135528564
0.09155060350894928
-0.012939956039190292
0.09777218848466873
-0.1248442754149437
-0.19770769774913788
-0.46676087379455566
0.22970686852931976
-0.004557197913527489
-0.2068774551153183
0.32017210125923157
0.17408528923988342
0.4158472418785095
0.10928627848625183
0.04752417653799057
0.00578575162217021
0.1437663435935974
0.19103197753429413
0.06060352921485901
0.009679216891527176
-0.04093637689948082
-0.03696887940168381
-0.03645889833569527
-0.06598599255084991
-0.027726558968424797
-0.0896839052438736
0.012886726297438145
0.10520023107528687
-0.06793168932199478
-0.08793076872825623
-0.05823574215173721
-0.04179796203970909
0.022031983360648155
-0.3819020092487335
-0.40753743052482605
-0.20819251239299774
-0.2052677720785141
0.2850567102432251
1.4559707641601562
0.42158275842666626
0.15784558653831482
0.035263337194919586
0.08856024593114853
0.15663212537765503
0.08181197941303253
0.06337430328130722
0.043746352195739746
0.021262504160404205
-0.005028238985687494
0.10450640320777893
0.09403258562088013
0.04846717417240143
0.11837774515151978
0.12809886038303375
0.1758860945701599
0.10599654912948608
-0.029029490426182747
-0.019556839019060135
-0.11112280189990997
-0.14169196784496307
-0.3357861638069153
-0.4977211654186249
-0.7449350953102112
-0.6746987700462341
-0.11669851094484329
0.25366729497909546
1.3332490921020508
0.7218535542488098
-0.03820134699344635
-0.0370524600148201
0.0911150574684143
0.1608801633119583
0.03803607076406479
0.11844629049301147
0.12237474322319031
-0.0018758149817585945
-0.185130774974823
0.11922207474708557
-0.13968336582183838
0.09124111384153366
0.22887280583381653
0.05832599848508835
0.03843747451901436
0.0375528410077095
0.01892249472439289
0.006988310255110264
-0.04483445733785629
0.07253926992416382
-0.3888743817806244
-0.7748116254806519
-0.24116292595863342
-0.4832993447780609
-0.0400150790810585
0.5446575284004211
0.3985464870929718
1.084899663925171
0.1377371847629547
0.056495971977710724
0.06869950145483017
-0.10178592056035995
0.031744297593832016
0.16850098967552185
0.044772855937480927
0.14132003486156464
0.03233786299824715
0.02341802604496479
-0.005691886879503727
0.32767942547798157
0.2577889561653137
0.1834259033203125
0.17503051459789276
0.16629727184772491
0.06566152721643448
0.022651107981801033
0.018171558156609535
0.12456656992435455
-0.4380635619163513
-0.9595341086387634
-0.7793157696723938
-0.5114392638206482
0.14640535414218903
0.2000555396080017
0.895449697971344
1.5666543245315552
0.18110348284244537
0.13576975464820862
-0.08487071096897125
0.10175181180238724
0.17924785614013672
0.09955505281686783
0.046366553753614426
0.03406960889697075
0.08378039300441742
-0.15509194135665894
-0.045822352170944214
0.048021577298641205
0.1940670758485794
0.1882442831993103
0.17424851655960083
0.19766582548618317
0.08277992904186249
-0.05032138526439667
0.0372520312666893
0.016912803053855896
-0.22116275131702423
-0.491970032453537
-0.4809323847293854
-0.5662931203842163
0.25374501943588257
0.12434446066617966
0.48461470007896423
1.2996364831924438
0.20576637983322144
0.2923847436904907
0.23035745322704315
0.2819955348968506
0.31246480345726013
0.1569555401802063
0.028631001710891724
0.13971403241157532
-0.19737538695335388
-0.31734299659729004
0.19564838707447052
0.10432638227939606
0.025936245918273926
-0.005579805001616478
0.10841052234172821
0.12099093943834305
0.10130652040243149
0.19449234008789062
0.2539145350456238
0.026863176375627518
-0.6864184141159058
-0.6195162534713745
-0.4543793499469757
-0.4858661890029907
0.03298261761665344
-0.0028168484568595886
0.29876768589019775
0.8916629552841187
0.4919116795063019
0.531687319278717
0.39210596680641174
0.24325858056545258
0.2382492572069168
0.12969258427619934
-0.0005912313354201615
0.026573194190859795
-0.4076932668685913
-0.07770407944917679
0.12519235908985138
0.07450709491968155
0.12422526627779007
0.041984591633081436
0.14541243016719818
0.19767269492149353
0.3549650013446808
0.28394293785095215
0.034746672958135605
-0.052936140447854996
-0.3141654431819916
-0.5247177481651306
-0.5314223766326904
-0.5024783611297607
0.0571969673037529
0.24812960624694824
0.024730201810598373
-0.21506629884243011
-0.0227565448731184
0.11553158611059189
-0.17187876999378204
0.14068982005119324
-0.04340835288167
0.08776362985372543
0.024782735854387283
-0.09846338629722595
-0.03405129164457321
0.11703626066446304
-0.0307892058044672
0.06623385101556778
0.0998934805393219
0.1048852726817131
0.3086012005805969
0.16796912252902985
0.09399429708719254
0.1572256088256836
0.06866990774869919
0.21614550054073334
-0.2256731390953064
-0.8202563524246216
-0.8709431290626526
-0.5557826161384583
-0.1310800015926361
0.18884190917015076
0.0834466889500618
-0.24214765429496765
-0.3694251477718353
-0.27793368697166443
-0.12149272859096527
0.014252087101340294
0.2118242084980011
0.1583905965089798
-0.07716643810272217
-0.13491971790790558
-0.020189784467220306
-0.01620270498096943
0.14646711945533752
0.2542163133621216
0.0956631749868393
0.11990278959274292
0.15118040144443512
-0.034495554864406586
-0.05808292329311371
0.14866386353969574
0.35809311270713806
-0.12326111644506454
-0.47247371077537537
-0.8243041038513184
-1.0963616371154785
-0.36036965250968933
-0.2833264470100403
-0.04019445180892944
0.33465665578842163
-0.308631956577301
-0.5198898911476135
-0.19799378514289856
0.028306614607572556
-0.0021935419645160437
0.17627465724945068
-0.042588986456394196
-0.18672698736190796
0.0020321314223110676
-0.08933711796998978
-0.05728020519018173
0.1734618991613388
0.24929817020893097
0.16576583683490753
0.10097338259220123
-0.08439111709594727
0.027694853022694588
-0.08240829408168793
0.06371966749429703
0.12323645502328873
-0.2701669931411743
-0.8201293349266052
-1.107505440711975
-0.5649353265762329
-0.5903465151786804
-0.40577322244644165
0.37699025869369507
0.43275389075279236
-0.24928437173366547
-0.2976585030555725
-0.1530415415763855
-0.14291061460971832
-0.1948302686214447
-0.23597651720046997
-0.36719751358032227
-0.02369004115462303
-0.20791269838809967
-0.0702143982052803
-0.0743141919374466
0.09481114894151688
0.07470887899398804
-0.13033214211463928
-0.129580557346344
-0.18061991035938263
-0.20449070632457733
-0.16219189763069153
0.016397282481193542
-0.18909145891666412
-0.7391326427459717
-1.1100579500198364
-1.2874252796173096
-0.6037380695343018
-0.08187613636255264
0.3343442380428314
0.17906606197357178
0.05661735683679581
-0.21940885484218597
0.02693401835858822
-0.10254544764757156
-0.20667845010757446
-0.3419479429721832
-0.5558524131774902
-0.38712891936302185
-0.40082722902297974
-0.3924087584018707
-0.24103491008281708
-0.22611570358276367
-0.02371804602444172
0.05316777527332306
-0.13839295506477356
-0.2390187829732895
-0.15586815774440765
-0.2443159818649292
-0.20815026760101318
-0.36473217606544495
-0.617653489112854
-1.02668035030365
-1.0021666288375854
-0.9305091500282288
0.027061734348535538
0.1442645639181137
0.2733207643032074
0.007541850209236145
-0.31816619634628296
-0.3819483518600464
-0.3444601893424988
-0.3243292570114136
-0.818827211856842
-0.9064670205116272
-0.4053839445114136
-0.206319659948349
-0.3625014126300812
-0.27461808919906616
-0.10108725726604462
-0.011433402076363564
-0.016175242140889168
0.03911135718226433
-0.061110928654670715
-0.12457721680402756
-0.028630094602704048
-0.4317547380924225
-0.4694654047489166
-0.48732247948646545
-0.42192205786705017
-0.4346877634525299
-0.460332989692688
-0.297037810087204
0.08065950125455856
-0.056222639977931976
0.16675306856632233
-0.006216110195964575
0.11966965347528458
0.028660371899604797
-0.4695724546909332
-0.49726027250289917
-0.7881680130958557
-0.318076491355896
-0.07795868813991547
0.0043433899991214275
0.03089647926390171
-0.03943454101681709
-0.17628158628940582
-0.1848609745502472
-0.2375827431678772
-0.12154074013233185
-0.07347022742033005
-0.12782461941242218
-0.31805893778800964
-0.32630810141563416
-0.3135763108730316
-0.1045641303062439
-0.03345897048711777
-0.22144655883312225
-0.3146573305130005
0.12331028282642365
0.2280476838350296
-0.2500607669353485
0.05827968567609787
-0.019226592034101486
0.038369324058294296
-0.18392261862754822
-0.44046860933303833
-0.6112961173057556
-0.1357535570859909
-0.16608594357967377
-0.1773609071969986
-0.08234842121601105
-0.02935709059238434
-0.09564516693353653
-0.20613925158977509
-0.22346045076847076
-0.2615664005279541
-0.08933515101671219
-0.08874224126338959
-0.16900970041751862
0.049953583627939224
-0.1286686509847641
-0.09772650897502899
-0.042645711451768875
-0.2579386234283447
-0.11285222321748734
-0.14292822778224945
-0.037565190345048904
-0.16425208747386932
0.0028986427932977676
0.012731559574604034
-0.015309609472751617
-0.07919901609420776
-0.48355424404144287
-0.707951009273529
-0.6991156339645386
-0.1286926418542862
0.08059582114219666
0.08204273879528046
-0.0033047301694750786
-0.10352417826652527
-0.07783704251050949
-0.10298050194978714
-0.07809453457593918
-0.05933714285492897
-0.056319646537303925
-0.058956682682037354
0.150649756193161
0.21353422105312347
-0.07527021318674088
-0.11603604257106781
-0.1846000850200653
-0.2072705328464508
0.022021714597940445
-0.16591663658618927
-0.24811315536499023
-0.2870974838733673
0.2898448705673218
-0.018307678401470184
-0.024517793208360672
0.030596651136875153
-0.29231423139572144
-0.5570653080940247
-0.31249478459358215
0.2107098400592804
-0.08811499178409576
-0.15368667244911194
-0.10031247138977051
-0.12406475841999054
-0.12953895330429077
-0.11441648006439209
-0.2032431960105896
-0.2641875147819519
-0.38493072986602783
-0.28620392084121704
-0.4596588611602783
-0.26331520080566406
-0.027371633797883987
-0.15355466306209564
-0.1327265501022339
-0.19246254861354828
-0.1508188396692276
-0.2269039899110794
-0.34906092286109924
-0.2736107110977173
-0.11480541527271271
-0.01828770339488983
0.04958368092775345
0.052688710391521454
-0.2508331537246704
0.43839961290359497
0.16106319427490234
0.26757436990737915
-0.17053340375423431
-0.0821155458688736
-0.02076881006360054
-0.10111359506845474
-0.2266211211681366
-0.16851241886615753
-0.11086072772741318
-0.14196495711803436
-0.038443636149168015
-0.11010831594467163
-0.25765109062194824
-0.23825454711914062
-0.15069906413555145
-0.2330963909626007
-0.12383879721164703
-0.12375657260417938
-0.08251150697469711
0.15673480927944183
0.10757400095462799
-0.16375824809074402
-0.07780192047357559
0.01999390870332718
0.040921710431575775
0.0658559575676918
0.08613740652799606
0.05272212252020836
0.2816951274871826
0.3694664537906647
0.6329754590988159
0.9198452234268188
1.0214760303497314
0.7461190819740295
0.6991322040557861
0.46340686082839966
0.22751253843307495
0.1613282561302185
0.41463181376457214
0.2882995903491974
0.10017574578523636
0.04985043779015541
0.010107657872140408
-0.021984878927469254
-0.02578664943575859
0.21640686690807343
0.1742900013923645
0.25352969765663147
0.17890432476997375
0.2793787717819214
0.03344481438398361
-0.0382336750626564
0.031219080090522766
-0.010723985731601715
-0.014130368828773499
0.0772571936249733
0.24567373096942902
0.3973706066608429
0.8237883448600769
0.7605773210525513
0.9940260648727417
1.4426904916763306
0.9801637530326843
0.7600952386856079
0.907945454120636
1.5478342771530151
2.369711399078369
2.503527879714966
2.241124391555786
2.1381540298461914
1.3269351720809937
1.059582233428955
0.31804004311561584
0.45099931955337524
0.4615894854068756
0.4625284969806671
-0.027903970330953598
-0.012344412505626678
0.07186862081289291
-0.0475909560918808
