-0.06666882336139679
-0.04608342424035072
-0.06801510602235794
0.022459089756011963
0.0812850221991539
-0.07562317699193954
0.044816456735134125
-0.020256564021110535
0.08452538400888443
0.05517377704381943
0.02328091859817505
0.035404786467552185
0.06290542334318161
-0.04543798789381981
-0.05321953073143959
-0.02712647244334221
0.07235457748174667
-0.01487058401107788
-0.04178975895047188
-0.014740116894245148
0.0603284016251564
-0.02017546445131302
-0.04454851150512695
0.05975858122110367
-0.06809243559837341
-0.03873974829912186
0.03026895970106125
-0.038414400070905685
-0.008488446474075317
-0.019711211323738098
-0.08468816429376602
0.04671899229288101
-0.045215025544166565
0.015131346881389618
-0.025863811373710632
0.05899844318628311
-0.04776331037282944
-0.05735385790467262
0.07053529471158981
-0.08588071167469025
0.021957071498036385
-0.06540562212467194
0.20661549270153046
0.3132493793964386
0.20846575498580933
-0.05490778759121895
-0.024979127570986748
-0.013695426285266876
0.07953294366598129
-0.008347868919372559
0.05083014816045761
-0.004682555794715881
-0.06030413508415222
-0.04010093957185745
-0.025146521627902985
-0.06220331788063049
0.011782996356487274
-0.06253764033317566
-0.011615969240665436
-0.05758985877037048
-0.00020433217287063599
-0.09464288502931595
-0.1336987465620041
-0.2446223795413971
-0.3180587887763977
-0.2139941155910492
-0.26496896147727966
-0.5409351587295532
-0.5300898551940918
-0.15333333611488342
-0.05715940520167351
0.21050475537776947
0.10870344936847687
-0.5503195524215698
-0.6059028506278992
-0.4491273760795593
-0.12575727701187134
-0.08696933835744858
-0.004689445719122887
-0.04826333373785019
0.050102584064006805
-0.0622076690196991
-0.04700950160622597
-0.06982629001140594
-0.03289109095931053
-0.05893135815858841
0.20000314712524414
0.17020176351070404
0.3237094283103943
-0.0783095434308052
0.023295748978853226
-0.1417258083820343
-0.12604974210262299
0.0017487320583313704
-0.03608948364853859
-0.21204248070716858
-0.23012788593769073
-0.40677857398986816
-0.6398957371711731
-0.3524439036846161
-0.5909527540206909
-0.8163566589355469
-0.5902257561683655
-0.5890147089958191
-0.5049915313720703
-0.09048894792795181
-0.009496876038610935
-0.0927753746509552
-0.2992625832557678
0.04773077368736267
-0.07257261872291565
-0.0030878782272338867
0.008487164974212646
0.26758453249931335
0.3535979986190796
0.5906654596328735
0.17288143932819366
-0.10083959996700287
-0.11031007766723633
-0.022417034953832626
-0.036201175302267075
-0.10426714271306992
0.15594327449798584
0.11936552077531815
0.06543972343206406
0.1859021931886673
0.1009286642074585
0.0742030069231987
0.0629730299115181
-0.04497898370027542
0.16826224327087402
-0.021671820431947708
-0.020819678902626038
-0.01082063652575016
0.025133932009339333
-0.07942432910203934
-0.24921229481697083
-0.15167690813541412
0.2652100920677185
0.09835032373666763
0.02448131889104843
0.00931769609451294
0.6339202523231506
0.0813487246632576
0.2345552146434784
0.2088937610387802
0.15157438814640045
0.19963128864765167
-0.12387887388467789
-0.04373383894562721
-0.2006009966135025
0.04214739799499512
0.1571718454360962
0.18434986472129822
0.07357761263847351
0.16825073957443237
-0.07762418687343597
-0.20558030903339386
-0.09210480749607086
0.0604313462972641
-0.00662091001868248
-0.014474868774414062
-0.0026401698123663664
-0.08430503308773041
0.14996230602264404
-0.26340794563293457
-0.08187498152256012
0.16878187656402588
-0.007599674165248871
0.33406537771224976
-0.14057835936546326
0.39186376333236694
0.42887648940086365
0.04372052103281021
0.03887481987476349
-0.05570387840270996
0.006855151150375605
-0.008214574307203293
-0.03556906059384346
0.11434617638587952
0.12622232735157013
0.24293510615825653
0.24083571135997772
0.16643470525741577
0.1907244175672531
0.1393485963344574
0.14109034836292267
-0.027089597657322884
0.0018524860497564077
-0.10454557836055756
-0.3560153841972351
0.07100430876016617
0.11418059468269348
0.18472090363502502
-0.03532221168279648
-0.02128762938082218
-0.10602782666683197
0.24297240376472473
-0.3235376477241516
0.12159857153892517
0.08229399472475052
-0.14917337894439697
-0.020055096596479416
-0.005711193196475506
-0.05029159411787987
-0.10535518825054169
-0.10191880911588669
-0.15181629359722137
0.14408336579799652
0.19982324540615082
0.22292539477348328
0.2509860694408417
0.16207285225391388
0.027802595868706703
-0.07447206974029541
-0.03213566169142723
0.17311860620975494
-0.13333763182163239
-0.14352008700370789
-0.12894318997859955
-0.2038232982158661
0.2414555549621582
0.4170299768447876
0.10712730884552002
-0.23259450495243073
-0.46079498529434204
-0.5125545263290405
-0.005956075619906187
0.17528441548347473
-0.2672559320926666
0.12040173262357712
-0.22146029770374298
-0.19698692858219147
-0.1882825791835785
-0.0274904016405344
-0.16968198120594025
-0.0057845693081617355
0.20893710851669312
0.17600055038928986
0.19451968371868134
0.006793363019824028
-0.006977798882871866
0.12412189692258835
0.05956913158297539
0.004960089921951294
0.1338764876127243
0.04901205003261566
-0.27229437232017517
-0.49143141508102417
0.05380607396364212
0.5568106770515442
0.09301348030567169
0.04810930788516998
-0.15238067507743835
-0.30528944730758667
-0.06800493597984314
-0.2373751401901245
-0.23924484848976135
0.12793311476707458
0.11443284898996353
-0.06532066315412521
-0.005358116701245308
0.11721666157245636
-0.0037642312236130238
-0.06874188780784607
-0.06473544239997864
0.10091357678174973
0.1263909637928009
-0.019458835944533348
0.14764106273651123
0.07567112147808075
0.024496449157595634
-0.0525713711977005
0.020418668165802956
0.15993210673332214
-0.4486358165740967
-0.5977951288223267
-0.08494029939174652
0.20442833006381989
0.20275536179542542
0.03282592073082924
0.031875740736722946
-0.29564163088798523
0.11247336119413376
-0.03831629827618599
-0.10505304485559464
0.04712490364909172
0.003791021415963769
0.1451035887002945
-0.10644450038671494
-0.055386245250701904
-0.08886760473251343
-0.24159815907478333
-0.12589116394519806
0.15582218766212463
0.2041720300912857
0.17238686978816986
0.05168907716870308
0.053130876272916794
0.21183758974075317
0.19777804613113403
0.17262303829193115
0.3273564875125885
-0.3072887659072876
-1.1258517503738403
-0.2141726166009903
-0.0773126557469368
0.4769964814186096
0.026339326053857803
0.08881907910108566
-0.362079918384552
-0.10024377703666687
-0.23725444078445435
0.011401724070310593
0.03627575933933258
0.05293089896440506
0.16267794370651245
0.02641092985868454
0.008048785850405693
-0.05416811630129814
-0.026293540373444557
0.03600037097930908
0.5898934602737427
0.28901976346969604
-0.08095436543226242
0.2563695013523102
0.2507370710372925
0.29416170716285706
0.4803776741027832
0.41847866773605347
0.5394673347473145
-0.37511566281318665
-1.120635986328125
-0.5359781384468079
0.13386453688144684
0.3000444769859314
-0.15639948844909668
-0.28543683886528015
-0.23149316012859344
-0.2130809724330902
-0.009005967527627945
0.13732117414474487
0.08466948568820953
0.049099892377853394
-0.1214793398976326
0.0794171690940857
-0.03791998326778412
-0.02661919966340065
-0.03237763047218323
0.0636650025844574
0.6274709105491638
0.26054272055625916
0.05503164231777191
0.298191100358963
0.20171311497688293
0.22102180123329163
0.21406175196170807
0.038807209581136703
-0.1284913420677185
-0.3673764765262604
-0.5269577503204346
-0.3488147258758545
-0.2802756726741791
0.31360119581222534
0.10602957010269165
-0.1193474605679512
-0.21374797821044922
-0.1258828490972519
0.12166913598775864
0.14571267366409302
0.12721337378025055
0.02774791792035103
-0.022620191797614098
-0.04999256506562233
-0.15115982294082642
-0.10630858689546585
-0.0748472511768341
0.3674878776073456
0.4508664309978485
0.23726767301559448
0.09730469435453415
0.16190843284130096
0.188625767827034
0.0073909456841647625
0.062146008014678955
-0.2711575925350189
-0.38687002658843994
-0.5274255871772766
-0.4909396171569824
-0.08633048087358475
-0.317524790763855
0.04014816880226135
-0.20894935727119446
0.28991663455963135
-0.1807163804769516
0.24231164157390594
-0.11223772913217545
-0.035423748195171356
-0.031195299699902534
-0.20097103714942932
-0.053537506610155106
-0.05120738223195076
-0.3094700872898102
-0.04261338338255882
0.04556889086961746
0.3994801938533783
0.41539624333381653
0.22007864713668823
0.01945958286523819
0.053267333656549454
-0.0007620961405336857
-0.05602732673287392
-0.33262351155281067
-0.43679046630859375
-0.4415820837020874
-0.34977713227272034
-0.59037184715271
-0.3020132780075073
-0.2562911808490753
-0.004048958420753479
-0.342840313911438
0.15362286567687988
0.2726587653160095
0.10706230252981186
-0.24482785165309906
-0.2853590250015259
-0.10611528158187866
-0.1560768187046051
-0.10337968170642853
-0.07385610789060593
-0.18616294860839844
-0.12827444076538086
0.02806091122329235
0.34951457381248474
0.3284306526184082
0.08324883133172989
0.007930221036076546
-0.018354013562202454
-0.06508306413888931
-0.19062280654907227
-0.12429152429103851
-0.30155202746391296
0.0934709906578064
-0.36689290404319763
-0.9300110340118408
-0.42412346601486206
0.06981673091650009
-0.08328346163034439
0.05639549344778061
0.44695019721984863
0.5800911784172058
0.35159340500831604
-0.07345027476549149
-0.24222393333911896
-0.03790459781885147
0.024877775460481644
0.11134476214647293
-0.028622029349207878
0.05618776008486748
-0.1453198939561844
0.03346532583236694
0.2127302587032318
0.2714337408542633
-0.059044647961854935
-0.06275494396686554
-0.009859996847808361
-0.12215399742126465
-0.20380207896232605
-0.12385918945074081
-0.047372449189424515
0.12766091525554657
-0.30587929487228394
-1.3513569831848145
-0.8545918464660645
-0.04745269566774368
-0.15021811425685883
-0.07568775862455368
0.47559717297554016
0.3433060646057129
0.19807647168636322
-0.11990510672330856
-0.19486382603645325
-0.3267368972301483
-0.060394275933504105
-0.0339508131146431
0.05608322471380234
0.13923613727092743
0.00013631212641485035
0.32292643189430237
0.42284443974494934
0.10957144945859909
-0.18882857263088226
-0.09868772327899933
-0.11513485759496689
-0.1713351607322693
-0.1598948836326599
-0.02817382663488388
0.07692860066890717
0.2815116047859192
-0.23174937069416046
-1.5544458627700806
-0.5844370722770691
0.08807982504367828
-0.12498712539672852
0.35706278681755066
0.4754181206226349
0.7360692620277405
0.050782497972249985
-0.3044896423816681
-0.22120089828968048
-0.21609260141849518
-0.2844623625278473
-0.3977300822734833
-0.21839852631092072
-0.21502676606178284
-0.06166625767946243
-0.3089815378189087
0.00037517910823225975
-0.03029937483370304
-0.09804240614175797
-0.08505678921937943
-0.09272880107164383
0.002557166386395693
0.08464779704809189
0.09123902022838593
0.15551039576530457
0.12803493440151215
-0.6314133405685425
-1.7794334888458252
-0.428112655878067
0.08727218955755234
0.2935524582862854
0.158421590924263
-0.11063987761735916
0.23369775712490082
0.14826644957065582
-0.09821543097496033
-0.06923414021730423
-0.07201486825942993
0.01601141318678856
-0.13930171728134155
-0.2342822551727295
-0.39610105752944946
-0.527986466884613
-0.6736571788787842
-0.3545137643814087
-0.31187912821769714
-0.12570250034332275
-0.06837421655654907
-0.017604632303118706
-0.002725947415456176
0.020556511357426643
-0.04461132362484932
0.01218552328646183
-0.06428296118974686
-0.7305640578269958
-1.4953314065933228
-0.08361643552780151
0.23540163040161133
0.43540170788764954
0.02943989634513855
0.07744717597961426
-0.051442794501781464
0.24619635939598083
0.032845236361026764
-0.046777211129665375
-0.01523528341203928
0.04365386813879013
-0.057381730526685715
-0.06021583080291748
-0.03101852349936962
-0.1123274639248848
-0.20132121443748474
-0.18850333988666534
-0.19756151735782623
-0.19116240739822388
-0.13703712821006775
-0.21443088352680206
-0.0325838103890419
0.00465428875759244
-0.14555586874485016
-0.07444360107183456
-0.17270684242248535
-0.8897562026977539
-1.0086860656738281
-0.21812337636947632
0.15177898108959198
0.21505969762802124
0.23625795543193817
0.5077893733978271
0.2932734787464142
-0.03860107809305191
-0.1678372174501419
0.053492460399866104
0.016548868268728256
-0.09525548666715622
-0.08829062432050705
-0.1409926563501358
-0.024539386853575706
-0.14057734608650208
-0.1503913253545761
-0.13900037109851837
-0.10620612651109695
-0.2617262303829193
-0.18495452404022217
-0.2828214764595032
-0.17468369007110596
-0.15899866819381714
0.08403624594211578
-0.02236791141331196
-0.47899898886680603
-1.1849719285964966
-0.557228684425354
-0.08902409672737122
-0.14634060859680176
-0.056964777410030365
0.15218481421470642
0.22666896879673004
0.5663922429084778
0.3306308388710022
-0.17164811491966248
0.058592211455106735
0.035182468593120575
0.09879333525896072
-0.05585252493619919
-0.015036491677165031
-0.07505609840154648
0.0027981740422546864
-0.12223636358976364
-0.15677884221076965
-0.013302074745297432
-0.05238313972949982
-0.13290633261203766
-0.022796496748924255
-0.18810966610908508
-0.10820044577121735
-0.15989699959754944
-0.19371961057186127
-0.9003947973251343
-0.4625009298324585
0.04800093546509743
0.26063963770866394
0.3156290352344513
-0.016029804944992065
-0.07423274219036102
-0.05448038876056671
0.48389074206352234
0.20730967819690704
-0.13095200061798096
-0.12283079326152802
-0.16147245466709137
-0.016076071187853813
0.08262943476438522
-0.08715950697660446
-0.12844206392765045
-0.03364449366927147
0.13703978061676025
0.122557133436203
0.09338488429784775
0.1010681614279747
-0.010334263555705547
0.082966648042202
0.04596351832151413
-0.31035563349723816
-0.20075973868370056
-0.4378935992717743
-0.45810338854789734
-0.18866388499736786
0.44146728515625
0.24515177309513092
0.359409362077713
-0.06025095283985138
-0.0594753623008728
0.0671338215470314
0.6066163778305054
0.07857971638441086
0.009621948935091496
0.22801321744918823
0.10446381568908691
-0.014073718339204788
-0.1185542419552803
-0.12128495424985886
-0.00039923738222569227
-0.010507766157388687
-0.17221492528915405
-0.15593287348747253
-0.25815391540527344
0.017715703696012497
0.05339282751083374
-0.035429924726486206
-0.09083818644285202
-0.17134016752243042
-0.007496439851820469
0.16366462409496307
0.04419068619608879
-0.03503352776169777
-0.2704028785228729
-0.013760603033006191
0.07370615005493164
-0.0064856186509132385
-0.06233826279640198
0.024530500173568726
0.3656677305698395
-0.43139219284057617
-0.4041186273097992
-0.06093428283929825
-0.15767979621887207
-0.20128794014453888
0.08945488929748535
-0.0028878289740532637
-0.0926104411482811
-0.06553574651479721
0.1201622486114502
0.05527706816792488
0.12003835290670395
-0.19039200246334076
0.030616119503974915
0.27302294969558716
0.4585556983947754
0.6777355074882507
0.7436938285827637
1.0709831714630127
0.4607599675655365
0.1935628354549408
0.10490003973245621
0.3790673613548279
0.05439772456884384
-0.012675955891609192
-0.058108288794755936
0.03559069335460663
-0.03606124594807625
0.2733837068080902
-0.04857991635799408
-0.12731896340847015
0.07605624943971634
0.0800931453704834
0.285429447889328
0.29209426045417786
0.3044945001602173
0.25716352462768555
0.28255072236061096
0.21414026618003845
0.6447919607162476
0.3942364454269409
0.574773907661438
0.5331078171730042
0.5451804399490356
0.6464691758155823
0.8887330889701843
0.7020816802978516
0.5651568174362183
0.4429912269115448
0.0368390791118145
-0.19154034554958344
0.07734660059213638
-0.0028660669922828674
-0.0703863799571991
-0.0858895406126976
-0.03888930380344391
0.06586606055498123
-0.23018524050712585
-0.34536290168762207
-0.31539401412010193
0.05432461202144623
0.18678200244903564
0.028304560109972954
-0.2192923128604889
-0.03717329725623131
0.11476165801286697
-0.20213744044303894
0.10707452893257141
-0.1260317713022232
-0.31545382738113403
-0.3945464789867401
-0.12277733534574509
-0.48511794209480286
0.09930490702390671
0.4379732012748718
0.3087640702724457
-0.09944309294223785
0.02555064857006073
0.028540827333927155
-0.0334673635661602
-0.032395150512456894
