-0.00036860257387161255
-0.03230132535099983
0.0030182376503944397
-0.023780547082424164
-0.014185644686222076
0.08327851444482803
0.040735967457294464
0.060626231133937836
0.010605789721012115
0.05293642729520798
-0.021848738193511963
-0.05169139802455902
-0.06329213082790375
0.04575628787279129
-0.06670316308736801
-0.04146239906549454
-0.03421624004840851
0.0015708506107330322
0.06413523107767105
0.005484491586685181
-0.04765421152114868
0.047647975385189056
0.08510958403348923
0.05984606593847275
0.015287786722183228
0.07921802252531052
-0.012716367840766907
-0.06952226907014847
0.07304433733224869
-0.05347917973995209
0.0669928565621376
0.02078036218881607
0.047807104885578156
0.07158524543046951
0.015601329505443573
0.086173415184021
0.03540356457233429
-0.04783015698194504
0.1382371187210083
-0.04491312429308891
-0.049452584236860275
-0.02994409017264843
-0.006118707824498415
0.05526703596115112
-0.06054876744747162
-0.02855304814875126
0.11902815848588943
0.1900256723165512
0.09530491381883621
-0.0009968096856027842
-0.036248255521059036
0.06916006654500961
0.0044689178466796875
-0.054965633898973465
0.01455986499786377
-0.04899357631802559
0.07491902261972427
0.047006018459796906
-0.06414218991994858
0.26165497303009033
0.13386270403862
-0.07164665311574936
0.10571286827325821
0.2483121156692505
0.23213878273963928
0.056716080754995346
0.0305801834911108
-0.34731951355934143
-0.4593963325023651
-0.1453246772289276
-0.3410954773426056
-0.34099459648132324
-0.5276861190795898
-0.27257415652275085
-0.25513750314712524
-0.060129065066576004
-0.2305932492017746
-0.0978802964091301
-0.0023970177862793207
-0.1485196202993393
-0.1042288988828659
-0.04484034702181816
-0.0823882594704628
0.055478908121585846
0.05522402375936508
-0.04141315445303917
-0.0845407247543335
0.18773657083511353
0.20881104469299316
-0.00762579869478941
-0.2646128833293915
0.0009145936346612871
-0.17712679505348206
-0.23292939364910126
-0.20935559272766113
-0.27800706028938293
-0.3330098092556
-0.5373655557632446
-0.3513728082180023
-0.4687063694000244
-0.4128605127334595
-0.44480231404304504
-0.5324442386627197
-0.34645330905914307
-0.03055722638964653
-0.18289977312088013
-0.21600238978862762
0.14296621084213257
0.420793354511261
0.15631075203418732
0.07779423147439957
0.04940272122621536
0.06143704801797867
0.015603959560394287
0.09394252300262451
0.1720322072505951
-0.35237419605255127
-0.14740727841854095
-0.279642790555954
-0.13078077137470245
-0.3585992455482483
-0.3429844081401825
-0.27728351950645447
0.06460697203874588
0.08019820600748062
0.08769600838422775
0.0336112454533577
0.0034719067625701427
-0.1035199835896492
0.013522899709641933
0.11561121791601181
-0.24095012247562408
-0.2919261157512665
-0.19832919538021088
-0.12720631062984467
-0.2795730233192444
0.014575906097888947
0.0714908093214035
0.5400645136833191
-0.010060125030577183
0.036027692258358
-0.039010487496852875
-0.10752644389867783
0.12395787984132767
-0.20549917221069336
-0.20182599127292633
-0.09850451350212097
-0.23729918897151947
-0.1762755811214447
-0.14146915078163147
-0.23099958896636963
0.08119839429855347
0.04974302276968956
0.15032222867012024
0.035374484956264496
-0.0497029572725296
0.05815918743610382
0.09404925256967545
-0.042814016342163086
-0.010512296110391617
0.17824149131774902
0.0007344936020672321
0.0349196121096611
-0.19448663294315338
-0.17717698216438293
0.6132380962371826
0.8341048955917358
0.2185085564851761
0.010901562869548798
-0.03693466633558273
-0.10538625717163086
0.10752610862255096
-0.21361736953258514
-0.10676110535860062
-0.03584674373269081
-0.3958207666873932
-0.14828549325466156
-0.3147554099559784
-0.05141284316778183
0.025479428470134735
0.1730916053056717
0.18910932540893555
0.2839006185531616
0.3379971385002136
0.09928692132234573
0.29503417015075684
0.21840155124664307
0.11414530873298645
0.10390376299619675
0.16493380069732666
0.03998987004160881
0.11191634833812714
-0.03888745978474617
0.493167519569397
0.26147928833961487
0.5502639412879944
0.0015533858677372336
0.04255864396691322
0.007738127373158932
0.10870403796434402
-0.23062098026275635
-0.1342729926109314
-0.0947238951921463
-0.04441915825009346
0.04916701838374138
-0.01203778013586998
0.05809400603175163
0.16210909187793732
0.16671791672706604
0.12948793172836304
0.25581562519073486
0.44481921195983887
0.39767593145370483
0.21201936900615692
0.2860836088657379
0.01871313340961933
0.07183392345905304
0.03581652790307999
0.07759815454483032
-0.06891124695539474
0.02267058752477169
0.07387246191501617
-0.18758174777030945
0.8939393758773804
0.048953890800476074
-0.25495555996894836
0.18061265349388123
0.26726165413856506
-0.09168606996536255
0.1170775443315506
0.07351721823215485
0.006055476609617472
0.10750412940979004
-0.012460815720260143
0.10158968716859818
-0.010819452814757824
0.16778524219989777
0.057767026126384735
0.0777241662144661
0.28297656774520874
0.5020608305931091
0.1692923754453659
0.159662127494812
0.1675746887922287
0.059876423329114914
0.09183674305677414
0.03922067582607269
0.18525078892707825
0.018668489530682564
0.16269628703594208
0.13768717646598816
0.5782708525657654
0.012277016416192055
0.0496399849653244
0.13385795056819916
0.13698121905326843
-0.1942279040813446
0.2097368687391281
0.027123240754008293
0.06921924650669098
0.20553366839885712
0.24951040744781494
0.13177207112312317
0.10325203090906143
0.0759265273809433
0.12070057541131973
-0.022920886054635048
-0.07992596179246902
0.11888066679239273
0.23075678944587708
0.24903294444084167
0.16605053842067719
0.2760498821735382
0.14454670250415802
0.1305442899465561
0.3218330442905426
0.5529268383979797
0.7338058948516846
0.3407098948955536
0.28426387906074524
0.12869492173194885
0.0761428028345108
0.10190974175930023
-0.32228100299835205
-0.12403160333633423
0.17847847938537598
0.30485478043556213
0.23083916306495667
0.3441813886165619
0.27809664607048035
0.2576051354408264
0.35001063346862793
0.1597805917263031
0.12178852409124374
-0.13418425619602203
-0.4317108690738678
-0.058108679950237274
0.04758460447192192
0.0958949625492096
0.05053776130080223
0.09890633821487427
0.16971731185913086
0.22255340218544006
0.30788740515708923
0.37689048051834106
0.3830808997154236
0.8321376442909241
0.0008947206079028547
0.12491709738969803
-0.04822206869721413
0.07634160667657852
-0.4162929654121399
-0.010905947536230087
0.14710189402103424
0.1528492271900177
0.2596622109413147
0.3266557455062866
0.16575972735881805
0.2079642117023468
0.25135794281959534
0.28220054507255554
0.4215332865715027
-0.07986372709274292
-0.3940363824367523
-0.30270975828170776
0.016337821260094643
-0.020029345527291298
0.04596780613064766
0.16778255999088287
0.13655105233192444
0.04569967836141586
0.176788330078125
0.1665593981742859
0.14814132452011108
0.5952672362327576
-0.2180817425251007
0.015815380960702896
0.03895587846636772
0.04752868786454201
-0.3261193633079529
0.1395883858203888
0.23748038709163666
0.013348797336220741
0.08660823106765747
-0.04177439585328102
0.08322199434041977
0.11127278953790665
0.10174063593149185
-0.02067464590072632
0.014323769137263298
-0.07441338151693344
-0.13004550337791443
-0.23297086358070374
-0.11214783787727356
-0.11165767908096313
0.047192636877298355
0.0073505728505551815
0.06987562775611877
0.14835019409656525
0.35202720761299133
-0.09478779882192612
-0.09759639203548431
0.3363358676433563
0.02186155691742897
-0.021747879683971405
-0.044634632766246796
0.08057483285665512
0.15993531048297882
-0.029689844697713852
0.1242818757891655
-0.09318219125270844
-0.08372483402490616
-0.0516648031771183
-0.003998048137873411
-0.11029421538114548
0.00048673676792532206
0.024527234956622124
-0.08326361328363419
-0.10948368906974792
-0.03821659833192825
-0.0931682288646698
-0.0934743881225586
-0.07037952542304993
0.0069472636096179485
0.017160797491669655
0.016079718247056007
0.29940664768218994
0.1585090309381485
-0.13945266604423523
-0.1664440780878067
0.39641106128692627
0.03708488121628761
0.17892590165138245
-0.19580253958702087
-0.07298744469881058
-0.11132826656103134
-0.08300183713436127
-0.24067175388336182
-0.26572707295417786
-0.09695526212453842
-0.158318892121315
-0.06972578912973404
-0.034329719841480255
-0.09248016774654388
-0.1996029019355774
-0.04778699204325676
-0.018586575984954834
0.013618324883282185
-0.17971520125865936
-0.10378774255514145
-0.3100872039794922
-0.33205538988113403
-0.0772787481546402
0.1932220309972763
0.047235459089279175
0.15268373489379883
-0.015910735353827477
-0.3471357226371765
0.006404147017747164
-0.19242310523986816
0.11509302258491516
-0.010565836913883686
-0.11546216905117035
-0.5062840580940247
0.02946031279861927
0.029675442725419998
-0.13315434753894806
0.07409606873989105
-0.11486044526100159
-0.11581692844629288
0.06738262623548508
-0.19597084820270538
-0.17890164256095886
0.0397765189409256
-0.13150522112846375
-0.015453459694981575
-0.1845010668039322
-0.2541082799434662
-0.17558494210243225
-0.18713456392288208
0.04417489469051361
0.09268540143966675
-0.043357186019420624
0.17207089066505432
0.1363510936498642
-0.26791077852249146
-0.4189913868904114
-0.0598529577255249
0.05805165693163872
-0.10647077858448029
0.22967500984668732
-0.40762320160865784
-0.08043015003204346
-0.014674214646220207
-0.07438882440328598
-0.03220422565937042
0.12759114801883698
-0.07507622241973877
0.042060818523168564
-0.12111710011959076
0.025698844343423843
-0.23705385625362396
-0.1973719298839569
-0.20822258293628693
-0.16368015110492706
-0.19458258152008057
-0.2629995346069336
-0.11231979727745056
-0.136861652135849
-0.14947520196437836
-0.2515298128128052
0.20394615828990936
-0.04290095716714859
-0.7523669600486755
-0.7525341510772705
-0.16612683236598969
-0.031205732375383377
-0.23214904963970184
-0.1648225635290146
-0.1536799818277359
-0.030957920476794243
0.06721724569797516
-0.055068109184503555
-0.10122474282979965
-0.05737339332699776
0.0366659015417099
-0.012495046481490135
0.03649602085351944
-0.017593037337064743
-0.1827201247215271
-0.12299643456935883
-0.11519085615873337
-0.04318258538842201
0.049165043979883194
-0.18150006234645844
-0.09082171320915222
0.003023939672857523
-0.04674306884407997
-0.09593987464904785
-0.18548434972763062
0.3071156442165375
-0.9777637720108032
-0.33209487795829773
-0.07792414724826813
0.03098597563803196
-0.17125843465328217
-0.07038223743438721
-0.5358161926269531
-0.10139269381761551
-0.05045445263385773
0.04156803339719772
-0.03870033845305443
0.016580568626523018
0.09015900641679764
0.04511161893606186
0.0034704923164099455
-0.3007594048976898
-0.4543003737926483
-0.21719081699848175
-0.01653231866657734
-0.07445456087589264
0.040518928319215775
-0.08038985729217529
-0.15401345491409302
-0.08913859724998474
-0.1259339302778244
0.12390106171369553
-0.2546420693397522
-0.16217464208602905
-0.5171375274658203
-0.16245009005069733
-0.19764702022075653
-0.0695943683385849
0.09887797385454178
0.1024092435836792
-0.43796443939208984
-0.22991956770420074
-0.11235655844211578
0.1335747092962265
0.13129575550556183
0.17473289370536804
0.08935331553220749
0.06685652583837509
-0.0965915396809578
-0.12969666719436646
-0.19461750984191895
-0.14504781365394592
-0.13047097623348236
-0.055168796330690384
0.003537137061357498
0.03458362817764282
-0.03456493839621544
-0.10570796579122543
-0.24070146679878235
0.08947823196649551
0.013117840513586998
-0.1686985343694687
-0.5539671778678894
-0.11927145719528198
0.02002822421491146
-0.03425537049770355
0.014629327692091465
0.07084807753562927
-0.5070022344589233
-0.1488361805677414
0.004193351604044437
-0.0899038091301918
0.06799336522817612
0.18481194972991943
0.08683747053146362
0.09450621157884598
-0.042501259595155716
0.05887218937277794
-0.06692326068878174
-0.2544701099395752
-0.05788486823439598
-0.2509630024433136
-0.043685656040906906
-0.11036693304777145
-0.05712074413895607
-0.08438609540462494
-0.1508866548538208
0.07490035891532898
-0.18694618344306946
-0.4043417274951935
-0.5218505263328552
-0.2380315661430359
0.020770663395524025
0.04829675331711769
0.0647757276892662
-0.027429092675447464
-0.3953758776187897
-0.22730959951877594
-0.15453656017780304
0.04849528521299362
0.017665738239884377
-0.11021513491868973
0.0036971645895391703
0.14744801819324493
0.03308288753032684
-0.08763120323419571
-0.18524903059005737
-0.20977523922920227
-0.17212894558906555
-0.2409835010766983
-0.296490341424942
-0.17326270043849945
-0.19881686568260193
-0.14482928812503815
-0.09570980072021484
-0.0332314670085907
-0.18611960113048553
-0.4386487603187561
-0.172254279255867
0.15614759922027588
0.13113383948802948
-0.010250016115605831
0.16490723192691803
-0.09278331696987152
-0.41138729453086853
-0.6018181443214417
-0.3130989968776703
-0.013241399079561234
-0.023835301399230957
-0.05150694027543068
-0.009864302352070808
0.0896437019109726
0.09173659980297089
0.18924106657505035
0.08205384761095047
0.098262257874012
-0.1733771413564682
-0.08504031598567963
-0.16347460448741913
-0.10634978115558624
-0.14103873074054718
-0.3291102945804596
-0.46231067180633545
-0.0342751108109951
-0.21033941209316254
-0.3043489456176758
-0.12234922498464584
-0.056948572397232056
0.12188863009214401
-0.022641032934188843
-0.073382169008255
0.04972273111343384
-0.10923635214567184
-0.39730894565582275
-0.3289400637149811
-0.11359856277704239
-0.12748999893665314
-0.023181330412626266
-0.1340743750333786
0.0064737023785710335
0.13535994291305542
0.14280851185321808
0.3246474862098694
0.23238147795200348
0.20667973160743713
0.0659458339214325
0.13456575572490692
-0.043840110301971436
-0.25630536675453186
-0.13542789220809937
-0.18895381689071655
-0.05236634239554405
0.05765864625573158
-0.018470294773578644
-0.3906361758708954
-0.35726067423820496
3.9190053939819336e-05
-0.059099093079566956
0.08596599847078323
-0.009792409837245941
0.2915879786014557
0.04668475314974785
-0.32685109972953796
-0.2166144698858261
-0.057858992367982864
0.04816114902496338
-0.12787261605262756
-0.0956963449716568
-0.11729566007852554
-0.012464056722819805
0.041556160897016525
-0.04156441241502762
0.16769666969776154
0.24725525081157684
0.16212789714336395
0.41056013107299805
0.1985611468553543
0.42403435707092285
0.4091295897960663
0.17893993854522705
-0.21101945638656616
-0.7041181325912476
-0.6185305714607239
-0.18831516802310944
-0.01344597339630127
0.050117127597332
0.03914060443639755
-0.06628354638814926
0.21603833138942719
-0.09789759665727615
0.07161734253168106
0.23388788104057312
0.056540489196777344
0.17361114919185638
0.02625923790037632
0.1078617051243782
0.15521283447742462
0.060403116047382355
0.050094906240701675
-0.08677482604980469
0.1937030702829361
0.2634369432926178
0.31845495104789734
0.4823196232318878
0.5481791496276855
0.6046814918518066
0.7270269989967346
0.3482893705368042
-0.054706960916519165
-0.1209709569811821
-0.022804345935583115
0.02778628282248974
-0.07791359722614288
0.05877908319234848
-0.07862481474876404
0.07224870473146439
0.06061895191669464
0.14350242912769318
0.026064660400152206
0.14326252043247223
0.392191082239151
0.5758013725280762
0.4011031687259674
0.5295372009277344
0.84226393699646
0.6445618867874146
0.9174148440361023
0.9478867053985596
0.5029703378677368
0.870891273021698
0.6573706865310669
0.7453230619430542
0.7394552826881409
0.792718768119812
0.7068332433700562
0.18434058129787445
0.09264340996742249
-0.11643242835998535
0.08873183280229568
-0.014421753585338593
-0.031003307551145554
-0.019707977771759033
-0.02399953454732895
0.008143804967403412
0.06950078159570694
0.10184193402528763
0.1874104142189026
0.05891118943691254
-0.03976430371403694
0.0588531494140625
-0.133758544921875
0.21846531331539154
0.21892547607421875
0.3682557940483093
0.2538798451423645
0.004021673928946257
0.047743093222379684
0.14915546774864197
0.17895722389221191
0.30136990547180176
0.17780931293964386
0.06406012177467346
0.24011889100074768
0.1583370566368103
0.0034197689965367317
-0.07567567378282547
-0.02650686353445053
-0.07007145136594772
0.06123066693544388
