0.029249325394630432
0.02198760211467743
-0.043184712529182434
0.038129113614559174
0.026991739869117737
0.028275370597839355
-0.0347452387213707
0.04621463268995285
0.016686759889125824
0.051300741732120514
-0.07734318822622299
0.02686392515897751
0.12225036323070526
0.0169980525970459
0.05140826106071472
0.0358424074947834
0.001240171492099762
0.007388606667518616
0.06163618713617325
0.014130622148513794
-0.030982062220573425
-0.03605024144053459
-0.051743894815444946
0.0644117221236229
0.04943481832742691
0.062423549592494965
0.026115335524082184
-0.07433703541755676
0.02129010111093521
0.05967376381158829
-0.004505127668380737
-0.0011642128229141235
0.1572466343641281
0.25257736444473267
0.602838933467865
0.4904155135154724
0.44045934081077576
0.46033012866973877
0.4273543059825897
0.64216548204422
0.7891445755958557
0.8254435658454895
0.05971597507596016
0.34564000368118286
0.2569828927516937
0.6729187965393066
0.963451087474823
0.6582638025283813
0.6804190874099731
0.5216579437255859
0.25766056776046753
0.32729196548461914
-0.023264646530151367
-0.016477614641189575
0.01617966592311859
-0.06938052177429199
-0.03402676805853844
-0.014139987528324127
0.14611944556236267
0.29524746537208557
0.6155836582183838
0.5439711213111877
0.5579678416252136
0.6849465370178223
0.730164647102356
0.24363327026367188
0.3810058832168579
0.46586287021636963
0.5339832305908203
0.4503483772277832
0.28562140464782715
0.17949551343917847
0.24957741796970367
0.35552069544792175
0.48098304867744446
0.5168824195861816
0.6462871432304382
0.6944248080253601
0.6837326884269714
0.6526868939399719
0.3977312445640564
0.2703581154346466
-0.018949031829833984
0.01986750215291977
0.00328093022108078
0.07956571131944656
-0.042020659893751144
0.4252256453037262
-0.060197245329618454
0.07291632890701294
0.4915154278278351
0.3850856125354767
0.2920815050601959
-0.07183437049388885
-0.011102546937763691
0.19138172268867493
-0.03577685356140137
0.04720378294587135
0.14745332300662994
0.22834113240242004
0.1678237020969391
0.20260018110275269
0.15523841977119446
0.333248108625412
0.027210351079702377
0.2720099985599518
0.09428275376558304
0.07308948040008545
0.082929827272892
0.0872807577252388
-0.33370235562324524
0.06384892016649246
0.03501012921333313
0.03490658849477768
-0.049770087003707886
-0.008861128240823746
-0.1378708928823471
-0.15945057570934296
-0.05365000292658806
-0.2304898500442505
-0.1439271867275238
-0.2166023999452591
-0.15113089978694916
-0.14656086266040802
-0.21562349796295166
-0.08190443366765976
-0.2330290526151657
-0.1206284686923027
-0.0792405977845192
-0.0057706069201231
-0.07799998670816422
-0.13280971348285675
0.0481773279607296
-0.04925937578082085
-0.05695609003305435
-0.20762945711612701
-0.5496402382850647
-0.3449844717979431
-0.0584711916744709
0.06672602146863937
0.038586802780628204
0.07531461864709854
-0.2252529114484787
-0.3058989644050598
-0.3668344020843506
-0.5701602101325989
-0.3847736716270447
-0.38889461755752563
-0.10925636440515518
-0.14074067771434784
0.040532954037189484
-0.23581796884536743
-0.08276103436946869
-0.16296349465847015
-0.08831730484962463
-0.0950600877404213
-0.1257322132587433
0.015208256430923939
-0.11857397854328156
-0.01743312180042267
-0.13327668607234955
-0.2615048289299011
-0.16341225802898407
-0.08660095185041428
-0.3534526228904724
-0.2900647222995758
-0.45922011137008667
-0.3521430194377899
-0.08526960015296936
0.016089819371700287
0.2309398353099823
-0.3902577757835388
-0.36667484045028687
-0.3244091272354126
-0.3220917582511902
0.024105733260512352
0.09970098733901978
-0.24212008714675903
-0.09311162680387497
-0.04565293341875076
-0.023126954212784767
-0.004728520289063454
-0.012002170085906982
-0.09089953452348709
-0.068949855864048
-0.07014039158821106
-0.07321649044752121
-0.16866961121559143
-0.0838119387626648
-0.1500227451324463
-0.11371990293264389
-0.11969354003667831
-0.7368296384811401
-0.6885992288589478
-0.7991051077842712
-0.49457526206970215
0.02867535501718521
0.09988769143819809
0.028756167739629745
-0.4268045723438263
-0.4599953293800354
-0.34818029403686523
-0.18123319745063782
0.1278909593820572
-0.08223620802164078
0.06869465857744217
-0.02549893967807293
0.05540991574525833
-0.06366392225027084
-0.16543090343475342
-0.03186560049653053
-0.05366535857319832
-0.05718911066651344
0.06466400623321533
-0.024710647761821747
-0.09528350085020065
-0.22450490295886993
-0.0902547612786293
-0.130459263920784
-0.11587505787611008
-0.4442271590232849
-0.6899210214614868
-0.7041072845458984
-0.5560323596000671
-0.07315752655267715
-0.062289394438266754
0.23581863939762115
-0.2505367696285248
-0.8210505247116089
-0.6314525604248047
-0.11414365470409393
-0.144506573677063
0.013842321932315826
0.06704148650169373
-0.14776726067066193
-0.09697432816028595
0.020594462752342224
-0.0011923781130462885
-0.025289271026849747
0.09177843481302261
0.0690838098526001
0.011246046051383018
-0.20055116713047028
-0.1826566755771637
-0.036627188324928284
-0.11892759054899216
-0.1402849555015564
-0.1032942607998848
-0.49742183089256287
-1.3299320936203003
-0.5716923475265503
-0.39110860228538513
0.07098040729761124
-0.015763964504003525
0.5555424690246582
-0.26575538516044617
-0.4307626485824585
-0.2079402655363083
-0.06382428109645844
0.03711319714784622
0.006338781211525202
-0.09915980696678162
0.04851611703634262
-0.06473928689956665
0.012475806288421154
0.11674511432647705
0.10877043008804321
-0.08575683832168579
-0.08828403800725937
-0.17555999755859375
-0.15706206858158112
-0.1993979662656784
-0.04326128214597702
-0.2030991017818451
-0.19547216594219208
-0.03441540524363518
-0.5243789553642273
-1.3015108108520508
-0.6509200930595398
-0.036248672753572464
0.026288792490959167
0.01774429716169834
0.34849730134010315
0.029556987807154655
-0.38531139492988586
-0.10961444675922394
-0.11650918424129486
-0.006019612308591604
0.05553201213479042
0.03144058957695961
-0.03478686884045601
0.06409984081983566
0.03828840330243111
0.0630863681435585
-0.054892782121896744
-0.05543273314833641
-0.20408694446086884
-0.05059954524040222
-0.07285208255052567
-0.16396313905715942
0.0876336544752121
-0.11061613261699677
-0.029043057933449745
-0.024142125621438026
-0.5600215196609497
-1.2068703174591064
-0.7335965037345886
0.05708923563361168
0.02089911699295044
0.10797760635614395
0.0948633924126625
-0.08675786852836609
-0.7825058698654175
-0.33068880438804626
0.09187794476747513
0.0810120701789856
-0.07038276642560959
-0.004300296772271395
-0.013779625296592712
-0.0559011846780777
0.00914540234953165
0.11110794544219971
-0.21330511569976807
-0.42451193928718567
-0.26623353362083435
-0.07088250666856766
-0.13064874708652496
0.1014825776219368
0.12391578406095505
0.18000203371047974
-0.031821638345718384
0.0974380299448967
-0.21745772659778595
-1.111436367034912
-0.9364565014839172
0.21536850929260254
0.06143077462911606
0.17283175885677338
0.11629737913608551
-0.0034488970413804054
-0.9096193313598633
-0.12585781514644623
0.22436337172985077
0.15984825789928436
0.07249938696622849
0.07613670080900192
0.015727030113339424
0.04744312912225723
0.1874428689479828
0.012934672646224499
-0.3832785189151764
-0.3348239064216614
-0.13797686994075775
-0.15097962319850922
-0.1558377593755722
-0.05616595596075058
-0.17199088633060455
0.09704654663801193
0.30957987904548645
0.34971940517425537
0.07646375894546509
-0.8668232560157776
-0.9779953360557556
0.05940129607915878
0.01997007429599762
0.2606379985809326
0.40292811393737793
0.026757579296827316
-0.3759346306324005
0.04047093912959099
0.3202016353607178
0.04675603285431862
-0.11497049778699875
0.12966538965702057
0.18986012041568756
0.10933061689138412
-0.03201023116707802
-0.26386788487434387
-0.22151482105255127
-0.053741730749607086
-0.1259949952363968
-0.2549992799758911
-0.06687910854816437
-0.17547562718391418
-0.09807726740837097
0.11153864115476608
0.21837611496448517
0.40743327140808105
0.27260202169418335
-0.46523749828338623
-0.9944884777069092
-0.13986794650554657
0.18562576174736023
-0.059111338108778
0.13454240560531616
-0.41187727451324463
-0.4430079758167267
0.13141971826553345
0.08989662677049637
0.18243537843227386
0.09261951595544815
0.12551575899124146
0.027063900604844093
0.16601593792438507
-0.014113460667431355
-0.19531379640102386
-0.11404722929000854
0.006306362804025412
-0.17742368578910828
-0.2191438525915146
-0.10074090212583542
-0.07781776785850525
0.07272148132324219
0.24660076200962067
0.08797400444746017
0.269189715385437
0.24266575276851654
-0.1837819218635559
-1.1945098638534546
-0.06677133589982986
0.2711065411567688
-0.025955792516469955
-0.09783632308244705
-0.5998727083206177
-0.1347489207983017
0.044419433921575546
0.00266701215878129
0.3360464870929718
0.15879499912261963
0.20675279200077057
0.1833772212266922
0.007374743930995464
-0.20827247202396393
-0.1940746158361435
0.023481598123908043
-0.24422502517700195
-0.3034673035144806
-0.10477535426616669
-0.09566245228052139
-0.1410473883152008
0.10396996885538101
0.09858621656894684
-0.024051345884799957
0.11793064326047897
0.12221263349056244
-0.04031014442443848
-1.2642996311187744
-0.37799933552742004
0.0987926721572876
-0.01203947514295578
-0.0588010810315609
-0.5631426572799683
-0.09816988557577133
0.11844506114721298
-0.02796592190861702
0.19163507223129272
0.03414532542228699
0.22477443516254425
0.11806189268827438
0.22219477593898773
-0.15246334671974182
-0.2604150176048279
0.006763353478163481
-0.2441929280757904
-0.39487022161483765
-0.06210928037762642
-0.005683598108589649
0.01344516035169363
0.06798089295625687
0.10959162563085556
-0.008425717242062092
-0.0734938532114029
-0.0284246988594532
-0.09483440220355988
-1.4419819116592407
-0.2719587981700897
-0.039828233420848846
0.06678884476423264
-0.029343193396925926
-0.4338379204273224
-0.1591581404209137
0.002327085705474019
-0.06600131094455719
0.04418477788567543
0.022504163905978203
0.06713922321796417
0.21814969182014465
0.26652631163597107
-0.1016279086470604
-0.11802173405885696
-0.0693930834531784
-0.3056705892086029
-0.13856545090675354
0.1864747405052185
0.00029814025037921965
0.08394675701856613
0.07964341342449188
0.009782332926988602
0.19068960845470428
0.09858761727809906
-0.03897802531719208
-0.023294003680348396
-0.9701064825057983
0.19298624992370605
-0.0011604204773902893
-0.008510604500770569
0.09885381162166595
-0.5936039686203003
-0.13635480403900146
-0.14292895793914795
-0.21629539132118225
0.019320253282785416
0.16057075560092926
0.20052535831928253
0.03551418334245682
0.14518389105796814
0.102016881108284
-0.14920811355113983
-0.15436077117919922
0.007801759988069534
0.024731053039431572
0.07190164923667908
-0.03151751309633255
-0.0016467187087982893
-0.02946099452674389
-0.008338497951626778
0.07068883627653122
-0.11072731763124466
-0.1340668797492981
-0.24409924447536469
-0.339933842420578
-0.4875876009464264
-0.016518034040927887
0.16931359469890594
0.27213919162750244
-0.38924330472946167
0.06147368624806404
0.13009214401245117
-0.0746699646115303
-0.011746929958462715
0.046459898352622986
0.07107184827327728
0.07119832187891006
0.39938250184059143
0.3823091387748718
-0.044130489230155945
0.009759264998137951
-0.05660711228847504
0.11248224228620529
0.1356750875711441
-0.05289541929960251
-0.1067461296916008
0.05518726631999016
-0.12369636446237564
-0.06548035889863968
-0.11633236706256866
-0.15766769647598267
-0.4974980652332306
-0.6925317049026489
-0.2379010170698166
0.05156690627336502
0.1587902456521988
0.14193472266197205
-0.4411826729774475
0.22180365025997162
0.09338134527206421
-0.07770834863185883
-0.1380544900894165
-0.026562372222542763
0.050441570580005646
0.2278912514448166
0.151819109916687
0.3706447184085846
0.2025315761566162
0.18920618295669556
0.25739923119544983
0.05536407232284546
-0.0822426900267601
0.09792274236679077
-0.058644119650125504
-0.05480585992336273
-0.00950334221124649
-0.18222875893115997
-0.3069302439689636
-0.34061452746391296
-0.5081455707550049
-0.20470766723155975
0.004237458109855652
-0.055543795228004456
0.04202132299542427
0.17532852292060852
-0.10868730396032333
-0.017273999750614166
0.02849782258272171
-0.18624456226825714
0.06659016013145447
-0.0010531923035159707
-0.11899664252996445
0.12359824031591415
0.12436587363481522
0.23175710439682007
0.15292009711265564
0.20288540422916412
0.241456538438797
0.0642419084906578
0.10504412651062012
-0.035820066928863525
-0.1491314172744751
-0.0355546735227108
0.027131712064146996
-0.07066336274147034
-0.6053458452224731
-0.4941248893737793
-0.1878645122051239
0.21963298320770264
0.2573547661304474
-0.06645147502422333
0.0584648922085762
-0.10089270770549774
0.014917498454451561
-0.3210817575454712
-0.019466619938611984
0.11733362823724747
0.26639604568481445
0.09513816982507706
0.2228183150291443
0.07898003607988358
0.0531722754240036
0.1633138507604599
0.10427714139223099
-0.0055971164256334305
0.14719714224338531
0.12168803811073303
0.07792383432388306
0.020684774965047836
-0.07828611880540848
0.0057749152183532715
-0.14308194816112518
-0.17743396759033203
-0.5626084208488464
-0.656376838684082
0.014794020913541317
0.26993781328201294
0.16209770739078522
-0.08499988168478012
-0.06985644996166229
0.058694321662187576
-0.34587863087654114
-0.4848664104938507
-0.11841844767332077
0.04676010087132454
0.059874098747968674
0.06930403411388397
0.14538230001926422
0.059723563492298126
0.12020782381296158
0.16953788697719574
0.21192282438278198
0.0854395404458046
0.10762778669595718
-0.07639812678098679
-0.05720747262239456
-0.059427883476018906
-0.23898497223854065
-0.3397153317928314
-0.5129969716072083
-0.4610791504383087
-0.3582023084163666
-0.3986265957355499
0.0774848610162735
0.05135491490364075
0.06964593380689621
0.030742831528186798
0.030103839933872223
-0.035160623490810394
0.017558898776769638
0.0008120372658595443
-0.16104958951473236
-0.13852424919605255
-0.11071912199258804
0.010925996117293835
-0.04630638286471367
-0.18854090571403503
-0.11463670432567596
-0.014330435544252396
-0.1660439670085907
-0.24531199038028717
-0.14288978278636932
-0.17521710693836212
-0.05112609639763832
-0.27977895736694336
-0.7330554723739624
-0.7555128335952759
-0.8377668261528015
-0.4989696741104126
-0.05576219782233238
0.045721083879470825
0.18774420022964478
0.05549073964357376
-0.06500346213579178
0.06995847076177597
-0.07607412338256836
-0.06774437427520752
-0.0676170289516449
0.16418908536434174
-0.058657456189394
-0.24864673614501953
-0.6743937730789185
-0.6512055397033691
-0.4661048948764801
-0.8625932335853577
-1.0147267580032349
-1.344099760055542
-1.1979421377182007
-1.231881856918335
-1.2922435998916626
-1.1812611818313599
-0.8881369233131409
-0.5913620591163635
-0.7416589260101318
-0.46112996339797974
-0.2399866282939911
-0.20012837648391724
0.12807540595531464
0.022606289014220238
0.06291969865560532
-0.07566966116428375
-0.01036468893289566
0.009404845535755157
-0.04361839219927788
0.06661943346261978
0.015265963971614838
0.013864589855074883
-0.09342401474714279
-0.1141110211610794
-0.2737821340560913
-0.4002322554588318
-0.4456521272659302
-0.3707311153411865
-0.03659730777144432
-0.11933726072311401
-0.3752857744693756
-0.20735369622707367
-0.28865665197372437
-0.1828373819589615
-0.26641011238098145
-0.24165117740631104
-0.13569201529026031
-0.30458980798721313
-0.17904411256313324
0.06144370511174202
-0.02396133355796337
-0.027289602905511856
-0.005227267742156982
-0.04048918932676315
-0.07282218337059021
0.023783385753631592
-0.02906975895166397
0.046227119863033295
-0.0394580140709877
-0.06406325846910477
-0.050545595586299896
-0.057353246957063675
0.0422646664083004
0.006168602034449577
0.05811607092618942
0.14110171794891357
-0.011639262549579144
0.16257654130458832
0.15863490104675293
0.09107168018817902
0.04095953702926636
0.02268521673977375
0.12688398361206055
0.10174289345741272
0.08535996824502945
-0.042219553142786026
0.04380166158080101
0.10100729763507843
-0.07026895135641098
-0.08261501789093018
0.03437012434005737
0.03378796577453613
-0.00738651305437088
