-0.0469779372215271
0.003321617841720581
-0.014633603394031525
0.021976366639137268
-0.06482068449258804
-0.056350577622652054
0.08266209810972214
-0.03437410667538643
0.011071011424064636
-0.01640557497739792
-0.07662500441074371
-0.07797463238239288
0.06699899584054947
-0.07134872674942017
0.058251939713954926
-0.04243656247854233
-0.05936183035373688
0.0376669317483902
0.006384223699569702
0.027750931680202484
0.035749636590480804
-0.039444874972105026
0.047240324318408966
-0.045810800045728683
0.07674633711576462
-0.06726782768964767
-0.06729746609926224
-0.025468889623880386
0.06620786339044571
-0.014639489352703094
0.03636661916971207
-0.01064995676279068
-0.06155577301979065
-0.04271022230386734
0.04606052488088608
-0.025436464697122574
0.003715286497026682
0.012210125103592873
0.0008223769837059081
0.01486767828464508
0.03139860928058624
-0.10263144224882126
-0.10287894308567047
-0.13752707839012146
-0.21946600079536438
-0.24534258246421814
0.005521960556507111
0.0038226856850087643
-0.09363008290529251
-0.08412344008684158
-0.07051688432693481
-0.060390107333660126
0.07147594541311264
0.047737665474414825
-0.017163671553134918
0.05804499238729477
0.015103556215763092
-0.014644570648670197
-0.02015122026205063
0.03203841298818588
0.09718232601881027
-0.08114644885063171
-0.046254727989435196
-0.0696975439786911
-0.07417118549346924
-0.15533657371997833
-0.24816003441810608
-0.22619719803333282
-0.16238726675510406
-0.40253981947898865
-0.33371400833129883
-0.2850112020969391
-0.4411167800426483
-0.3327453136444092
-0.10389609634876251
-0.003482567146420479
0.019103355705738068
0.08329642564058304
0.05582905560731888
0.028158292174339294
-0.031635019928216934
-0.06051578372716904
-0.04492030665278435
-0.0008055567741394043
0.01732756942510605
-0.039112165570259094
0.008975043892860413
0.0012204096419736743
-0.044222891330718994
0.22677993774414062
0.10701712965965271
0.08379973471164703
-0.1755727082490921
-0.5452525615692139
-0.4960131049156189
-0.6914393901824951
-0.3670762777328491
-0.4620916247367859
-0.4569833278656006
-0.39009812474250793
-0.23917706310749054
-0.222731351852417
-0.06602896004915237
0.01881057769060135
-0.2214168906211853
-0.0964975357055664
0.09079796075820923
0.09726925194263458
-0.04126590117812157
0.05875604599714279
-0.03820984065532684
0.005173377692699432
0.020513229072093964
0.0470302477478981
-0.07963265478610992
0.2985355257987976
-0.09247332811355591
-0.2718833088874817
-0.2642691135406494
-0.07027562707662582
-0.3389444053173065
-0.369101881980896
-0.477242648601532
-0.284149706363678
-0.2839197814464569
-0.3204907476902008
-0.5014567375183105
-0.4328498840332031
-0.5566329956054688
-0.5239499807357788
-0.5010090470314026
-0.4866991937160492
-0.4334101974964142
-0.2642163336277008
-0.4161975085735321
-0.28825706243515015
-0.09628381580114365
-0.06973053514957428
-0.06276483833789825
0.07269760221242905
0.010435320436954498
-0.04587268829345703
-0.005282707512378693
0.12611258029937744
-0.23163175582885742
-0.14188134670257568
-0.004384866915643215
-0.07290215790271759
-0.004349925089627504
-0.1725045144557953
-0.29284992814064026
-0.19175998866558075
-0.3093765377998352
-0.43862780928611755
-0.6250938773155212
-0.6358867287635803
-0.536698579788208
-0.4699556231498718
-0.3031688332557678
-0.39462077617645264
-0.46984946727752686
-0.21204963326454163
-0.3172660171985626
-0.7279855608940125
-0.325473427772522
-0.039259735494852066
-0.07395931333303452
0.012643917463719845
-0.07472866028547287
-0.16078269481658936
0.3337762653827667
0.3999989330768585
0.11212838441133499
0.09627501666545868
0.1554020494222641
0.028256235644221306
0.1575099676847458
0.12315081059932709
0.03786759451031685
0.14521253108978271
0.09697408974170685
0.15729807317256927
0.2092726230621338
0.24519333243370056
0.20260192453861237
0.15084941685199738
0.09318813681602478
0.019714584574103355
-0.10938365012407303
0.1392914205789566
-0.37679439783096313
-0.6128233671188354
-0.47229883074760437
-0.11237014830112457
0.02357923798263073
-0.026522856205701828
0.21926692128181458
0.196041077375412
0.5889771580696106
0.5551528930664062
-0.24902500212192535
-0.16516363620758057
0.18772661685943604
0.09220513701438904
0.008479071781039238
0.08841551095247269
0.1491430550813675
0.1449815332889557
0.3363066613674164
0.31311285495758057
0.31595519185066223
0.3915364146232605
0.24971258640289307
0.2859797775745392
0.1295299082994461
0.08597423136234283
0.15272963047027588
0.06186893209815025
0.06760875135660172
-0.2628113031387329
-0.3011910617351532
-0.4265364706516266
-0.03542917221784592
-0.07082613557577133
-0.3446321189403534
0.5376524925231934
0.15375632047653198
0.2707156836986542
-0.026039211079478264
-0.05919070541858673
-0.03943343088030815
0.13378974795341492
0.22952616214752197
0.0960230678319931
0.060364317148923874
0.2113979309797287
0.20674307644367218
0.16171176731586456
0.3540581464767456
0.3147721588611603
0.22451560199260712
0.0704166516661644
-0.011497133411467075
0.05460973083972931
-0.14575083553791046
-0.06205372139811516
-0.012647039256989956
-0.043932199478149414
-0.22615455090999603
-0.39361444115638733
-0.1274554282426834
0.012701964937150478
0.33170607686042786
0.7045333981513977
0.3645862340927124
0.11737029254436493
0.12154544144868851
-0.01607484742999077
0.1370091438293457
-0.0007203972199931741
0.024995487183332443
0.039139874279499054
0.12402068078517914
0.2300320416688919
0.22373953461647034
0.19288040697574615
0.2706635296344757
0.21289627254009247
0.08555478602647781
0.13932597637176514
-0.031986303627491
0.0004127213032916188
-0.04754767194390297
-0.11697408556938171
-0.13704270124435425
-0.4487052857875824
-0.15310846269130707
-0.4703820049762726
-0.26994022727012634
-0.14402757585048676
0.2240804135799408
0.9101168513298035
0.45902666449546814
-0.06868527829647064
-0.03467021882534027
0.17315047979354858
0.1998412162065506
0.048774879425764084
0.10328178107738495
0.1305922567844391
0.06222226843237877
0.21834050118923187
0.09495111554861069
0.3186720311641693
0.22261305153369904
0.19163133203983307
0.2784423232078552
0.04346868023276329
0.09382884204387665
0.09260762482881546
0.09294646978378296
0.08255112171173096
0.05836024135351181
-0.23068870604038239
-0.21057075262069702
-0.3794068992137909
-0.47004857659339905
-0.014004410244524479
0.573752760887146
0.5332443714141846
0.7611151337623596
0.17886491119861603
0.14652176201343536
0.16078445315361023
0.09984592348337173
0.1489754468202591
0.13317172229290009
0.04806682467460632
0.11257454007863998
0.2063678503036499
0.006631138734519482
0.09309753775596619
0.021295413374900818
0.17094555497169495
0.07557479292154312
0.1955244243144989
0.24783693253993988
0.16173474490642548
0.3221166729927063
0.204524427652359
0.21108126640319824
-0.07043872773647308
-0.32168078422546387
-0.3490898609161377
-0.2823694944381714
-0.013899612240493298
0.37322375178337097
0.7560186386108398
0.7656201124191284
0.1237495094537735
0.25606751441955566
0.17320290207862854
0.012319222092628479
0.11851981282234192
0.02907087653875351
-0.07352166622877121
-0.1794528216123581
-0.214198499917984
-0.5448378324508667
-0.45229411125183105
-0.10891509801149368
0.1259121149778366
0.16714416444301605
0.23764774203300476
0.2235986441373825
0.15003356337547302
0.0987761840224266
0.05828675255179405
0.09200605750083923
-0.06023779138922691
-0.7063944935798645
-0.2423003762960434
-0.2401541769504547
0.06686007976531982
-0.08031211793422699
0.3599574863910675
0.6684350967407227
0.026365851983428
0.2561352550983429
0.0756104439496994
-0.04787241667509079
0.00011045997234759852
-0.03418222442269325
-0.1761869490146637
-0.14333057403564453
-0.16030927002429962
-0.3964618146419525
-0.27248141169548035
0.05209725350141525
0.006206583231687546
0.19705916941165924
0.13875149190425873
0.13284167647361755
0.0014149104245007038
0.10849235206842422
0.07353001087903976
-0.05857609957456589
-0.20783406496047974
-0.6224371194839478
-0.0861135944724083
0.045834075659513474
-0.02439243718981743
-0.15900926291942596
0.33248716592788696
0.7085027098655701
0.03666454181075096
0.035491716116666794
-0.014122323133051395
-0.01022612489759922
-0.06752393394708633
-0.13728287816047668
-0.1219961866736412
-0.10684523731470108
-0.19100366532802582
-0.2474798560142517
-0.046377699822187424
-0.11778672784566879
0.022748542949557304
0.06992819905281067
0.07662732899188995
0.15895618498325348
0.2086193710565567
0.1938627064228058
-0.06997925043106079
0.053878236562013626
-0.14561425149440765
-0.486748605966568
0.30403509736061096
0.10010963678359985
-0.007780334912240505
0.09884469211101532
-0.040707431733608246
-0.2807789146900177
0.03167382627725601
0.08852657675743103
-0.27751266956329346
-0.04291835427284241
-0.11883427947759628
-0.25105103850364685
-0.14014168083667755
-0.03970414772629738
-0.09489716589450836
-0.18871282041072845
-0.2374303936958313
-0.24451732635498047
0.044169485569000244
0.030636519193649292
0.2803836166858673
0.16643138229846954
0.1112155094742775
0.02562587708234787
0.03398265317082405
-0.05832875147461891
-0.2853386104106903
-0.12466137856245041
-0.14835089445114136
-0.09093194454908371
-0.07294894009828568
0.28978627920150757
-0.2505132257938385
-0.3384976387023926
-0.12485378980636597
0.07243078947067261
-0.2480386197566986
-0.11857609450817108
0.11163598299026489
0.005446563940495253
-0.08724022656679153
0.028848016634583473
-0.0640302374958992
-0.037204667925834656
-0.27719730138778687
-0.33572107553482056
0.01960081048309803
0.11976557224988937
0.14045491814613342
-0.0034642950631678104
-0.02041047438979149
0.00671043898910284
-0.11070447415113449
-0.32748904824256897
-0.27341270446777344
-0.22867228090763092
-0.0949130654335022
0.13188190758228302
-0.19061213731765747
0.05519237369298935
-0.02939089946448803
-0.07137226313352585
-0.3490853011608124
-0.16311146318912506
-0.08438999950885773
-0.129237562417984
-0.053493957966566086
0.1943475306034088
0.033947866410017014
-0.07275892794132233
0.06555566191673279
0.03589920327067375
-0.188864067196846
-0.10118351876735687
0.0122115109115839
-0.033201467245817184
0.05469590798020363
0.10761715471744537
-0.01744801364839077
-0.06436176598072052
0.04927955940365791
-0.23730069398880005
-0.08777125924825668
0.02259129472076893
0.2909970283508301
0.2535717189311981
0.047559767961502075
0.3247237503528595
0.1368052214384079
0.24291720986366272
-0.46438220143318176
-0.17998546361923218
-0.0865655317902565
-0.22453345358371735
-0.1455232799053192
-0.1496649980545044
0.0003739084058906883
0.03747590631246567
0.006113159935921431
-0.31457358598709106
-0.016539251431822777
-0.013628540560603142
-0.0814899280667305
-0.06840527057647705
-0.01924385316669941
0.06761302053928375
-0.14432361721992493
-0.12784667313098907
-0.17623518407344818
-0.2126380354166031
-0.4163658618927002
-0.38252556324005127
0.4334656298160553
0.2614710032939911
0.2256069928407669
-0.028368450701236725
0.328507661819458
0.4164295196533203
-0.26235246658325195
0.036535702645778656
-0.25655341148376465
-0.24162070453166962
-0.3284309208393097
-0.10064173489809036
-0.1781514436006546
-0.20621995627880096
-0.0855928435921669
0.010921377688646317
-0.09346526116132736
0.02272728458046913
-0.0906270295381546
-0.13891619443893433
-0.08570326119661331
-0.17865239083766937
-0.14165504276752472
-0.09066279232501984
-0.29819244146347046
-0.27065128087997437
-0.09615816920995712
-0.21410661935806274
0.2225653976202011
0.15352493524551392
0.03270493447780609
0.015183970332145691
0.07271230965852737
0.08988261222839355
0.09636197239160538
-0.3183412253856659
-0.46895280480384827
-0.6645027995109558
-0.36964401602745056
-0.33207470178604126
-0.45077455043792725
-0.4305649995803833
-0.13892580568790436
-0.002513979095965624
-0.08385796844959259
-0.18303054571151733
-0.19369345903396606
-0.19605176150798798
-0.22545292973518372
-0.3717626631259918
-0.22719267010688782
-0.404435396194458
-0.33839163184165955
-0.25859472155570984
-0.14687439799308777
0.31225234270095825
0.05734732747077942
-0.027948055416345596
-0.0056462362408638
-0.06357932835817337
0.02936646342277527
-0.11605631560087204
-0.13341496884822845
-0.3642818331718445
-0.4205121397972107
-0.4345276355743408
-0.4415385127067566
-0.24944263696670532
-0.2966557741165161
-0.2040230929851532
-0.2494627684354782
-0.011960138566792011
-0.09646973758935928
-0.14958904683589935
-0.1668628454208374
-0.1587538868188858
-0.22306986153125763
-0.4360874891281128
-0.29861876368522644
-0.18225263059139252
-0.2403961718082428
-0.32529017329216003
-0.1660575121641159
0.12767262756824493
0.022888055071234703
-0.37292739748954773
0.0602484866976738
0.010294802486896515
0.10900484770536423
-0.3030559718608856
-0.514491081237793
-0.12968365848064423
-0.05241658166050911
-0.20687976479530334
-0.09728725254535675
0.03634308651089668
0.047242436558008194
0.001967616844922304
-0.22117264568805695
-0.11736864596605301
-0.28492724895477295
-0.14633454382419586
-0.18467065691947937
-0.1828293651342392
-0.17220792174339294
-0.35572266578674316
-0.20828044414520264
-0.20516593754291534
-0.22078518569469452
0.054461270570755005
-0.027882687747478485
0.20696145296096802
-0.15313862264156342
-0.39626502990722656
-0.07053379714488983
-0.07274270057678223
0.06010637432336807
-0.4494956135749817
-0.8178578019142151
0.02512514963746071
0.09292799979448318
-0.10974317044019699
0.08339961618185043
-0.1824079155921936
-0.12702785432338715
0.043673332780599594
-0.19403855502605438
-0.24361562728881836
-0.17037594318389893
-0.24549521505832672
-0.16521936655044556
-0.22885145246982574
-0.19086739420890808
-0.2261541783809662
-0.17546531558036804
-0.1825106292963028
-0.18137790262699127
0.0909760519862175
-0.029857702553272247
-0.05064567178487778
-0.41577938199043274
-0.1829083114862442
0.021750710904598236
-0.07813351601362228
-0.04333289712667465
-0.25275614857673645
-0.37414443492889404
0.17282943427562714
0.5862448215484619
0.023482253775000572
-0.04513230547308922
-0.050103943794965744
-0.2544955611228943
-0.18026570975780487
-0.11286938190460205
-0.21750542521476746
-0.16633664071559906
-0.221283957362175
-0.16019195318222046
-0.2593863010406494
-0.02126152440905571
-0.17124180495738983
-0.10829433053731918
-0.03800182789564133
-0.0411793552339077
-0.05706646293401718
-0.09488680958747864
-0.35361120104789734
-0.3272111117839813
-0.021667875349521637
-0.0036624446511268616
-0.00974275916814804
0.04487033933401108
-0.35185506939888
0.17861810326576233
0.28760772943496704
0.3023393452167511
-0.07292348146438599
-0.11424241960048676
0.05270940065383911
-0.02993365377187729
-0.11250630766153336
0.059325024485588074
0.15123975276947021
-0.056444209069013596
-0.02914496697485447
-0.03794959932565689
0.09962674975395203
-0.044395435601472855
0.08564943075180054
0.045424800366163254
0.17191684246063232
0.1367122381925583
-0.10573027282953262
0.02184818498790264
-0.07737396657466888
-0.07292776554822922
-0.05682707950472832
0.0697002187371254
-0.07327325642108917
-0.042171355336904526
0.04210091382265091
-0.0340084545314312
0.16734492778778076
0.20112338662147522
0.3611224591732025
0.7573655843734741
0.8395344614982605
0.838106095790863
0.6703847050666809
0.5367913246154785
0.3290737271308899
0.5814645290374756
0.7142922282218933
0.4424864649772644
0.5710248947143555
0.3887411653995514
0.37699267268180847
0.2835960388183594
0.18259525299072266
0.4093243479728699
0.35764509439468384
-0.03176416456699371
-0.33373087644577026
0.17499889433383942
0.0037199407815933228
0.02214416116476059
-0.07233540713787079
0.03922528773546219
-0.08030015975236893
0.05162376910448074
0.3167278468608856
0.576673686504364
0.8634666800498962
0.6634963154792786
0.9304195642471313
1.0798853635787964
0.7153652310371399
0.6425028443336487
0.5498753190040588
1.4950820207595825
1.3322919607162476
1.2063086032867432
1.2361420392990112
1.5100349187850952
0.7088106274604797
0.6424550414085388
0.08170386403799057
0.24276593327522278
0.3235742151737213
0.419999897480011
-0.07405763119459152
-0.052610885351896286
0.02460067719221115
-0.032835982739925385
