0.06567645817995071
0.004317522048950195
-0.046082593500614166
-0.008692741394042969
0.025588370859622955
0.037576548755168915
0.033754512667655945
0.06890342384576797
-0.013455234467983246
-0.08339133113622665
-0.02014675736427307
0.020601540803909302
0.3058915436267853
0.2932119071483612
-0.04206913709640503
-0.061295829713344574
-0.06625717133283615
0.061931438744068146
0.08641282469034195
0.04534894973039627
-0.06123492121696472
0.019154317677021027
0.009679153561592102
0.03208190202713013
0.018399640917778015
0.07185669988393784
0.07646647840738297
-0.05651339888572693
-0.014588214457035065
-0.022760331630706787
-0.025644350796937943
0.059805355966091156
0.04211931675672531
0.029078420251607895
0.43239733576774597
0.49013373255729675
0.23870322108268738
-0.12710429728031158
0.32502949237823486
0.4504490792751312
0.47514310479164124
0.44617825746536255
0.3169500231742859
0.26771220564842224
-0.19396482408046722
0.023921407759189606
0.48359236121177673
0.8008257746696472
0.652837336063385
0.43701791763305664
0.37786221504211426
0.26387545466423035
-0.04138803482055664
-0.07344409823417664
-0.03555040434002876
-0.0033969730138778687
0.005884408950805664
0.07150264829397202
0.16294105350971222
0.03804581239819527
0.38435763120651245
0.34367620944976807
0.414398729801178
0.40541425347328186
-0.2150774896144867
-0.3652827739715576
0.042857106775045395
0.20456407964229584
0.487265944480896
0.4204500615596771
0.27958419919013977
0.4253615736961365
0.2600119113922119
0.23956289887428284
0.41052043437957764
0.7942988276481628
0.677467942237854
0.4322420656681061
0.7236523628234863
0.30391925573349
-0.0801074430346489
0.22952371835708618
0.013830885291099548
-0.030470848083496094
-0.03883817419409752
-0.03260679915547371
0.28983309864997864
0.37619414925575256
0.22259466350078583
0.1565972864627838
0.41107138991355896
0.6393812298774719
-0.3986167907714844
-0.5558918118476868
-0.13508519530296326
-0.2103528529405594
-0.27806004881858826
-0.018855154514312744
-0.08739792555570602
-0.07503537833690643
-0.07242274284362793
0.0907374918460846
0.1040554791688919
0.2491465061903
-0.013288259506225586
0.07981110364198685
0.2261488437652588
0.33299925923347473
0.5387548208236694
0.009826458990573883
0.13063445687294006
0.03451628237962723
-0.007992133498191833
-0.019442662596702576
0.22415289282798767
0.2594682276248932
-0.2567407488822937
-0.10986799001693726
-0.024944111704826355
-0.04111448675394058
-0.5697004795074463
-0.32978424429893494
-0.09585196524858475
-0.3073340654373169
-0.11229366809129715
-0.08041081577539444
-0.10202575474977493
-0.09459608048200607
-0.07543545216321945
0.03829638287425041
0.03617176041007042
0.06701637804508209
0.03128018602728844
0.12894953787326813
0.052614618092775345
0.23259106278419495
0.12408987432718277
-0.0760023295879364
-0.13175037503242493
0.06413630396127701
-0.07000616937875748
0.04383070021867752
0.5243834853172302
0.2045993208885193
-0.4788592755794525
-0.5646847486495972
-0.3786798119544983
-0.17479848861694336
-0.26709675788879395
-0.17697131633758545
-0.05753276124596596
-0.20974700152873993
-0.19622831046581268
-0.1430201232433319
-0.09993518143892288
-0.05196782201528549
-0.04923791065812111
-0.06336504220962524
0.06720593571662903
0.029076291248202324
0.16354729235172272
0.17265981435775757
0.18686839938163757
0.1061105728149414
0.10522747039794922
-0.2468825876712799
0.198848694562912
0.2821945548057556
-0.02883216366171837
-0.07909445464611053
0.06699050962924957
-0.05260700359940529
-0.3825816810131073
-0.36935436725616455
-0.3627956211566925
-0.17414912581443787
-0.24969923496246338
-0.20827725529670715
-0.138465017080307
0.01443896722048521
-0.07988506555557251
-0.17348559200763702
0.004212727304548025
-0.1112307608127594
-0.10048672556877136
-0.018400657922029495
0.07793924957513809
0.04669627174735069
0.16781048476696014
-0.0775267481803894
-0.02671905606985092
0.22078275680541992
0.25862976908683777
0.3205987215042114
0.1349889189004898
0.45639610290527344
-0.08673008531332016
0.027283111587166786
-0.013583657331764698
-0.1703549325466156
-0.6538798809051514
-0.44985753297805786
-0.2719462811946869
0.02095736376941204
-0.12408620864152908
-0.02533433772623539
-0.05711344629526138
-0.054396286606788635
-0.014894450083374977
-0.13027018308639526
-0.005759646650403738
-0.08167538046836853
0.021344779059290886
0.022821703925728798
0.02026364579796791
0.12635785341262817
0.10799452662467957
0.287387490272522
0.0868305042386055
0.25722411274909973
0.1751399040222168
0.1682024747133255
-0.11883460730314255
0.2702905535697937
-0.06763838231563568
-0.014856723137199879
-0.33859482407569885
-0.49936017394065857
-0.6616086959838867
-0.6894052028656006
-0.2959694564342499
-0.045495931059122086
-0.09282106161117554
-0.13256622850894928
-0.09462251514196396
-0.003176736179739237
-0.07343130558729172
-0.005134643521159887
-0.031902533024549484
-0.08485802263021469
-0.10939785838127136
0.03911499306559563
-0.08156029880046844
0.06871721148490906
0.21882465481758118
0.26178425550460815
0.22779344022274017
0.47162219882011414
0.606346607208252
0.5628566145896912
0.22028961777687073
-0.04343923181295395
-0.029842738062143326
0.20995500683784485
-0.38763952255249023
-0.5055102705955505
-0.6209548115730286
-0.601204514503479
-0.21882101893424988
0.07188468426465988
-0.019650187343358994
-0.013637113384902477
-0.06826645880937576
0.025664478540420532
-0.010567578487098217
-0.05999397858977318
-0.1420680284500122
-0.27201151847839355
-0.40236860513687134
-0.30678921937942505
-0.3108951151371002
-0.2193889170885086
0.12151459604501724
0.4106348156929016
0.5763261914253235
0.739543616771698
1.4331581592559814
1.5648645162582397
0.9173813462257385
0.566826343536377
-0.026616543531417847
-0.11863803118467331
-0.39016106724739075
-0.7059546113014221
-0.4853094518184662
-0.4916022717952728
-0.27777916193008423
-0.030696135014295578
0.17119385302066803
0.16932912170886993
0.1406252086162567
0.12662911415100098
0.023179668933153152
0.04474689066410065
-0.07149951905012131
-0.19905342161655426
-0.3094943165779114
-0.35868754982948303
-0.6789783239364624
-1.0114187002182007
-1.3065690994262695
-0.9276273250579834
-0.47420841455459595
-0.418221116065979
-0.35248616337776184
0.1471714824438095
0.7752916216850281
0.4351552724838257
0.0840955451130867
-0.20672203600406647
-0.2888201177120209
-0.6919896006584167
-0.5015218257904053
-0.3411179780960083
-0.18724651634693146
0.004915816709399223
-0.0248978640884161
0.07764175534248352
0.004233161453157663
0.01515205018222332
0.05963769927620888
0.16902530193328857
0.20773957669734955
0.051166776567697525
-0.07044021785259247
-0.2055729776620865
-0.19949288666248322
-0.4159536063671112
-1.3604717254638672
-1.995100736618042
-2.139667510986328
-1.6121361255645752
-1.629751205444336
-0.6033610105514526
0.03410843759775162
0.023321451619267464
-0.07020992040634155
-0.2035110592842102
-0.22155708074569702
-0.2159062623977661
-0.3534798324108124
-0.25212639570236206
0.057632263749837875
0.10663110762834549
0.06577443331480026
-0.04645123705267906
0.04661617428064346
0.060531940311193466
-0.021821890026330948
0.0986815094947815
0.24644526839256287
-0.04445924237370491
-0.10403183102607727
-0.047780755907297134
0.07893335819244385
0.00840715877711773
0.2987373173236847
-0.08923659473657608
-0.7917137742042542
-1.3941385746002197
-1.1948412656784058
-0.5819326639175415
-0.47593778371810913
-0.21258166432380676
0.14090116322040558
-0.11467702686786652
0.029614809900522232
0.17700384557247162
0.15481241047382355
-0.02719843201339245
0.12842325866222382
0.01514828484505415
0.0018669205019250512
-0.004365081433206797
-0.01380741037428379
0.07836564630270004
0.006593777798116207
0.07099193334579468
0.2798212170600891
-0.023367322981357574
-0.0017670751549303532
-0.09165681153535843
-0.10735483467578888
0.1497204452753067
0.12208510935306549
0.23647275567054749
0.0059906672686338425
-0.46805456280708313
-0.9679653644561768
-1.0293209552764893
-0.7895150780677795
-0.20276455581188202
0.3828223943710327
0.0457632914185524
0.11097666621208191
0.28217801451683044
-0.1558932065963745
-0.11880369484424591
0.08935336768627167
-0.015263999812304974
0.0358990803360939
0.01558510959148407
0.08561727404594421
-0.08098585158586502
-0.004747524857521057
0.1694691926240921
0.14055579900741577
0.051707834005355835
0.038447365164756775
-0.21239717304706573
-0.02817188948392868
-0.06320051103830338
0.08855577558279037
-0.046870358288288116
0.1774032860994339
-0.1411549150943756
-0.3617459237575531
-0.8406350612640381
-0.6263709664344788
-0.09925223141908646
0.21546109020709991
0.03389950841665268
0.25475504994392395
-0.16463033854961395
-0.6232702136039734
-0.4771277904510498
-0.06793148815631866
-0.1139681413769722
-0.02312541753053665
0.1118241399526596
-0.011326818726956844
-0.13280221819877625
0.02307073213160038
0.07528417557477951
0.22006002068519592
0.009351715445518494
-0.09397387504577637
-0.08937983214855194
0.14960765838623047
0.03890237584710121
0.023751026019454002
0.02271844819188118
0.011136583983898163
-0.05326281487941742
-0.15699614584445953
-0.7236944437026978
-0.4219497740268707
-0.03324557840824127
-0.012949220836162567
0.2555786967277527
0.2640851140022278
-0.15387672185897827
-0.32228726148605347
-0.24744108319282532
-0.278683066368103
-0.14795421063899994
-0.18473324179649353
-0.04547259211540222
-0.1020042672753334
0.03061702847480774
-0.13484446704387665
0.09643539041280746
0.25337517261505127
0.004398110788315535
-0.1688172072172165
-0.01938546448945999
-0.11931971460580826
-0.04680897668004036
0.04135198891162872
-0.05655159801244736
0.13817045092582703
-0.037721894681453705
-0.1515461802482605
-1.2483371496200562
-0.7469359636306763
-0.16621048748493195
-0.04392709955573082
0.22271914780139923
-0.04502381756901741
-0.11769169569015503
-0.14588335156440735
-0.09988483786582947
0.04710716754198074
0.014274155721068382
-0.11318947374820709
-0.06569046527147293
0.18342363834381104
0.03585612401366234
-0.08472554385662079
-0.016852542757987976
0.058945368975400925
-0.08873046189546585
-0.17259691655635834
-0.09302936494350433
0.002515878528356552
0.033100489526987076
0.14034730195999146
0.17984355986118317
0.18273155391216278
0.083632692694664
-0.14075906574726105
-1.483053207397461
-0.3621576428413391
-0.1877666860818863
0.25328272581100464
0.11240163445472717
-0.1773102730512619
0.0010960787767544389
0.05421459674835205
-0.10960699617862701
0.12202440947294235
0.02364218421280384
-0.13404294848442078
-0.01822061650454998
-0.028496328741312027
0.103152796626091
0.023323142901062965
0.036469925194978714
0.04832221567630768
0.013776050880551338
-0.08450192958116531
0.0937512069940567
0.027364498004317284
0.03024902381002903
0.026075314730405807
-0.055348675698041916
-0.10298123210668564
-0.1333804428577423
-0.299621045589447
-0.8980809450149536
-0.44682222604751587
0.12963898479938507
0.2373999059200287
0.18480782210826874
-0.17805860936641693
-0.44484764337539673
0.1322927176952362
-0.1790664941072464
0.027612783014774323
-0.12545859813690186
0.07924546301364899
0.03813068941235542
0.029568053781986237
0.16917277872562408
0.1852291226387024
0.26039060950279236
0.04823371022939682
0.0019017263548448682
0.019063737243413925
-0.04686254262924194
0.02133040502667427
-0.059415362775325775
-0.03821413218975067
-0.0812932699918747
0.008470858447253704
0.13024576008319855
-0.003636723617091775
-0.3615686297416687
-0.30613216757774353
0.3120236098766327
0.036388397216796875
-0.07147962599992752
-0.216043159365654
-0.47202014923095703
-0.009332363493740559
-0.09917819499969482
0.018387984484434128
-0.055554453283548355
0.03357353433966637
0.07334749400615692
0.15220029652118683
0.1481619030237198
0.09488417953252792
0.0032489553559571505
0.06560444086790085
0.010167224332690239
-0.08894568681716919
-0.022087734192609787
0.002109554363414645
0.04290323331952095
-0.058545440435409546
0.03802565112709999
0.06343862414360046
0.08136113733053207
-0.3179129362106323
-0.5148347020149231
0.05282223969697952
0.2142009437084198
0.28219085931777954
0.1075468510389328
-0.0623854361474514
-0.09407952427864075
-0.004857207182794809
-0.07828947901725769
-0.06448639184236526
0.08045204728841782
0.04912295565009117
0.023147087544202805
0.06102442741394043
0.05669030547142029
0.09180913865566254
0.1101347804069519
0.1075877845287323
0.0814487487077713
0.056272976100444794
0.07832882553339005
-0.08676639944314957
-0.12607935070991516
0.09922008961439133
0.004383202642202377
0.23626992106437683
0.011316790245473385
-0.278521329164505
-0.5052958726882935
0.15923179686069489
0.020058177411556244
0.18903984129428864
0.18832848966121674
-0.0170049536973238
-0.295402467250824
-0.08249979466199875
-0.016462234780192375
-0.14373508095741272
-0.12977854907512665
-0.024131273850798607
0.03439920395612717
-0.002645602449774742
-0.06430398672819138
-0.07737722992897034
-0.06055789813399315
0.0843815729022026
0.0768178179860115
0.05236173793673515
0.04621553421020508
0.14420273900032043
0.07639570534229279
0.1074904277920723
-0.10791949182748795
0.0826982706785202
0.05028867721557617
-0.133332297205925
-0.1476058065891266
0.4128497242927551
-0.01997598260641098
-0.022841408848762512
0.058956079185009
-0.11485639214515686
-0.4802357852458954
-0.10842501372098923
0.32642796635627747
0.2669386565685272
0.000591059448197484
0.17709919810295105
0.03824324533343315
0.06045399233698845
0.053000472486019135
0.10276046395301819
0.04240018501877785
0.019929436966776848
0.08768175542354584
0.214516744017601
0.08535853028297424
-0.05356738716363907
0.02739705704152584
0.1374342292547226
-0.22959774732589722
0.1490669548511505
0.22502051293849945
-0.520588755607605
-0.028957119211554527
0.48276352882385254
-0.00394526869058609
-0.025641903281211853
0.02257365733385086
-0.01800374500453472
-0.3566254675388336
-0.2653683125972748
0.018482742831110954
0.0325956828892231
-0.15950407087802887
-0.2408106029033661
0.1475353240966797
-0.12155395746231079
-0.10002616792917252
0.016913335770368576
-0.05558687448501587
-0.04203462973237038
0.006859032437205315
-0.048285119235515594
-0.05530589818954468
0.14896337687969208
-0.01502902526408434
0.009766572155058384
-0.30526915192604065
-0.05936403200030327
-0.17084713280200958
-0.24814507365226746
0.21353428065776825
0.2960579991340637
0.053472571074962616
-0.08561407774686813
0.0444696769118309
-0.027167096734046936
-0.19676430523395538
-0.39807790517807007
-0.6744316220283508
-0.46092474460601807
-0.14195746183395386
-0.436327189207077
-0.28481367230415344
-0.2260870784521103
-0.10363982617855072
0.0629899725317955
-0.04323863610625267
-0.1579611897468567
-0.146386057138443
-0.23590104281902313
0.038459621369838715
0.0965658575296402
-0.07343129813671112
-0.16706052422523499
0.09096546471118927
0.14916862547397614
-0.17960523068904877
-0.2624267041683197
0.06736307591199875
-0.01438692957162857
-0.03570364788174629
0.03431253135204315
0.02084340900182724
0.043896324932575226
0.06754160672426224
-0.18860073387622833
-0.2319057136774063
-0.27474501729011536
-0.1833898425102234
-0.2563554048538208
0.058308713138103485
-0.1961587369441986
-0.16334061324596405
0.004626900888979435
-0.04660878702998161
-0.17806094884872437
-0.1901327222585678
0.04940349981188774
0.20573069155216217
-0.0329652801156044
-0.11240086704492569
0.20466898381710052
0.2085656076669693
0.14131702482700348
0.1477522999048233
0.00260210782289505
-0.04633038863539696
-0.08238425850868225
0.010506078600883484
0.08205138891935349
0.014131657779216766
-0.0633561760187149
0.029497511684894562
0.03519846498966217
-0.020511552691459656
0.024619393050670624
0.019628435373306274
0.060789890587329865
-0.016042059287428856
0.1007957011461258
-0.011260130442678928
0.00478028878569603
0.021647319197654724
-0.08358770608901978
0.07012968510389328
0.018390106037259102
-0.06861845403909683
-0.06923504918813705
0.011140123941004276
-0.3582470118999481
-0.1884271204471588
-0.3045536279678345
0.027894355356693268
-0.06332939863204956
-0.06964794546365738
-0.04961399361491203
-0.005679517984390259
