0.0013765916228294373
0.05918120592832565
-0.026219069957733154
-0.030040979385375977
-0.01192273199558258
-0.047912947833538055
0.07647014409303665
-0.06813954561948776
-0.07587417960166931
0.04386463016271591
0.020364604890346527
-0.04155438020825386
-0.049261827021837234
-0.05785781890153885
0.00042201578617095947
-0.010957956314086914
0.04994647949934006
-0.07263967394828796
0.08409909158945084
-0.0475962832570076
-0.03569355234503746
-0.0362129770219326
-0.06466212868690491
0.031826771795749664
-0.07669360935688019
0.02263081818819046
0.02785557508468628
-0.021913446485996246
0.0554569736123085
-0.05285946652293205
-0.04681719094514847
0.05582305043935776
0.054474957287311554
0.07009055465459824
-0.03575512394309044
-0.10878147184848785
-0.08605364710092545
-0.08869274705648422
-0.060495197772979736
-0.03433581814169884
-0.013413488864898682
-0.11346257477998734
0.03383079171180725
-0.03886483982205391
0.02119342051446438
0.019185516983270645
-0.04993592947721481
0.06904446333646774
-0.037117861211299896
-0.07277178019285202
-0.08107506483793259
-0.05146770551800728
0.0007520690560340881
-0.013940520584583282
-0.07757570594549179
-0.06214184686541557
-0.029197946190834045
-0.0008989870548248291
0.039238445460796356
0.005826882552355528
-0.027268588542938232
0.04276859015226364
-0.08863431215286255
-0.06016005575656891
-0.25616806745529175
-0.4449082016944885
-0.5012435913085938
-0.13424883782863617
-0.4033222198486328
-0.3627009093761444
-0.4006096124649048
-0.20506812632083893
-0.31479012966156006
-0.1698617786169052
-0.013398291543126106
0.09194914251565933
0.10417371988296509
-0.09201030433177948
0.013177337124943733
0.004520125687122345
-0.040142159909009933
-0.07959704846143723
-0.017850808799266815
0.019159436225891113
-0.042291462421417236
-0.021552465856075287
-0.04663151130080223
0.06923889368772507
0.37232279777526855
0.5383378863334656
0.3752291798591614
-0.09400753676891327
-0.1605137586593628
-0.1717679649591446
-0.1393297016620636
-0.017981717362999916
0.0001867726823547855
-0.21931156516075134
-0.0911877229809761
-0.09475637227296829
-0.06304600089788437
-0.15791265666484833
0.00480650132521987
0.007668555248528719
0.03058578632771969
-0.24438077211380005
-0.3139512538909912
-0.6521210670471191
-0.5099731087684631
-0.16796348989009857
0.08027087152004242
0.034542351961135864
0.02321755886077881
0.28362321853637695
0.22189266979694366
0.3232531249523163
0.41304540634155273
0.37201449275016785
0.4166949391365051
0.5277283191680908
0.09729479253292084
-0.04047231376171112
-0.029235973954200745
0.1642114669084549
0.12187235802412033
0.02753385715186596
0.04037870094180107
0.13024558126926422
-0.057077597826719284
-0.05192585662007332
0.09035765379667282
0.2271742820739746
-0.14070184528827667
-0.03601248189806938
-0.02534107118844986
-0.20890280604362488
0.00651817349717021
0.6499398946762085
0.39108866453170776
-0.05382228270173073
-0.05961855500936508
-0.06739234924316406
0.23247355222702026
0.3770572543144226
0.23539890348911285
-0.0265097264200449
0.047904547303915024
-0.03480525314807892
0.17490848898887634
0.02490023523569107
0.10835601389408112
0.1910414695739746
0.06565674394369125
-0.008826187811791897
-0.09633565694093704
-0.03841397166252136
0.0392780639231205
-0.041438594460487366
-0.05892816558480263
0.006517869886010885
0.015059590339660645
-0.03357422351837158
0.0888516753911972
0.2732439637184143
0.31129175424575806
0.23148338496685028
-0.01326665747910738
-0.0511934719979763
-0.030667845159769058
0.33475589752197266
0.09817512333393097
-0.05681285262107849
0.24868373572826385
0.02510923147201538
-0.06562206149101257
-0.05307532846927643
0.11007830500602722
0.03225250914692879
-0.012921771965920925
0.013322122395038605
0.012171383947134018
0.10773428529500961
0.04077423736453056
-0.030766170471906662
0.12594515085220337
0.05136976018548012
-0.04003480076789856
0.05528711900115013
0.099490225315094
0.06089460477232933
0.18680010735988617
0.10712936520576477
0.3893541097640991
0.1834169328212738
0.07602664083242416
0.4682304263114929
-0.06000995635986328
0.6999159455299377
0.08787280321121216
-0.18235160410404205
0.09675578773021698
0.20755477249622345
-0.01886063627898693
-0.10013919323682785
0.06595776230096817
-0.1539866328239441
-0.053181566298007965
-0.019456220790743828
0.07510440051555634
0.1022331714630127
0.15845942497253418
0.1492309272289276
0.10311878472566605
0.05279058590531349
-0.013337856158614159
0.10592152178287506
-0.008375589735805988
-0.033754803240299225
0.041841451078653336
-0.1274748593568802
0.13710403442382812
0.35156992077827454
-0.12909217178821564
0.32404619455337524
-0.0478072464466095
-0.19673581421375275
-0.4046197533607483
-0.17217954993247986
0.05382563918828964
0.17234674096107483
0.028843915089964867
-0.11789167672395706
0.03797115013003349
-0.020586222410202026
0.0649019330739975
-0.011270676739513874
-0.12512624263763428
0.04535127803683281
0.03251372650265694
0.07174067199230194
0.060738421976566315
0.043625608086586
-0.01837991364300251
0.014668787829577923
0.06606194376945496
-0.05265108868479729
0.10740678757429123
-0.15572664141654968
0.1956675946712494
0.5197385549545288
-0.06375329196453094
0.1255679875612259
-0.09129835665225983
-0.051604170352220535
-0.24536684155464172
0.028358204290270805
0.04176803305745125
-0.05046183615922928
0.08577542752027512
-0.005529707297682762
-0.08035767078399658
-0.02407890371978283
-0.03566301614046097
0.02871549502015114
0.022172169759869576
-0.05209594592452049
-0.012896993197500706
-0.04689683020114899
-0.0659482553601265
-0.0019457419402897358
0.024958450347185135
-0.038198139518499374
-0.015814324840903282
0.10432489216327667
0.1491079330444336
-0.010672911070287228
0.3718947768211365
0.6996551156044006
0.21437472105026245
0.16821329295635223
-0.09695208817720413
-0.06956685334444046
-0.26076003909111023
0.30409422516822815
0.04100168123841286
-0.22962142527103424
-0.16466206312179565
-0.021222131326794624
0.09125092625617981
0.017319634556770325
-0.011478676460683346
0.03517976775765419
-0.05104247108101845
0.006843255832791328
-0.16166739165782928
-0.0611448809504509
-0.0747680515050888
-0.07113884389400482
-0.11703556776046753
-0.0812511295080185
-0.022367794066667557
-0.18122810125350952
-0.04728170484304428
0.1917208880186081
0.29340940713882446
0.6772883534431458
0.7487678527832031
0.274781197309494
0.06527429074048996
-0.2297566533088684
-0.5065041780471802
-0.027163924649357796
-0.2262047827243805
-0.10950631648302078
0.012029265984892845
-0.004552491940557957
0.0542055182158947
0.00619283365085721
-0.04988287389278412
0.02790023572742939
0.13583551347255707
0.025347260758280754
0.05861710384488106
0.14886517822742462
0.03445569425821304
-0.0011181876761838794
-0.052582722157239914
-0.07279834151268005
-0.041696563363075256
-0.18569037318229675
-0.3708309531211853
-0.19467617571353912
-0.10542897135019302
0.8197333216667175
0.5705363154411316
0.2906992435455322
0.01786554977297783
-0.1421373337507248
-0.6379602551460266
-0.2173338234424591
-0.16144084930419922
-0.036049243062734604
-0.060197796672582626
-0.032900139689445496
0.056173764169216156
0.008753770962357521
0.11980057507753372
0.09948694705963135
0.07312571257352829
0.24360357224941254
0.15270063281059265
0.04086770489811897
0.023542966693639755
0.023303000256419182
0.09061756730079651
-0.2001079022884369
0.036224424839019775
-0.22991032898426056
-0.18191823363304138
-0.38755834102630615
-0.49892330169677734
0.19501365721225739
0.014619262889027596
-0.033018808811903
-0.0008442816324532032
-0.10019810497760773
-0.41457700729370117
-0.33961600065231323
0.08182580024003983
0.3692397177219391
-0.0024821364786475897
0.07781331986188889
0.020840751007199287
0.06768143177032471
0.11357985436916351
0.04274773225188255
0.19386419653892517
0.29892030358314514
0.12267214804887772
-0.03139309957623482
0.10911089926958084
0.08621540665626526
0.07769547402858734
0.056156642735004425
0.008848173543810844
-0.10450059175491333
-0.10111649334430695
-0.26856115460395813
-0.5060142874717712
-0.5155085325241089
-0.5056418180465698
0.03537692129611969
0.24373853206634521
0.35603925585746765
-0.06254612654447556
-0.6590825319290161
-0.06268839538097382
-0.11789511889219284
0.14256860315799713
0.18450431525707245
0.004541710019111633
0.03842640295624733
0.007640371564775705
-0.00952126644551754
0.2289668321609497
0.14684201776981354
0.07559441775083542
0.12848947942256927
0.09430289268493652
0.059301719069480896
0.007301656063646078
-0.09304966032505035
-0.0931357815861702
-0.08329249918460846
-0.13165180385112762
-0.33419734239578247
-0.28065225481987
-0.7068501710891724
-0.4265466332435608
-0.05877397954463959
0.0859607681632042
0.2559484839439392
0.5119487643241882
-0.4448319971561432
-0.4946410059928894
-0.3187354803085327
0.06912462413311005
-0.017764493823051453
0.04688392952084541
0.18132451176643372
0.1590929627418518
0.19771993160247803
0.26289939880371094
0.03451789170503616
-0.047500964254140854
0.00617239298298955
0.01135156862437725
-0.06582716852426529
-0.025534208863973618
-0.07354690134525299
-0.019629813730716705
-0.05220232903957367
0.0475938506424427
0.21575412154197693
-0.1554095596075058
-0.5259361863136292
0.24182212352752686
0.1245771199464798
0.05452540144324303
0.16743597388267517
0.07623683661222458
-0.3426840007305145
-0.7875930070877075
-0.611901581287384
-0.6235063672065735
-0.48494580388069153
-0.13741622865200043
0.10453726351261139
0.2365969866514206
0.4016878306865692
0.3414084017276764
0.0730995163321495
-0.033317893743515015
-0.04482186958193779
-0.13696224987506866
-0.08568833768367767
-0.06397854536771774
-0.0301938708871603
0.016544204205274582
-0.04407620429992676
-0.06759344786405563
0.14138025045394897
-0.03488238900899887
-0.8265247344970703
-0.5164690613746643
0.03645980358123779
0.0028603076934814453
0.26884645223617554
-0.003537788288667798
0.11172374337911606
-0.24946539103984833
-0.5584721565246582
-0.771020233631134
-1.1332895755767822
-1.2640013694763184
-1.0851229429244995
-0.502739429473877
0.0420328751206398
0.0754079595208168
-0.003987333737313747
-0.20210693776607513
-0.08181151002645493
-0.06461968272924423
-0.021411020308732986
0.012773513793945312
0.07272316515445709
0.004753344692289829
0.14735859632492065
-0.00227113114669919
0.08929069340229034
-0.24358594417572021
-0.5908991694450378
-0.33420196175575256
0.05386146903038025
-0.10954379290342331
0.40591225028038025
0.020738152787089348
0.4316900372505188
0.1258709728717804
-0.24954462051391602
-0.11936891078948975
-0.4979129433631897
-1.1800920963287354
-2.060183048248291
-2.376957893371582
-2.054131031036377
-1.2968882322311401
-0.6306806802749634
-0.3588174879550934
-0.2725849449634552
0.0008746276726014912
-0.0625210702419281
0.029496435075998306
0.12267888337373734
0.0462423600256443
0.19240343570709229
0.10526049137115479
0.057334091514348984
-0.1511904001235962
-0.0823536142706871
-0.05761031433939934
0.03743792697787285
-0.012485198676586151
-0.2244066745042801
-0.03780994564294815
0.6856703162193298
0.1991293728351593
0.16306042671203613
0.26122012734413147
0.1853771209716797
0.26654350757598877
0.20134054124355316
-0.06969631463289261
-0.28609949350357056
-0.4673254191875458
-0.3267475962638855
-0.2508827745914459
-0.1845434308052063
-0.13669385015964508
0.005365973338484764
0.14948222041130066
-0.04146236181259155
0.09819391369819641
-0.010548217222094536
-0.05674570053815842
-0.04963082820177078
-0.07440375536680222
-0.01933792233467102
-0.0057944380678236485
0.007160182576626539
-0.08285363018512726
0.5374682545661926
-0.1137014627456665
0.20130881667137146
0.3236111104488373
0.17030364274978638
0.29234200716018677
0.15094679594039917
0.38246777653694153
0.4082620441913605
0.4424172341823578
0.3622404932975769
-0.023360950872302055
-0.035088807344436646
-0.0746859684586525
-0.1263335794210434
-0.12239840626716614
-0.04405183717608452
-0.0059118978679180145
-0.05944681540131569
0.08933378010988235
-0.042285241186618805
0.06644056737422943
-0.08422169089317322
-0.40171483159065247
-0.2736450433731079
-0.060801342129707336
0.09638386219739914
0.08015302568674088
0.5228086113929749
0.006127780303359032
-0.039399657398462296
0.2617846429347992
0.04807240888476372
0.1668095588684082
-0.052797552198171616
0.07268757373094559
0.09074192494153976
0.03591885045170784
0.023256558924913406
0.04199559614062309
0.009172444231808186
-0.1036275327205658
-0.05172550305724144
-0.06779590249061584
-0.07459959387779236
-0.08309847116470337
-0.040554579347372055
0.022288281470537186
-0.04304211214184761
0.11777655780315399
-0.05345804616808891
-0.4322841763496399
-0.38670191168785095
-0.21449162065982819
0.0393257811665535
0.07562149316072464
0.3592749536037445
0.05531807988882065
0.22983145713806152
0.023749904707074165
-0.1591159701347351
-0.12913602590560913
-0.07566285133361816
-0.04583168029785156
0.08621998876333237
0.10727482289075851
0.1228027194738388
0.07118375599384308
0.13716115057468414
0.013188966549932957
-0.016723869368433952
-0.057219602167606354
-0.15229488909244537
-0.1661197543144226
-0.022980835288763046
0.08904280513525009
-0.1690955013036728
-0.007534679491072893
0.07461979240179062
-0.42146268486976624
-0.3885715901851654
-0.09437300264835358
-0.04736664518713951
0.05650606006383896
0.04029295593500137
1.2481026649475098
1.3221666812896729
0.4978490173816681
0.12825165688991547
0.046701353043317795
0.008587206713855267
0.17741569876670837
0.16142727434635162
0.29312869906425476
0.15263041853904724
0.05651175230741501
-0.009577265940606594
0.04841862991452217
-0.024760544300079346
0.03952915966510773
-0.042527880519628525
-0.08367643505334854
-0.010395899415016174
-0.05136711150407791
-0.40836581587791443
-0.40888887643814087
-0.056259844452142715
0.2083510309457779
-0.1975889503955841
0.2791012227535248
-0.01620393991470337
-0.04504770785570145
0.01570884883403778
0.012310490012168884
0.5408710241317749
0.5379380583763123
0.33108460903167725
0.2662242352962494
0.08564716577529907
0.10931497067213058
-0.00910197664052248
0.15806850790977478
0.02959168143570423
0.0453372560441494
0.10498567670583725
-0.0030909564811736345
-0.020976273342967033
0.027190513908863068
0.1347866803407669
-0.0900685042142868
-0.26897379755973816
0.15357229113578796
0.14734482765197754
-0.026706308126449585
0.50922691822052
0.07472514361143112
-0.2687370777130127
-0.13022637367248535
0.08349419385194778
-0.07657153904438019
0.056997813284397125
0.4015938937664032
-0.366668701171875
0.1956169605255127
0.4793982207775116
0.18658488988876343
0.15826569497585297
0.18255554139614105
0.161956325173378
0.21239624917507172
0.07056593894958496
0.01229882799088955
0.2041214257478714
0.005537844728678465
0.07664213329553604
-0.016757406294345856
0.11143210530281067
0.16828468441963196
0.08626346290111542
0.4305045008659363
0.38337892293930054
0.36062559485435486
0.719570517539978
0.4540705680847168
0.11190440505743027
0.02615925669670105
-0.03487435728311539
0.028302878141403198
-0.04210905730724335
-0.004001930356025696
0.2101568877696991
0.34834060072898865
0.22725436091423035
0.023130670189857483
-0.13863451778888702
-0.1441381871700287
-0.02839522995054722
0.020025363191962242
0.018668590113520622
0.02242300845682621
-0.07199420779943466
0.06893640756607056
0.04812726005911827
0.017644111067056656
-0.009432242251932621
0.020946597680449486
-0.07246629148721695
0.24982082843780518
-0.12756727635860443
-0.4255444407463074
0.29678666591644287
-0.03267749026417732
-0.07867337018251419
0.023073449730873108
-0.0486452654004097
0.0625464990735054
-0.010952360928058624
0.05731833726167679
-0.06829676777124405
-0.0726635754108429
-0.170753613114357
-0.1715644747018814
-0.12723714113235474
-0.12024377286434174
0.039463434368371964
-0.0942934900522232
0.2595585882663727
0.23864728212356567
-0.3563149571418762
0.10996193438768387
0.27604031562805176
-0.053404901176691055
-0.28675568103790283
-0.38230371475219727
-0.46160024404525757
-0.21784880757331848
-0.08578061312437057
-0.21022732555866241
-0.057500388473272324
0.07268968969583511
-0.07608193904161453
0.07835812121629715
0.013181120157241821
