0.07963909953832626
0.030424900352954865
-0.006096638739109039
0.02039484679698944
-0.040348444133996964
-0.06882143020629883
0.037463925778865814
-0.04852144792675972
-0.005650542676448822
0.07134095579385757
-0.06027827039361
0.07560356706380844
0.1576179563999176
0.3368890881538391
0.2370203584432602
0.3054390251636505
0.04077131301164627
0.06269838660955429
0.06630399078130722
-0.02986767143011093
0.044404663145542145
-0.06496988236904144
0.0868113562464714
-0.08657103776931763
-0.06307059526443481
-0.02411702275276184
0.018819622695446014
-0.030867908149957657
0.02789180725812912
-0.07054121792316437
0.05891246348619461
-0.03162509202957153
-0.13560374081134796
0.08543920516967773
0.14636728167533875
0.2550724446773529
-0.016547268256545067
-0.12457749992609024
0.07769958674907684
0.32360461354255676
0.13933603465557098
-0.060132209211587906
-0.10820551961660385
0.2780870199203491
0.5032195448875427
0.30742526054382324
-0.02983890473842621
0.30103257298469543
0.31343355774879456
0.1700228899717331
0.08383435755968094
0.14565443992614746
0.08474283665418625
0.03533603996038437
-0.06067495793104172
-0.024340778589248657
0.009292207658290863
0.01046048104763031
0.04029306769371033
-0.07477830350399017
0.25099965929985046
0.06137651577591896
0.2184421420097351
0.29265663027763367
0.5447537899017334
0.40841031074523926
0.35301753878593445
0.6242783665657043
0.629553496837616
0.3644046187400818
0.3492763042449951
0.6428500413894653
0.3903200626373291
0.5131422877311707
0.5423347353935242
0.5469619035720825
0.47818800806999207
0.3807564973831177
0.23841749131679535
0.2743833363056183
0.4262581467628479
0.37864089012145996
0.05140731483697891
-0.04085221886634827
0.0395267978310585
-0.006909452378749847
0.1356750875711441
0.254498690366745
0.1561649888753891
0.28180167078971863
0.2823655605316162
0.5441291928291321
0.486252099275589
0.621357262134552
0.4137732982635498
0.39407533407211304
0.30716031789779663
0.4562084376811981
0.13127578794956207
0.16391830146312714
0.20704928040504456
0.07433602213859558
0.25766804814338684
0.2808464467525482
0.19608786702156067
0.0052938684821128845
-0.30523669719696045
-0.47219640016555786
-0.2974450886249542
0.35971665382385254
-0.06057973578572273
-0.024338744580745697
-0.07519368082284927
-0.014175819233059883
0.10899753868579865
0.563216507434845
0.0501633882522583
0.3407230079174042
0.25581926107406616
0.07542330771684647
0.07647745311260223
0.07179445028305054
0.1370750367641449
0.0740494504570961
0.217725470662117
0.13396590948104858
0.17476733028888702
0.16982606053352356
0.13856294751167297
0.10591888427734375
0.06743752211332321
-0.089228555560112
0.059730153530836105
-0.11219596862792969
-0.7306622266769409
-0.8582839965820312
-0.8985958099365234
-0.40801432728767395
0.20072488486766815
-0.09355372190475464
0.034397318959236145
0.019891150295734406
0.3757985532283783
0.32331186532974243
0.20783644914627075
-0.11456289887428284
-0.2327587604522705
-0.021787511184811592
-0.06997060030698776
-0.23138558864593506
-0.025530073791742325
0.027327602729201317
0.04765558987855911
0.11880417913198471
0.015766704455018044
0.04304628446698189
0.20924365520477295
0.12238460779190063
-0.03617517277598381
-0.03339311107993126
0.0434701181948185
0.1368912160396576
-0.2018691748380661
-0.36197811365127563
-0.3186781108379364
-0.36680135130882263
0.3491728901863098
-0.015662195160984993
0.025675006210803986
0.1577599197626114
-0.039398547261953354
0.10820640623569489
0.2050357162952423
-0.11002195626497269
-0.20981748402118683
-0.08882066607475281
-0.14234988391399384
-0.11268667876720428
-0.030338186770677567
-0.04180941730737686
0.07703415304422379
-0.1165892630815506
-0.02996085397899151
0.038129352033138275
-0.08472815901041031
-0.16941973567008972
-0.028762679547071457
-0.04648911952972412
-0.19445185363292694
-0.20927247405052185
-0.15451690554618835
-0.150418221950531
-0.21482685208320618
-0.03212611749768257
-0.05832607299089432
0.40543532371520996
0.09476529061794281
0.3893275558948517
0.01402893103659153
0.015097963623702526
0.22889555990695953
-0.12227991223335266
-0.003052122425287962
0.015902217477560043
0.0750914067029953
-0.10179092735052109
0.08480621129274368
0.05849291384220123
-0.09251784533262253
0.046063803136348724
-0.05972910299897194
0.05189118906855583
-0.06462273746728897
-0.014256838709115982
-0.05006783828139305
-0.10024325549602509
0.005201202817261219
-0.05205107107758522
0.14541998505592346
-0.1774735003709793
-0.19227109849452972
-0.32464730739593506
0.24781206250190735
0.35330358147621155
-0.009567863307893276
0.37283578515052795
0.05634349212050438
0.06686107814311981
0.3282586634159088
-0.09041857719421387
0.10161523520946503
0.08098182082176208
-0.03964567556977272
-0.16278675198554993
0.16228774189949036
-0.040498849004507065
0.013506010174751282
0.2080017477273941
0.13255475461483002
0.1007114052772522
-0.0537426732480526
0.029272185638546944
-0.1800699383020401
0.12699554860591888
-0.09170623868703842
-0.1598077118396759
0.09705556184053421
-0.14803574979305267
-0.3196103870868683
-0.06651850789785385
0.6304358839988708
0.5018696188926697
0.19310851395130157
0.3039356768131256
-0.09616931527853012
0.22978901863098145
0.216909721493721
0.19080320000648499
-0.02620464563369751
0.06824762374162674
0.1400793194770813
0.1182374507188797
0.04413563013076782
-0.05520034208893776
-0.04466399922966957
-0.07326516509056091
0.14092865586280823
-0.04918764531612396
-0.07773863524198532
-0.0032006599940359592
-0.2106667459011078
-0.11689063161611557
0.00031546782702207565
-0.14723274111747742
-0.04035070165991783
0.046220842748880386
-0.12868595123291016
0.016002146527171135
0.464331716299057
-0.4476753771305084
0.1410602182149887
0.26421836018562317
-0.09821005165576935
-0.025485659018158913
0.120578832924366
0.15160122513771057
0.40356916189193726
0.3150328993797302
0.2508673667907715
0.04568452760577202
0.06061496585607529
-0.010346166789531708
-0.2518196403980255
-0.3609689772129059
-0.17483749985694885
-0.28312739729881287
-0.11403656005859375
-0.06864508241415024
-0.025729022920131683
-0.0995924174785614
-0.07492156326770782
-0.0019245813600718975
-0.11392773687839508
-0.06667879223823547
-0.2664564251899719
-0.3896695375442505
-0.38329318165779114
-0.28551924228668213
0.15124787390232086
0.21358229219913483
-0.026885662227869034
-0.22533750534057617
-0.07590928673744202
0.1394449919462204
0.17052535712718964
0.2092617154121399
0.0025471136905252934
-0.23056623339653015
-0.39583203196525574
-0.27931690216064453
-0.43685564398765564
-0.608267068862915
0.004453917965292931
-0.21894632279872894
-0.19991272687911987
-0.14253804087638855
0.005171001888811588
-0.005329554900527
-0.0006109339883551002
0.0409318208694458
0.1819750815629959
0.31678637862205505
0.0174533873796463
-0.12015236169099808
-0.09245121479034424
0.02787882462143898
0.19634824991226196
0.2427467256784439
-0.05850789695978165
-0.36618494987487793
-0.29955175518989563
-0.5786504149436951
-0.7956403493881226
-0.6807610988616943
-0.6290678977966309
-0.57337886095047
-0.3534921109676361
-0.40942344069480896
-0.49724939465522766
-0.30354073643684387
0.28565624356269836
-0.08529442548751831
-0.1662335991859436
-0.13182084262371063
0.028663955628871918
0.07163088768720627
0.11213754862546921
0.09385599195957184
-0.10487525910139084
0.014288721606135368
0.29696711897850037
0.40511295199394226
0.27169325947761536
0.14537133276462555
0.11098019033670425
0.022962301969528198
0.20530320703983307
-0.11970127373933792
-0.9532268047332764
-1.024557113647461
-1.5025854110717773
-0.9694063663482666
-0.6940755248069763
-0.29905271530151367
-0.4287327229976654
-0.25939229130744934
-0.2391059696674347
0.1556795984506607
0.30224117636680603
0.016994040459394455
-0.04946166276931763
-0.011670824140310287
0.07741129398345947
-0.011387506499886513
0.05161098390817642
-0.09503567218780518
-0.26765257120132446
0.03924412280321121
0.03254401683807373
0.30531156063079834
0.7263661623001099
0.2871784567832947
0.015764616429805756
-0.07530688494443893
0.26734551787376404
-0.13704814016819
-1.056480884552002
-1.0196634531021118
-0.7242184281349182
-0.34246826171875
-0.350019246339798
-0.2788175642490387
-0.13256898522377014
0.044534675776958466
-0.10230283439159393
0.30064427852630615
0.2560122609138489
0.0501999668776989
-0.07990039139986038
-0.09685444831848145
-0.03174183517694473
-0.05719172582030296
-0.06716805696487427
-0.02644086256623268
0.13157209753990173
-0.036205898970365524
-0.037854019552469254
0.03314468637108803
1.1197758913040161
0.43629249930381775
0.055603839457035065
0.05421220138669014
0.1622609794139862
0.20105700194835663
-0.5956257581710815
0.029364101588726044
0.20866595208644867
0.16960033774375916
-0.02868383377790451
-0.024849388748407364
0.07790184020996094
0.041581809520721436
0.10309907048940659
0.5500026345252991
0.3049934506416321
0.0442592017352581
-0.042305901646614075
-0.15267673134803772
-0.23083117604255676
-0.07435591518878937
-0.27128174901008606
0.02658861316740513
-0.07781228423118591
-0.14398862421512604
0.05607827380299568
0.0330040268599987
0.9458708167076111
0.4836646616458893
0.08617214113473892
0.25253573060035706
-0.11987802386283875
0.12392571568489075
0.009527143090963364
0.2758907973766327
0.16053806245326996
0.013340690173208714
-0.12075772881507874
-0.010454989969730377
0.11589901894330978
0.20352619886398315
0.24111086130142212
0.36124902963638306
0.39673912525177
0.05348702147603035
0.05735918879508972
-0.0697961375117302
-0.06835052371025085
-0.19141507148742676
-0.2279939502477646
0.04127577692270279
-0.027135198935866356
0.23197703063488007
0.18066075444221497
0.5069290995597839
0.6922752261161804
0.38752368092536926
0.017255760729312897
0.11961163580417633
-0.06436016410589218
0.15026018023490906
0.135054349899292
0.08640549331903458
0.15363340079784393
-0.008031993173062801
-0.026608044281601906
0.04495342820882797
0.2430627942085266
0.1635320782661438
0.22993506491184235
0.236593559384346
0.2377508580684662
-0.02460172399878502
0.007519498001784086
-0.012927011586725712
-0.030269697308540344
0.04948796331882477
0.05264455825090408
-0.03542659804224968
-0.033273328095674515
-0.05467701703310013
-0.13962458074092865
0.5569506287574768
0.5343449115753174
0.4885734021663666
0.0636778399348259
0.11657757312059402
-0.3130318820476532
0.07625540345907211
0.13433046638965607
0.030173638835549355
-0.14037112891674042
0.09488129615783691
-0.037105489522218704
0.12113536149263382
0.25246334075927734
0.22067877650260925
0.3000856637954712
0.1110859364271164
0.17466141283512115
0.09328858554363251
0.0491032749414444
0.055998049676418304
0.03655499964952469
0.02356722578406334
0.05730370059609413
-0.11433809995651245
-0.07356803864240646
-0.006168893072754145
0.0321175716817379
0.9568241238594055
0.555899977684021
0.5411288142204285
0.18006063997745514
0.10270187258720398
-0.48160499334335327
-0.3671708106994629
-0.023687928915023804
-0.04220717027783394
-0.12526684999465942
0.04488362744450569
-0.028633318841457367
0.2125478982925415
0.29759618639945984
0.11027371883392334
0.18850062787532806
0.1759779453277588
0.19333837926387787
0.15932588279247284
0.17246457934379578
0.18908146023750305
0.08418917655944824
0.03271880000829697
-0.043234046548604965
0.08644313365221024
0.09920983016490936
0.18489907681941986
0.21073099970817566
0.9985787868499756
1.3559683561325073
0.461837500333786
0.05991009622812271
-0.03181891888380051
-0.3833981454372406
-0.036077529191970825
0.13122707605361938
-0.11488993465900421
0.15269169211387634
0.23368845880031586
0.22257958352565765
0.09618613868951797
0.29544955492019653
0.2632485032081604
0.13993693888187408
0.16021199524402618
0.15407304465770721
0.061449404805898666
0.1134367510676384
-0.0007496644393540919
0.14552481472492218
0.1060408502817154
0.15226057171821594
0.2668052613735199
0.21915897727012634
0.34086331725120544
0.48954591155052185
0.5179497003555298
0.7701728940010071
0.15075387060642242
0.16921603679656982
0.1922946721315384
0.019607681781053543
0.06352335214614868
0.06369773298501968
-0.04189056530594826
0.13535341620445251
0.19082537293434143
0.07552312314510345
0.1588631421327591
0.07596264779567719
0.13854588568210602
0.0010466222884133458
0.10326074063777924
-0.00963508989661932
0.015393725596368313
0.03451456502079964
0.056314773857593536
0.17605073750019073
0.1659824103116989
0.03742896765470505
-0.07551677525043488
0.32527944445610046
0.3337608277797699
0.33314186334609985
0.18992963433265686
0.3206765055656433
-0.019173160195350647
0.06769195199012756
0.21542544662952423
0.05248032882809639
0.06604661792516708
0.20825515687465668
0.49843013286590576
0.3079601228237152
0.2675255239009857
0.15032432973384857
0.027721380814909935
0.03395380824804306
-0.043457694351673126
-0.042138826102018356
-0.11496806889772415
0.015945181250572205
-0.01371791772544384
-0.14543578028678894
-0.045893341302871704
-0.0057713426649570465
0.11965422332286835
0.185309499502182
0.00036370079033076763
0.1917346864938736
0.20825423300266266
0.10768668353557587
-0.22785793244838715
-0.27449968457221985
-0.04876963794231415
0.08378338068723679
-0.01209951937198639
-0.09264522045850754
-0.23678232729434967
-0.34684523940086365
-0.1363832950592041
0.07813884317874908
0.13061870634555817
0.20696288347244263
0.10049071907997131
0.0057558962143957615
0.12105832993984222
0.10639440268278122
0.3332871198654175
0.10693513602018356
0.29882457852363586
0.23132117092609406
0.012356506660580635
0.15066584944725037
0.2854517102241516
0.07971157878637314
0.2243679016828537
0.2719537913799286
0.15443159639835358
-0.010131577961146832
-0.45798587799072266
-0.01653861068189144
-0.007483154535293579
0.03581347316503525
0.05166793614625931
0.13459399342536926
-0.4739745259284973
-0.4813270568847656
-0.6285973787307739
-0.3300485610961914
-0.36927521228790283
0.011943348683416843
-0.0480867400765419
-0.03988095372915268
0.051373764872550964
0.16601882874965668
-0.06114686280488968
0.1724271923303604
0.12930141389369965
0.09695525467395782
-0.015158845111727715
0.06576795130968094
0.07796192914247513
0.04668798670172691
-0.010054949671030045
0.0291767455637455
-0.024251243099570274
0.3919864594936371
0.03813886269927025
0.406351774930954
0.022083640098571777
-0.06407169997692108
-0.07317870855331421
0.10805197805166245
-0.27890682220458984
-0.7601767182350159
-0.6471532583236694
-0.49251240491867065
-0.5226450562477112
-0.4394155442714691
-0.3339979350566864
-0.167634055018425
-0.16555535793304443
-0.06851751357316971
-0.25826260447502136
-0.16681545972824097
-0.09994190186262131
-0.15545688569545746
-0.02332240529358387
-0.08115745335817337
-0.0068938047625124454
0.08086598664522171
-0.3423546552658081
-0.3844556212425232
0.025720762088894844
-0.12358550727367401
-0.2018149346113205
0.09686168283224106
-0.08428126573562622
0.06815927475690842
-0.07572641223669052
-0.04489678516983986
0.008361376821994781
-0.1639554649591446
-0.27729976177215576
-0.4947321116924286
-0.1054840087890625
0.09493143111467361
0.01424900721758604
0.2841185927391052
0.09571246802806854
0.04576030373573303
0.031661368906497955
0.21898503601551056
-0.08441254496574402
0.03933112695813179
0.22066637873649597
0.11169606447219849
0.12399692833423615
-0.01639336161315441
-0.39935585856437683
-0.2700309753417969
0.19672632217407227
0.09195367246866226
-0.071644127368927
-0.05468063801527023
0.03361741453409195
0.0728977844119072
0.0035086050629615784
0.006740599870681763
0.07879533618688583
-0.04128284379839897
-0.03107483871281147
0.06591502577066422
0.14923982322216034
0.2875707447528839
0.26100629568099976
0.3227255344390869
0.1657191962003708
0.30418190360069275
0.20698824524879456
0.4363115131855011
0.4016461670398712
0.4140544831752777
0.5025033950805664
0.512056827545166
0.24430295825004578
0.21762484312057495
-0.2676292061805725
-0.24996934831142426
-0.010658876970410347
-0.010717853903770447
-0.03629670664668083
-0.052778348326683044
0.04809390753507614
