0.05267366
0.07791526
-0.05221447
-0.07876446
-0.04305306
-0.06015487
-0.03229063
-0.06042341
-0.004389748
0.05035796
-0.011741504
0.028755605
-0.06573084
-0.06188634
-0.03647155
-0.059280857
0.022562362
0.0070895404
-0.028392162
-0.04292985
-0.085979305
0.023170575
-0.036190428
0.0015629083
0.037309334
0.036280207
-0.018130459
-0.06689029
-0.084813245
0.059801526
0.08093614
0.073005356
-0.0631631
-0.028406918
-0.045412395
0.05909232
0.03611283
-0.07941796
0.06563752
0.054853447
-0.083596945
-0.08251325
0.084466316
0.0040858686
-0.0703402
0.058891855
0.046081416
-0.067328185
0.07928421
0.015931688
0.016627982
-0.085856296
-0.0727797
0.0004188642
-0.0072847083
0.02370838
0.032404684
0.018034294
-0.057122663
-0.06872809
0.017557234
0.026237309
-0.017408088
-0.00054451823
0.04434482
-0.042530883
0.07349277
0.055054255
0.064660855
0.023225948
0.047268547
0.070101775
-0.0672214
0.039029725
-0.049207587
-0.032268353
-0.07781577
0.06778201
0.0021150783
0.03485185
0.08118413
-0.08276801
0.08674557
-0.013352543
0.028508514
0.060267635
-0.00010231882
-0.027645525
-0.014719911
0.058859147
0.0014489815
0.07525883
0.07652662
0.07650488
-0.04533262
-0.07680828
-0.01538644
0.061653055
0.06468978
-0.038104884
0.006751403
0.057243593
0.06167101
-0.024371825
-0.045175668
-0.011272654
0.07148599
0.005147204
0.036599427
-0.049386367
0.06963623
0.0046227872
-0.039408606
-0.032218795
-0.068119854
0.034700245
-0.014736593
-0.059870042
-0.01664386
0.07140901
-0.0003073963
0.062922545
-0.045715254
0.2489464
0.38552096
-0.07783461
0.07872415
0.05546313
-0.07326237
-0.012861891
0.022107482
-0.28661442
0.0027990043
0.5599557
0.33531263
-0.07226372
0.023348525
0.18569522
-0.011761941
-0.059190232
0.035516456
-0.5697036
0.04941853
0.7912973
-0.13227367
0.044969775
0.02394846
0.0780996
-0.07617373
0.033778124
0.07072317
-0.57737154
0.01327654
0.63253975
-0.14623974
-0.026649103
-0.07722282
-0.05063201
0.07498302
0.012203641
0.07971864
0.048339598
0.0726985
0.04246787
0.0036085173
-0.028162852
-0.018355228
0.06349682
0.026735462
0.009464063
0.05891379
0.039575182
-0.055575814
-0.04822379
-0.055197097
-0.079446495
-0.02639706
-0.06955653
0.06257858
-0.0073376447
-0.062245227
0.019037694
-0.07411206
-0.0437072
-0.025132887
0.005344078
0.01193554
0.06894749
-0.0075190514
-0.07438874
0.049203955
-0.05704832
0.008409321
0.074825995
-0.0362119
0.05332654
0.017484091
-0.06412681
-0.076984055
0.009738386
-0.016178071
-0.044508096
-0.08167575
0.07341758
-0.054160886
0.041675396
-0.016773432
0.037696324
0.020674579
0.013263792
0.066307925
0.036672212
-0.036093846
0.03151483
0.035912953
0.052202515
-0.035194755
0.015645243
-0.028895646
0.024447806
0.005958855
-0.03463108
0.07691846
0.013079315
0.0036244765
0.06337475
-0.010383137
0.010234781
0.074876
-0.06748721
0.055684082
-0.04746907
-0.051093716
0.041935362
0.076079346
-0.023912378
-0.03511521
-0.013918661
0.0564278
0.053380676
0.01349853
-0.013813704
-0.058175232
0.06266635
0.057665907
0.032945164
-0.04966204
0.040175192
0.02151429
-0.07454054
-0.06077993
0.019623734
-0.046042904
-0.078303486
0.013900422
-0.07425747
0.029690035
0.027820945
-0.022483066
0.010012336
-0.04766072
0.016624793
0.06135101
0.028920934
-0.07301164
0.07071989
-0.0032703206
0.0014394075
0.07457208
0.08403457
0.025960997
0.08348066
-0.059161745
0.030075386
-0.018182874
-0.027041975
-0.025436122
-0.04908906
0.059351213
-0.078267835
-0.07323322
-0.05120416
-0.007557519
0.025902152
0.0387891
0.021697156
-0.04307215
-0.045134235
0.022538379
0.07683086
-0.057887584
-0.066949755
0.055321954
0.07421834
-0.082104504
-0.03898054
0.040398203
-0.032792456
0.04100787
-0.017078593
0.0013855249
0.009221487
-0.033085767
0.028216824
0.047390483
0.0007734373
0.04743173
0.0296771
-0.08130871
-0.005763024
0.055128075
-0.0038616806
0.06567354
0.082394145
-0.0629769
0.014528483
-0.010139361
0.06822867
0.07303303
-0.033277456
0.03756942
0.14136757
-0.0832585
0.106531404
0.21609996
-0.048222587
0.0689849
0.24100795
-0.08171507
0.043261193
-0.027546518
0.54183966
0.03812987
0.0037695826
0.515807
0.044155724
0.0047231168
0.28495207
0.041590996
-0.05534738
-0.030094534
1.134136
-0.070231095
0.5019605
1.4212329
0.0867322
0.019252762
0.08898681
-0.5398247
-0.002081938
-0.076472364
1.9687171
-0.1012471
0.26195368
1.564129
-0.4171568
0.39208123
0.6108099
-0.48968264
-0.0003497675
-0.047380395
2.036031
-0.06698992
-0.41946563
0.83945966
-0.3981891
0.3121881
0.62785447
-0.15637669
0.029737413
-0.11301589
2.3855262
-0.3330425
-0.68766063
0.22475749
-0.47859943
0.009794189
0.79156905
-0.45433706
-0.05989029
-0.14285596
2.4709163
-0.71366143
-0.20042913
0.62451506
-0.5854319
-0.17338966
0.6413186
-0.41499433
-0.02847353
-0.005169046
0.10833606
-0.5001946
0.19460158
1.1167791
-0.21575937
-0.17757012
1.2175481
-0.59319305
-0.035880603
2.914401e-05
-0.19138826
-0.06887334
0.16019909
1.0536513
-0.3488009
0.012964007
1.6701891
-0.44439095
-0.07329969
-0.035132676
0.33325672
-0.10179448
-0.32951248
1.084438
-0.44880638
0.13062154
0.86566114
-0.5055722
-0.06395649
-0.17829148
-0.116527885
0.25863707
0.014625706
-0.025874825
0.44481865
0.39276487
0.07634827
-0.19746435
-0.57601434
-0.1404185
-0.93668973
-0.2074512
0.8187336
-0.25767392
0.29470456
-0.049194504
0.7739733
-0.8652358
-0.43681777
-0.11725254
-0.49802086
-0.27719954
1.1558886
-0.62965363
0.043121144
-0.064673714
-0.15867968
-0.7906921
-0.5852727
-0.139636
-0.055189505
-0.33377814
0.33241084
0.4662369
-0.2815847
0.022149231
0.36335248
-0.74596006
0.015790485
-0.07683605
2.5237424
-0.05659093
0.062136415
1.7682531
-0.064525574
0.037934374
1.0095419
-0.030422615
-0.082103446
-0.27535602
2.0476377
-0.70728576
0.28537482
2.667816
-0.028532784
-0.052543882
1.230368
-0.36933354
0.06693307
-0.42462885
1.8981488
-0.72709674
0.5502797
2.0917623
-0.07826386
-0.050691344
1.0890162
-0.3098284
-0.04209488
-0.2703135
1.1954192
-0.59397346
-1.0772952e-05
1.4256445
-0.06694652
-0.040758744
0.9084302
-0.27735656
-0.03512702
-0.29066357
0.94660485
-0.6531136
0.15164989
1.0472218
-0.0724301
0.021707786
0.6320165
-0.6777164
0.043062516
-0.28258932
0.70624703
-0.6590423
0.32505608
0.6713981
-0.059000336
-0.012858897
0.47089806
-0.6229196
-0.0783073
-0.035230983
0.012982361
-0.017126143
-0.029509824
-0.055804543
0.024307556
-0.049833022
-0.03326587
0.04826694
-0.069088526
-0.07888112
-0.0030254498
0.0014489219
0.05305607
0.069247134
-0.037057232
-0.05655636
-0.058338817
-0.037876945
0.039174028
0.03275372
-0.07753032
-0.060444158
-0.048608705
-0.011372693
0.074230485
-0.005386792
-0.04972384
0.08591617
-0.015555605
0.025054462
0.0657266
0.08605119
0.07656915
-0.010787301
-0.015286587
0.08448773
0.00314866
0.061289363
0.07818819
-0.038241178
-0.0008075088
0.07686012
0.06813506
0.017382264
-0.00020457804
0.07209637
0.020899884
-0.05170997
0.071267314
0.033719778
-0.032343272
0.036822617
-0.010083795
-0.056560837
0.039861284
-0.0024676025
-0.08112226
-0.06882338
-0.03452878
-0.027263198
0.37869748
-0.01620464
0.2886761
0.4582847
-0.0013293177
0.048165776
0.3576159
0.04406724
-0.07971792
-0.071016274
-0.36026406
0.06464932
0.041865822
0.68333733
-0.04280852
-0.044342987
0.5758469
-0.7085782
-0.04970587
-0.06129701
-0.08760537
-0.049028773
0.025848493
1.376556
0.04295165
0.03313121
0.9582036
-0.8221471
-0.007512048
-0.10336354
1.6005708
0.02078375
0.29629588
0.80814266
-0.25355464
-0.025029628
0.7401053
-0.03210995
-0.062348627
-0.46143192
2.2878425
-0.23222479
-0.025586268
0.45315593
-0.025628405
0.21018332
0.39540178
-0.39025274
0.10102874
-0.4255862
2.0533586
-0.7434066
0.0025078517
0.8894152
-0.08301084
-0.07374277
0.8686968
-0.5630677
-0.0032459954
-0.4516811
3.5586734
-0.7641499
-0.04344194
0.5493797
-0.11880704
0.16722873
0.610135
-0.6085512
0.036668293
-0.78705084
4.6520486
-1.0267549
-0.056293335
0.020261507
0.17256045
0.083225094
0.37004194
-0.89705956
-0.5934175
-1.083732
3.7541347
-0.8182914
-0.050561782
0.55958754
0.13472448
0.26940358
0.50765073
-0.87110955
-0.3410891
-1.4457202
2.2972205
-0.89760154
0.43467528
0.32565367
-0.1770394
0.5979631
0.5416197
-0.8061734
0.45053118
-1.1177881
1.2813492
-0.83134234
0.6750618
0.25871575
-0.6765604
0.71223575
1.0971912
-0.7520389
0.07660346
-1.1953869
0.3546383
-1.136802
0.15693773
0.21318679
-0.22737932
0.30702263
1.006731
-0.85054475
-0.47034422
-1.1924229
0.6502383
-1.1649181
0.2170601
0.04340986
0.08147952
-0.23000526
0.64773196
-0.6122768
-0.16787174
-0.8884852
-0.13340798
-0.67495453
0.61982495
0.07640362
0.20932214
-0.48542392
0.4897042
-0.6996941
0.17221014
-0.4604323
0.3980258
-0.6971943
0.49757183
0.32991353
-0.1900359
-0.3792529
0.7668177
-0.9152837
0.07616573
-0.46862656
0.85644376
-0.83329093
0.3321123
0.28411582
-0.8421357
-0.19409116
0.49742052
-0.18984282
0.09174603
-0.61122274
0.16962267
-0.59806377
0.59865016
0.25991133
-1.1479216
0.12763977
0.841186
-0.20809552
0.019416614
-0.18401375
0.3568819
-0.90679866
0.34808984
0.9079023
-0.7029254
-0.22181962
0.9645285
-0.38364825
-0.22732203
-0.20334685
0.8732
-0.9076244
0.40692335
1.6960036
-0.5051793
-0.69800603
1.063284
-0.020595433
0.017307926
-0.5505499
0.96689665
-1.1667995
0.5749402
1.7945663
-0.5063138
-0.25134557
1.0090444
0.113588095
-0.23502111
-0.455965
0.7494514
-0.9374169
0.53968257
2.9592593
-0.2466315
-0.16470188
1.0177431
-0.42567068
-0.08773381
-0.38184297
0.6027944
-1.007495
0.68307066
0.828874
0.41344282
0.08059025
0.5501024
-0.9202623
0.059324667
-0.18289396
1.5955625
-0.607227
1.0503545
0.123968646
0.27911258
0.58451855
-0.6714909
-0.14683922
0.0666712
-0.13036507
0.4997791
-0.5145812
0.7189143
0.6029494
-0.08374727
0.08606553
-0.62845343
-0.004302621
-0.05915472
0.08292233
-0.066298
0.015072823
0.042961366
-0.06041386
0.01867278
-0.00685969
0.0173193
-0.011078782
0.011544906
0.00045900792
0.006991051
-0.07106163
-0.085184895
-0.0822951
0.053676225
0.06580376
0.024091616
0.061798297
-0.08631243
-0.022295706
-0.065103315
0.07868836
-0.028540824
0.00074321777
-0.049029596
0.061318554
0.012003578
-0.079120815
0.042067267
-0.03770331
0.04536108
-0.08046772
0.051348828
-0.013824858
-0.025801532
-0.05467556
-0.0075867847
0.040047698
-0.06597445
-0.09847418
-0.39271736
0.6806216
0.17300041
-0.34810594
0.69328326
0.17266293
0.16828384
0.052864425
0.05045946
-0.24198328
-0.48171327
0.5775521
0.50118715
0.7627718
0.6251992
-0.062146485
0.8073853
-0.7154153
0.08993508
-0.08323245
-0.3382583
0.04727433
0.37632328
0.8628132
0.39412406
0.3934467
1.1514064
-0.8376665
0.87480736
-0.007542291
0.41693577
-0.51576924
0.80479336
0.095959686
-0.31162772
0.31916595
1.0335667
-0.04887975
0.33671534
-0.24369189
0.77430034
-0.7874021
0.8055921
0.3966773
-0.28928474
-0.09982699
0.54947877
-0.48791608
-0.11044115
-0.7706834
0.43489277
-1.2875715
0.661661
0.6880922
0.24812369
-0.22079082
0.1531567
-0.8403652
0.059328217
-0.99566716
-0.33485967
-1.5236207
0.5429357
0.35782066
-0.20767304
0.34671295
0.14822428
-1.0953507
-0.122073844
-1.4408476
0.53412426
-0.982311
0.78484404
-0.07096691
0.006575583
-0.028682968
-0.08570901
-0.9963017
-0.22434224
-0.9269158
-0.2750419
-1.455998
0.63625306
0.07173142
0.10154193
0.40446752
0.47362345
-0.83738583
-0.3747942
-0.54617375
-0.123450674
-0.9345018
0.46960554
0.070306234
0.25456008
0.17432438
0.1388708
-0.68227285
-0.2684187
-1.4794724
-0.3128903
-1.4295068
0.24208544
-0.26501048
0.16743344
0.23243877
-0.29974836
-1.4720429
0.2308832
-2.123058
-0.58359534
-1.3700726
0.65351593
0.036951758
0.117926694
-0.20270365
-0.1815277
-1.7738093
0.037138082
-1.371138
-0.21665768
-1.2551309
-0.069768
0.050882667
-0.37022793
0.1456944
-0.25269496
-1.7751752
-0.08059378
-1.154351
-0.3579424
-1.0608892
0.34673128
-0.12826633
-0.12365592
0.15367256
-0.06842258
-1.1348851
-0.01598764
-0.803082
-0.07591202
-0.909971
0.23310722
0.003025111
0.015553645
-0.13217312
-0.23071009
-0.46339476
-0.10120667
-0.8652169
-0.23248464
-0.66508704
-0.05889876
-0.06201779
-0.51536983
0.21357022
-0.17479824
-0.307072
-0.018927153
-0.38403714
-0.45632005
-1.1668819
0.34872997
0.26531935
-0.6539083
-0.11254837
0.0067116576
-0.26102242
-0.03897123
-0.57224035
0.15334511
-0.49069992
0.29499403
0.30035603
-0.18603106
-0.040183567
0.12123839
0.15164942
-0.21014966
-0.3982602
0.08731561
-0.6236615
0.17957184
0.3105847
-0.49865988
0.077318825
-0.029874507
-0.405822
-0.015269216
-0.072695464
0.2654072
-0.5944812
0.36124298
0.16582413
-0.4038807
0.4391901
0.17396636
-0.0889364
0.22304024
-0.046747334
0.57937783
-0.62610435
-0.11914767
0.47301087
-0.6507639
0.16216275
0.23991612
0.26392758
-0.106704
0.16978717
0.41812465
-0.65011656
-0.60238564
0.9209752
-0.03561111
0.29018334
0.4122467
-0.6392669
-0.52185637
-0.09309968
0.5318679
-0.713157
-0.43376353
0.86988527
-0.04227594
0.93001676
-0.013209359
-0.4959522
0.16066144
-0.70116216
0.5804165
-0.2927542
0.309714
-0.5361159
0.005698428
-0.17487262
-0.94346654
-0.3275512
-0.8637003
-0.50090575
-0.01740048
-0.29103467
0.28957748
0.30278462
-0.0003415516
0.07996059
-0.20032452
-0.043782607
0.0075233877
-0.073578686
0.0702553
0.04766337
-0.035661366
-0.052179318
-0.06412758
0.017239735
0.057933755
0.023291528
0.053628482
0.010970622
0.08019062
0.037928343
0.0783075
-0.0044344515
0.05066339
-0.051745553
0.07827712
-0.08100242
0.069504015
0.17222446
0.065966494
0.018017687
0.028125096
0.006110631
0.32377666
0.35447717
0.058290325
-0.0007405877
0.51425296
0.6230644
-0.49892226
0.6929858
0.2189457
-0.40538445
0.96685416
0.69722235
0.15017545
-0.056980573
0.47568455
0.47746834
-1.0711737
0.5488043
0.3745132
-0.04129254
1.0223708
0.7792384
0.9440775
0.68616843
0.4569084
0.30655974
0.4349482
0.061855167
0.06989863
-0.33463353
0.18533935
-0.060360722
-0.32396373
-0.24032262
1.1691179
-0.045089617
0.14983389
-0.003974211
0.3903587
-0.15939866
-0.6734036
0.008596081
-0.5128743
0.42904878
0.3390551
0.07480623
0.36954352
-0.12551852
0.31776878
-0.17542873
-0.38302037
0.31454468
-0.78281397
0.14294735
0.42441264
-0.22005098
0.09509611
-0.20447281
0.19804695
0.35011247
0.26032123
1.0849965
-0.39533672
0.19061767
0.6482709
-0.094067805
0.4162834
0.10680519
0.013329724
-0.4103425
0.4035668
0.45514324
-0.54785633
-0.502822
0.04843421
-0.22094294
0.23919372
-0.3565034
0.08227193
-0.32472214
0.25233746
0.6290084
-0.77236676
-0.4957318
-0.048166312
0.008279535
0.23574089
-0.3629566
0.14607425
-0.1683824
0.1539059
0.33658162
-0.2847366
-0.47750604
-0.1744248
-0.009851004
0.10326538
-0.09160824
-0.05094546
-0.09558287
0.23564288
0.8396528
-0.5102791
-0.0392444
0.104944766
-0.0987809
0.44419438
-0.086013086
0.15026258
-0.035915796
0.3522178
0.47234786
-0.2088356
-0.34932345
0.12009463
-0.057348453
0.279419
0.041107792
0.1429871
-0.20826766
0.3768278
0.26688626
-0.12922083
-0.49680975
0.14075182
0.14480089
0.21564637
-0.08177637
0.18545792
0.07909937
0.0610197
0.08731935
-0.09642297
-1.0985843
-0.046384655
0.044294313
-0.19912107
-0.12089536
0.28292865
-0.21020909
0.050651886
0.26448143
0.04515961
-0.5508714
0.2673499
-0.011390268
0.20169361
-0.14718556
0.28018603
-0.088209234
0.21073462
-0.095710345
-0.16396973
-0.44078112
0.060359888
-0.021374797
0.12889065
-0.2844114
0.09353295
0.09707545
0.075973496
-0.03490141
0.015797485
-0.59216255
-0.06803435
0.18434078
-0.02964666
-0.12600768
0.09622617
-0.08788188
-0.012097935
-0.07127403
-0.13031684
-0.22496209
0.4668145
-0.026677657
0.03013493
0.0048046974
-0.12567672
-0.14304999
-0.11479216
-0.25411075
-0.12571377
-0.39478847
0.11410055
-0.22563213
-0.08826106
-0.088043556
0.112543486
-0.048226222
0.13519832
-0.57138133
-0.13667788
-0.50613004
-0.36527002
-0.1674728
-0.48734194
0.21769774
-0.22247636
0.08967321
0.042651188
-0.4548325
-0.0015641002
0.109394066
0.22627456
-0.21703653
-0.47909257
-0.026814004
-0.8809836
0.041250043
-0.40347677
-0.25650468
-0.028323753
-0.29325682
0.13799979
0.022540621
-0.3219588
-0.06575499
-1.4612092
0.38298377
-0.059936106
-0.9654634
0.21978459
-0.11609321
-0.22695686
0.7932878
-0.73125243
-0.73983395
-1.5949461
0.50069207
-0.30060223
-0.12223931
-0.5322889
0.3333488
0.4260856
0.34417802
-0.35761768
-0.8841643
-0.09953728
0.27566585
-0.18921408
0.3385359
-0.80940497
-0.1983128
0.18969306
0.60998565
-0.20578688
-0.7046712
0.8100408
-0.5921153
0.17725512
0.17375432
0.10052164
-0.47764552
0.8092352
0.40334395
-0.03996209
-0.5628606
0.41168836
0.16726515
-0.12952007
-0.407829
0.5680685
-0.8658764
-0.045372933
-0.07374584
-0.018590584
0.02942504
0.008868553
-0.025998715
0.06355267
0.06494764
0.006334111
-0.007974617
-0.002684325
0.039170243
-0.0061826706
-0.02019652
-0.08615866
-0.050344672
-0.023624875
-0.018876262
0.006950736
0.057558082
0.054219015
0.07287967
0.6067924
0.8168987
1.0708549
0.40679577
0.9811626
0.70547473
0.8551035
-0.06351496
0.8432185
-0.3591589
-0.82079256
0.066190876
0.53422815
-0.5886836
0.3123307
1.2661335
0.3932191
0.04120868
0.5656967
0.28543168
0.54356074
-0.12025968
0.53569573
-0.617407
-0.20242317
1.2389339
-0.5473634
-0.77907586
0.7512319
-0.21059608
-0.25605303
0.1959326
0.024783356
-0.7191096
0.33406577
0.049988948
-1.3717017
-0.38200632
0.24292327
0.28175223
0.07340076
0.086455554
-0.41494596
-1.0137169
0.26735756
0.7085782
-0.8942075
-0.2927243
0.17116468
0.32993987
0.27748328
0.07229044
0.1869755
-0.25967658
0.020192754
0.7280782
-0.23881131
-0.39173162
-0.24319994
-0.043691617
0.21304552
-0.30093613
-0.14086707
-0.009416777
0.1807019
0.23215888
-0.20747279
0.058336694
-0.005376603
0.1573963
0.43470883
-0.12943184
-0.08035775
-0.056973197
0.15012029
0.45963457
0.09613226
0.044781394
-0.020224981
-0.062296957
0.31178662
-0.37303275
-0.023905098
0.033724166
-0.0247575
0.4404788
-0.14910443
-0.046478517
0.17428468
0.16883124
0.04940965
-0.30078208
-0.06351023
-0.12605071
0.15138581
0.5067737
-0.05245786
-0.12200183
0.112292565
0.2755182
0.13712817
-0.06498103
0.07976776
-0.123950504
0.18083872
0.5443257
-0.21880578
-0.05249978
-0.07954982
0.037189003
-0.25328603
-0.15844251
-0.021206768
-0.16990986
0.2953052
0.48280048
-0.15521413
-0.21432576
-0.13713902
0.0812061
0.09305603
-0.14917149
0.07311079
-0.22381902
0.15138867
0.219026
-0.06423374
-0.36438784
0.013479633
-0.26744062
-0.15782143
0.077797145
0.16307293
-0.2354479
0.19781864
0.14804237
-0.102234006
-0.19491607
0.12732476
0.018875547
-0.10371186
0.11411082
0.23882532
-0.05123229
-0.013823723
0.24168159
-0.069045976
-0.3697949
0.024337074
0.1531165
0.110158525
0.00021184681
0.10668989
0.09537378
-0.1323851
0.28286248
0.065336615
-0.34684652
-0.044288807
-0.119562894
0.014364008
-0.079405114
-0.153545
-0.12573308
0.06754094
-0.015355978
-0.032269526
-0.05250323
0.0526918
-0.171214
-0.04594049
0.064858995
-0.17333633
0.08356598
0.1831489
-0.07742412
0.14544047
-0.27857843
0.022470986
0.16855599
0.081193246
-0.1419921
-0.027175058
0.33055604
-0.026234027
0.005690591
0.25814262
0.013542268
0.028598268
-0.24111651
0.11283726
0.0054514855
0.3078079
0.15353344
0.07698846
-0.22288907
0.10462047
0.37564495
-0.04409711
0.018591283
-0.44271007
0.014165416
-0.14244407
0.2314207
0.089243494
-0.24724498
0.090258695
0.38124678
0.12656198
-0.20591569
0.18788216
0.094742715
-0.390455
0.20156027
0.081022136
-0.7286273
-0.36084378
0.07738368
0.24977146
-0.22693501
-0.23704676
-0.12575623
-0.17300233
0.23261966
0.06499209
-0.3390677
-0.19484863
0.29328662
0.032523755
0.5576008
-0.14409177
-0.49523482
0.24523604
0.7899335
-0.0971531
1.268133
-0.19880661
-0.043478694
-0.04030033
-0.28467858
-0.5717368
-0.876963
0.64669085
0.5273504
0.1164141
0.21103685
0.6187701
0.31003046
-0.016933039
0.2544779
0.07635452
-0.4716733
0.20516805
0.4005621
0.01780928
-0.05398599
0.3086349
-0.27167806
-0.10542994
-0.05792831
-0.010544606
0.029564165
-0.044692203
-0.08597288
0.0151825845
-0.06094495
0.04736439
0.06936204
0.009819046
-0.02145411
-0.14139351
-0.030085538
0.34484065
-0.15914463
0.052325055
0.7383001
-0.07354517
-0.47309366
0.6305472
0.07021003
0.17183484
-0.26313168
-0.52653295
0.7489584
0.10520601
0.17122734
0.13603021
-0.22106725
0.35152054
-0.46894708
-0.48976967
-0.49336526
0.15814033
-0.48561516
0.5498794
1.2765892
-0.392084
0.35512772
0.3271803
0.00761943
0.7690763
-0.21390791
0.56456506
-0.26887736
0.37652662
0.4535684
0.26298293
-0.059853356
0.31478167
0.630954
0.125882
-0.047452886
0.15564252
0.08557931
0.09010453
0.6593241
-0.5461922
0.617031
-0.1319407
-0.028713388
-0.42511782
-0.35845336
-0.13005222
-0.3947189
-0.08981483
0.55358434
-0.42009774
-0.0058320556
0.26981857
-0.14031446
0.06444516
0.04778412
-0.025868459
-0.013398936
0.00312846
-0.42029175
0.074115865
0.14639886
-0.03126402
0.17800957
-0.1738289
-0.20762955
0.06344509
-0.10817512
0.007105994
0.38413748
-0.12549865
0.16517386
0.27520305
0.28162298
-0.19740476
-0.16226003
-0.012853681
-0.14037111
0.08435468
0.10941606
-0.49166718
0.045670196
-0.09623391
-0.059395265
-0.30002618
-0.088760436
0.02175962
-0.15765867
0.091467574
0.22942945
-0.23019896
0.0105069615
-0.09263251
0.023446172
-0.12571685
-0.21368748
0.034924537
-0.15216455
0.09876812
0.1772814
-0.2280701
0.068736814
0.06602928
0.03634265
-0.101869516
-0.21131133
0.09522431
0.009909009
0.11967265
0.4319331
-0.13796757
-0.0525856
0.051000856
0.15937191
-0.23455724
-0.18445674
-0.20638207
-0.18809223
0.22959557
0.45066744
-0.07153964
0.122909434
0.1871083
0.06864189
-0.19374336
-0.3113593
-0.0018270442
0.1744824
0.3596079
0.41141158
0.08719306
0.16888368
0.02592254
0.1699821
0.07728693
-0.2640564
0.094060786
-0.00740307
0.22220847
0.6124777
0.031280152
0.008420719
-0.16767222
0.0057142144
-0.13767007
-0.36625856
-0.119712956
-0.091602094
0.21394865
0.30270892
-0.101478525
0.11064863
0.13722327
0.08394768
-0.073959164
-0.14019305
-0.2282688
0.16627869
0.32877925
0.50573474
-0.053350803
0.15854074
0.010096693
-0.101624936
-0.04073276
-0.22715357
-0.030760378
-0.08240109
0.29567328
0.53067476
-0.18273938
0.018844964
0.0867561
0.17093658
-0.23097867
-0.1819356
-0.08732549
0.14563942
0.0008720478
0.014845619
-0.011697791
0.0937576
-0.08967828
0.039895464
-0.36005124
-0.020868413
-0.19282621
0.008027238
-0.08500104
0.13561179
-0.044476315
-0.0766381
0.06677181
0.043985963
-0.09105645
0.08691704
-0.3205628
-0.060739703
0.17960323
0.11791414
-0.088177994
0.053206194
0.012303493
0.0730039
-0.16838412
-0.089921005
-0.2795807
-0.094812654
-0.4122074
0.37861988
0.16744995
0.2330095
0.08231221
0.26701683
-0.062510036
0.15746766
-0.2282562
0.17353454
0.16469081
-0.16624926
0.25280553
-0.045617197
0.3784891
0.17254409
-0.05497871
-0.12683456
-0.062366623
0.5999138
-0.0010652388
0.29353875
-0.17206623
0.960569
0.56165546
0.4325778
-0.05848302
-0.4979083
0.5281207
1.3687882
0.6903269
0.8633263
0.26011235
0.11875264
0.039381474
0.5573828
-0.16272299
-0.084431216
0.21695763
0.71313685
0.18372467
0.7654817
-0.004585357
0.123821475
0.124280944
-0.50117093
-0.7278107
-0.642071
0.3712656
0.4308079
0.0543304
0.24672164
0.21283111
0.16508287
1.1213499
-0.02181007
0.06864669
-0.037015717
-0.006379076
-0.04089502
0.38172108
0.13053493
0.07020969
0.3396023
0.04808878
-0.46291867
-0.10984911
-0.7122583
0.2472147
-0.030348297
0.7869042
0.7499711
-0.7176716
-0.19952087
1.5008826
-0.59158784
0.5391803
-0.5837384
-0.11008996
0.31689945
1.0078616
-0.604428
0.25069952
0.11028942
0.43454552
-0.06565872
-0.6230375
-0.12954599
0.030741895
-0.59182423
0.442276
0.8398984
-0.73114187
0.6656149
-0.11719725
0.14008176
0.2603632
0.211914
0.6187141
-1.2104182
0.42633933
0.82716036
-0.43755898
-0.42962372
-0.20768
0.1519025
-0.22500381
0.25871906
0.0389965
-0.04636911
-0.13419016
-0.14058568
-0.52604973
0.121331975
0.003177355
-0.15684874
-0.06412298
-0.20260225
0.0577421
-0.47529614
-0.037408322
-0.16818835
-0.40925682
0.18715817
-0.003493456
-0.07304933
-0.27168715
0.06551
0.03635793
-0.04141468
-0.17988464
-0.34796333
-0.13057233
0.19637908
0.047361385
0.2076501
-0.20870185
0.012167527
0.32165247
-0.0231562
0.17550297
0.3528033
-0.19079603
-0.066471845
-0.014285986
-0.02738761
-0.24395257
-0.16230606
-0.16401644
-0.09789143
-0.16964982
-0.2518138
0.090279125
0.11876825
-0.18125966
0.04602557
-0.3471814
-0.06695017
0.04246375
0.07177098
-0.040006544
0.28044555
0.020556044
0.26731947
-0.18071769
-0.088129476
-0.08205982
-0.07172293
-0.041942593
-0.18294561
-0.239995
0.044736855
0.018476916
0.09431961
-0.11034512
-0.0674296
-0.3334536
-0.3548543
-0.053350653
-0.12543933
0.10232049
-0.010378276
-0.050252575
0.06846148
0.063010685
0.025621848
-0.009442399
-0.14176813
-0.06070229
-0.15383917
0.30890974
0.22301908
-0.17411709
0.12813702
0.05950262
-0.060101487
-0.16366284
-0.14094391
-0.19787762
-0.041210275
0.21050996
0.5142815
-0.08719877
-0.109063
0.18748185
0.22815694
-0.079372406
-0.25566515
0.027289486
-0.069644
0.32987636
0.5681445
-0.029636875
-0.018095369
0.12023691
0.15454291
-0.072910905
-0.08670499
-0.15133007
-0.0129567515
0.31161258
0.37515995
-0.15127955
0.14739884
0.08031577
0.06675334
-0.031839777
-0.10243266
-0.05911208
-0.0018274457
0.06406292
0.18496983
0.059796836
0.099667095
0.16173413
0.035507116
-0.27429184
-0.034296628
-0.12626718
-0.103124335
0.012234068
0.3147422
0.15152778
0.030578064
0.09314492
-0.09361637
-0.08835711
0.15302254
-0.113456756
0.08082399
0.028669981
0.16758977
0.014885552
0.182886
0.06437709
0.07408079
-0.2082417
0.07157819
-0.10614259
0.1292298
0.16122898
0.08606563
-0.037284296
0.16864358
-0.02649484
-0.116044365
-0.31871486
0.08089556
-0.11658868
0.14361326
-0.006715731
0.084185615
0.14571822
0.017262777
-0.020650323
-0.24643609
0.054472808
0.1905246
0.43653435
0.28247428
-0.06855277
0.22671893
0.09742478
0.21479711
-0.048947986
-0.04999899
-0.29843608
-0.20642425
-0.24360296
0.48327065
-0.34990773
0.11814349
0.3149467
0.17410843
-0.18004571
0.22083743
-0.048160143
-0.39590234
0.023663575
0.27397922
0.08211443
0.0970516
0.14103453
0.20992053
0.25142044
0.6156732
-0.045100998
-1.4861753
0.06032444
1.0845318
-0.061150305
0.69763994
-0.15347911
-0.060574736
0.50217116
0.30392188
0.16020375
-0.41642138
0.44974944
1.1157917
0.5263523
-0.057575557
-0.7883965
-0.04066876
-0.588457
-0.23200841
-0.89241606
-0.7159042
0.13452725
0.7873869
-0.16235821
0.48580268
0.46561518
0.58920586
1.2435901
0.035838164
-0.68608874
-0.31694332
0.02442824
-0.04124835
-0.6634179
0.21241894
0.04890106
-0.72888285
0.02134752
-1.1108762
0.08620301
-1.0770457
0.5250631
-0.11143446
1.2088026
-0.0030583246
-0.6559777
-0.06538759
-0.17683928
-0.39519837
0.47217223
0.072077125
0.009905095
-0.49256894
1.1855674
-0.9090104
-0.014468571
0.41901937
-0.44919407
-0.17706001
-0.5816551
0.120582834
-0.10754826
-0.8073531
0.44922525
0.3643904
-0.2381832
0.27982813
-0.25234655
0.06987347
-0.29219535
0.20551215
0.5239706
-0.8671094
0.47523907
0.12224233
-1.1485785
-0.008408366
-0.17418483
0.2174286
-0.020953264
0.45181754
-0.18486683
0.06848277
-0.2840921
-0.29833817
-1.1251551
0.011647817
0.32415357
0.04959473
0.005341858
0.060836677
0.18052654
-0.06232817
0.15268144
-0.081391454
-0.056967743
-0.2684014
0.12576628
-0.08664501
-0.27325135
0.06817915
0.03622881
-0.18194427
-0.052031726
-0.19968845
-0.041998766
0.17810103
-0.32836682
-0.0026139792
-0.3130524
-0.066844806
-0.13759105
0.32672533
0.042531654
0.008343986
-0.015048438
0.27678466
-0.020014923
0.17646585
0.04895315
0.11448777
-0.08852423
0.11460802
-0.22841273
-0.19775866
0.05330735
0.28653216
-0.06345877
-0.0061478326
-0.20946461
-0.102568105
0.1752707
-0.12775548
0.010242066
-0.088235155
0.020829111
0.15290658
-0.050533455
-0.06117878
-0.31836146
-0.004913188
-0.029402688
-0.05128221
-0.046049915
-0.25043824
-0.0057865866
0.14727485
-0.15613562
-0.12282972
-0.21856044
-0.18113834
-0.036080316
-0.20241469
0.058847807
0.1968331
0.0516799
0.032899164
0.0057152854
0.062995836
-0.11733727
-0.09119204
0.2767682
-0.05811
0.38520834
0.1484205
0.16951568
-0.017039906
0.0710951
-0.14791007
-0.24910198
-0.32227603
0.20294525
-0.122459345
0.31591487
0.24890374
-0.014067699
0.16693836
0.025703726
-0.0075569125
-0.32126033
-0.16528606
-0.061457682
-0.021543654
0.25046813
0.04352515
-0.10033424
0.0043374095
0.12827308
0.055384107
-0.24991561
-0.22077559
-0.24453758
-0.023407048
0.08759194
0.4746951
-0.010379274
0.07002723
0.15247339
-0.24364778
-0.28569844
-0.15107657
0.0710044
-0.08080895
0.042073555
0.009288238
-0.08202683
-0.022845913
0.04305575
-0.01709971
-0.34466153
0.08319139
-0.17862928
0.0417147
0.21618423
0.15785494
-0.16212562
0.150297
0.050769113
0.065336496
-0.14718466
-0.003714017
0.1311012
0.0697886
0.13769957
0.30294526
-0.06472217
0.025478523
-0.04250924
0.01417672
-0.091334976
-0.05334547
0.051854
0.12211651
-0.07955564
0.3704968
0.034975052
0.050805826
0.079421856
-0.05422996
-0.06338225
0.032660093
-0.3744161
0.63167065
0.0044995965
0.21814647
-0.045237847
0.076015286
0.021221979
0.058132812
-0.30510345
0.2979321
0.22151244
0.69293284
0.07679954
0.4155123
-0.12081265
0.069085255
0.12844287
-0.0012203257
-0.42268258
0.19410928
-0.12470468
1.0294876
-0.2783393
0.24739844
0.32163748
0.2328259
-0.21121016
0.6279808
-0.5061912
-1.3800735
-0.07532641
1.6545889
-0.1254503
0.4369413
0.3691317
0.66273856
0.40580115
0.8083972
-0.009018988
-1.2426033
0.26725143
2.8085148
0.21254183
0.6261225
-0.15148346
0.4789651
0.6892474
0.34571698
0.097589016
-0.51856947
0.96022165
1.4571457
0.6258879
0.14069073
0.11637774
-0.5212652
-0.43093038
1.0004113
-0.48046315
-0.022572897
0.68395424
0.013200298
0.17163028
0.8886334
0.4686618
-0.21510376
0.49648243
0.03401839
-0.0067392834
-0.106822744
0.019978486
-0.07005016
0.75959235
0.33738148
-0.012094691
0.9544921
0.015467848
-0.75989026
-0.37482718
-0.71904945
0.18585622
-0.0072935764
2.9019022
0.17877993
-0.5117264
1.1130987
0.002036744
0.2900592
-0.074738905
0.026619153
-0.26335767
-0.7279988
1.3760946
-0.6230278
0.15775083
0.6592209
-0.69155484
-0.37370938
-0.09418433
-0.5812937
-0.026613194
-0.84959054
0.8004508
-0.048751943
-0.60841626
0.16799213
-0.23565228
-0.32376847
-0.16428727
-0.15282145
0.26378787
-0.5689803
0.42037502
-0.40710804
-0.8972116
0.23133563
0.08214774
0.17897832
-0.48862875
-0.42109123
0.37148553
-0.64352804
-0.09318474
-0.22230917
-1.079263
0.30958742
-0.12972988
0.06694941
-0.2162476
-0.17011437
-0.084157
0.10127451
0.10601372
-0.109016955
0.00032051702
0.028735422
-0.002368092
0.08465399
-0.27989215
0.14440934
-0.013906778
-0.016863028
0.0062675755
-0.3181133
0.055682458
-0.15733075
-0.072755784
0.13574035
-0.27718034
-0.038521983
0.07067812
-0.1740468
-0.10374256
-0.15388325
0.15019481
-0.024127914
0.017137995
0.167299
-0.12438014
-0.041944653
0.11896853
0.11383457
0.09020263
-0.08228358
0.09041366
0.049586527
-0.1102381
0.122860074
-0.030799367
-0.28842154
-0.02661204
0.088920444
0.14048322
-0.10659388
-0.0059694005
-0.011910365
-0.011739817
0.11938655
-0.2604576
0.003637951
-0.055966426
0.111305
0.12679653
-0.13874172
0.085666925
0.28228816
-0.026240947
-0.13167517
-0.15866582
-0.28111875
-0.17053267
-0.25141406
0.034625884
-0.018280802
-0.09212163
0.20251688
-0.12459481
-0.13237542
-0.20510054
-0.045591597
-0.2283247
-0.39564732
-0.1554532
-0.07822965
-0.046292428
-0.09079585
-0.056482237
-0.27492183
-0.19968203
-0.34400406
0.11751222
-0.31748992
0.272948
0.00893559
-0.24377237
0.009861613
-0.053577892
-0.21898843
-0.11212444
-0.17147864
-0.019245256
-0.3454986
0.24550907
0.24721575
-0.39485788
-0.03393369
0.038104404
-0.1312879
-0.19401453
-0.027609395
-0.006270484
-0.16244607
0.030017963
0.12649807
-0.25385773
0.014225786
-0.024225842
0.20216632
-0.31789175
-0.037465777
-0.006595882
-0.30092415
0.08514595
0.2760734
-0.058816243
0.16166562
-0.10972613
-0.09979778
-0.07928154
0.031186609
-0.25825593
-0.26686674
0.11854891
0.25870445
-0.07687467
0.10950692
-0.07723754
0.0014492127
-0.24653175
-0.20419396
-0.3405273
-0.32186052
0.120968826
0.24702398
0.05056706
-0.0049290187
-0.10647977
0.23955344
-0.1523992
0.065716
0.010745082
-0.43230644
0.03954295
0.32011837
-0.089957416
0.055770807
0.011144081
0.27918264
-0.17196716
0.30218056
-0.34252968
-0.40811327
-0.065503545
0.1938442
0.118063055
0.08230024
0.043089744
0.43881422
-0.10172025
0.31473663
-0.16098422
-0.4774441
0.066285744
0.021515658
-0.008787431
-0.022128085
0.21219864
0.30900732
-0.2964872
-0.26476905
0.24361397
-0.53552496
-0.12804705
0.18594556
0.073479176
0.15431993
-0.029230593
0.4118406
-0.8700487
-2.376119
0.32159016
0.6445582
-0.34907177
0.41733953
1.1515943
0.7666055
0.63558733
0.6973841
-0.47852397
-1.7472893
0.09653176
1.589663
-0.15077926
1.1842437
0.5810178
0.61640096
0.96295714
0.66108274
-0.45375437
-0.9854746
0.9568558
0.8194955
0.62104565
0.836292
0.12063288
-0.34655336
0.018658686
-0.32615715
-0.24856693
-0.488831
-0.69180924
0.5610732
0.9817652
0.5733087
-0.37753427
0.70790446
0.32217467
-0.008795597
-0.09792938
-0.0032535873
0.1505107
0.024724228
0.6601453
0.24950373
-0.07195459
0.82809913
-0.019337853
-0.47088283
-0.43527588
-0.0015907284
0.41106814
-0.12761371
3.2058902
0.13488033
-0.19143929
1.5811045
0.13274226
-0.4081503
-1.0432737
-0.5410072
-0.0005189905
-0.762633
1.6027561
-0.52446735
0.14525801
0.62517154
-0.31331652
-0.61699307
-0.54089314
-0.6012622
-0.46629223
-1.0674106
0.23243922
0.3807117
0.037805233
-0.12821789
0.69815856
0.18579748
-0.380838
0.0038407308
0.24687818
-0.5236142
-0.07193577
-0.5081696
-0.07319555
-0.3065894
0.065967195
-0.39490595
-0.07592378
-0.06251803
0.13998902
-0.5805474
0.13460311
0.13699292
-0.694981
-0.036125507
-0.26153594
0.09976364
-0.10198129
-0.24335907
0.37093344
-0.033061333
0.21419361
0.13187383
-0.106832825
-0.08435006
-0.1995112
0.015282063
-0.064851776
0.04909275
0.2893319
0.036884345
0.17437139
0.05159874
0.14999402
0.17963752
0.05436879
0.13322252
-0.016821312
0.12102734
0.2412497
0.06487177
0.096131556
-0.007464809
0.15789224
-0.028062865
-0.044069417
-0.08068107
-0.22471777
-0.041431308
-0.06347825
0.1672522
0.08297749
0.032886814
0.5142232
0.13039215
-0.20947225
0.12190901
-0.027135609
0.20019105
0.036442947
0.38433644
0.08408336
0.046759967
0.3339339
0.37363857
0.08863683
-0.022609126
-0.060183037
-0.13004792
-0.01635579
0.2014403
-0.10550771
0.0005128193
0.37825528
0.19772112
0.056026865
0.064949155
0.014345492
-0.12289218
-0.33780968
0.1110841
-0.23236296
-0.4933999
0.40237194
0.11217715
-0.0609676
-0.24916284
-0.25397426
-0.32513958
-0.55651504
-0.52268225
-0.20684619
-0.4714115
0.19552782
-0.026917206
-0.00438431
-0.35386527
-0.3316819
-0.03931629
-0.11274211
-0.8217
0.019306863
-0.56674236
0.101933874
-0.12402373
0.10178712
-0.37062505
-0.5074915
-0.060934894
-0.31972867
-0.44639823
0.23206061
-0.39967766
-0.35993466
-0.04801179
-0.031119606
-0.268161
-0.29832596
-0.17253578
-0.1022476
-0.7399889
0.32561326
0.18589735
-0.44732848
0.1161789
-0.05308946
-0.029034281
-0.05961919
0.056370042
-0.17727113
-0.7494081
0.007408407
-0.12711754
-0.25095847
0.023145612
-0.008577109
0.13241825
-0.006389462
-0.035482798
-0.03761606
-0.82006323
0.17876703
0.22370636
-0.13056451
-0.074430645
-0.1325592
0.16040826
-0.06934322
0.14420421
-0.07441083
-0.73626727
0.17275143
-0.041156564
-0.18735452
0.18127877
0.09752509
0.23782283
-0.20698124
0.04952332
-0.039552927
-1.0744635
-0.0053669275
0.066058576
0.034446493
0.04860188
-0.20331465
0.16486923
-0.226256
0.15867765
-0.058278695
-1.3287735
0.10400792
0.1350905
0.20205602
-0.12016361
-0.19972704
0.35157022
-0.0133088585
0.30003768
-0.20938875
-1.441891
0.5141644
0.110042736
0.16045514
-0.048520606
0.20442855
0.3063004
-0.18206102
-0.77553385
-0.21958834
-2.0366151
-0.061478272
0.3614008
0.10220247
-0.004295219
0.24801338
0.48602694
-0.72628975
-1.797487
0.14805944
-1.6170981
-0.66100127
-0.2560452
0.083279416
0.37559092
0.8824588
0.48476195
-1.0076638
-0.75239146
0.040272612
-0.5284993
-0.06714182
0.75747335
0.2835956
1.8829421
1.4986366
0.16482313
-1.0195223
-0.41696328
-0.32911992
0.100398414
-0.44342548
1.03993
0.6937304
0.13937025
1.0368525
-0.6918377
-0.64439833
0.31171307
-0.45081756
0.11736892
-0.07349296
-0.28255886
-0.12545395
0.7380596
0.10197395
0.0041290196
-0.05818545
0.012994165
0.30068085
-0.10313277
0.9010957
0.23606345
0.028478444
1.4952452
-0.08502675
-0.3708662
-0.83449763
-0.44968998
0.41674164
-0.29711297
0.40676215
0.07793998
-0.08004818
0.09911839
-0.051654346
-0.96492743
-0.41963536
-0.36094886
0.09062807
-0.21269941
1.2663789
-0.30159673
-0.26293156
1.1808205
-0.73299026
-0.51716155
-0.3533012
0.013705478
-0.3817615
-1.2009381
0.15206476
0.14890017
-0.47499102
0.17481516
0.34501702
-0.51418674
-0.47355014
-0.16287029
0.1699367
-1.2476773
-0.2527634
-0.20629184
-1.0786372
0.0113199055
-0.12106316
0.19768791
0.32236332
0.34636992
0.26800156
-0.1878345
-0.068865746
-0.31314665
-0.9630333
0.17498642
-0.14510214
0.1332289
-0.09505624
-0.08263103
0.53509164
0.32634825
0.23562251
-0.22243132
0.37940004
0.032784484
-0.074884795
-0.0013016672
-0.029537296
-0.29632223
0.3386898
0.26203504
0.36801517
-0.0032620605
0.35063472
0.17991772
-0.2113489
0.112029344
-0.030926734
-0.12979639
-0.038181547
0.19831249
0.1160418
-0.072270766
0.10081893
0.2619588
-0.06427965
0.24824677
0.124891214
0.026991667
-0.38822606
0.27062446
0.030013047
-0.13101017
0.10247445
0.2471937
-0.10190497
-0.042456754
-0.0145424865
-0.09600692
-0.7008007
0.24926499
-0.0896294
-0.11710142
-0.047931734
0.19544329
-0.18137038
-0.0068485853
-0.22854486
0.09351617
-0.47538602
0.31886178
0.03254138
-0.03965601
0.09213864
0.28783938
-0.13553184
0.14369312
-0.17322399
0.113632366
-0.51221246
0.52912235
-0.045256652
-0.08874331
0.05340167
0.29953533
-0.032717027
0.11016207
-0.6398556
-0.30204085
-0.6364307
-0.04321474
-0.31745273
-0.022664614
0.2901383
-0.1292267
0.01798144
-0.029236596
-0.50714964
0.09145932
0.021272289
-0.23731813
0.46809378
-0.4004061
0.26312652
-0.03136349
0.51523256
-0.07946107
-0.50971705
0.0980828
-0.2907455
-0.028899718
0.32810417
-0.6892821
-0.21778929
0.1685901
0.12929945
0.02599176
-0.08583833
0.120710425
-0.17552291
0.028823635
0.032363754
-0.35575983
-0.5706067
0.052021842
0.03815116
0.1201331
-0.1383783
-0.03317162
-0.17680915
-0.13328426
0.14778228
-0.012312672
-0.30740055
0.09742376
-0.16984083
-0.04076249
-0.06809807
0.10993908
0.08647091
-0.11276358
0.22431111
-0.10019557
-0.28418067
0.26938915
-0.033777043
-0.029786147
2.521692e-05
0.14477614
-0.13427368
-0.1175536
0.09230592
-0.070542604
0.056533795
-0.23527603
-0.10726261
0.14525478
-0.0138122495
-0.09048158
-0.30587876
0.01915535
0.4481499
0.020019712
-0.21316019
-0.24197723
-0.11438376
-0.25304896
-0.03053606
-0.33076122
-0.14625274
0.08922497
0.32997015
-0.118782595
-0.099619575
-0.2205401
-0.42922765
0.022965599
-0.1900614
-0.042908587
-0.030027201
-8.9608606e-05
0.8063461
0.026294976
-0.2229874
-0.24144621
-1.0046971
0.10804961
-0.16810423
-1.3831396
0.19256012
-0.34747362
0.3628883
0.1807981
0.2411463
-0.8766333
-0.113373056
0.6989329
-0.55957806
-1.4576592
0.27988788
-1.3210691
-0.5319206
-0.41218117
0.36846438
-0.7559833
0.15692972
1.4047432
-0.7854803
-1.1648452
0.40471277
-0.5358744
-0.888721
0.09652289
0.11996821
0.9750579
1.3986306
1.3708385
-1.1598127
-0.124416664
0.61751366
-0.18462482
-0.6938234
0.89307874
0.9644937
-0.05344887
1.068609
-0.9316237
-0.9585776
-0.3379039
0.23564565
-0.21510248
-0.38987944
-0.55054253
0.51514465
-0.2649891
0.73785233
0.08266362
0.0020425357
0.05998061
0.07410479
0.00096972287
0.69193256
-0.16721964
-0.036931988
0.7938068
0.038633637
-0.0006826305
-0.19836475
-0.015749814
0.15653099
-0.27175426
0.9211611
0.01794186
0.6390372
1.1124284
-0.20517425
-0.5140509
-0.036354028
-0.59547466
0.3662208
-0.9052517
1.0580463
-0.29910174
-0.73549557
1.9996364
-1.001109
-0.7809693
-0.58734167
-0.052748088
-0.09574092
-1.2527354
0.38391936
-0.21141683
0.93907017
0.08915712
-0.04284986
-0.4229414
-0.2903018
-0.36923203
-0.27756372
-1.3456749
-0.12956621
0.0830826
-1.2214351
0.1073896
-0.23522538
0.108622625
0.0027786624
-0.15788315
-0.29748553
-0.24987088
0.26328415
-0.34121346
-0.3172355
-0.02579555
0.011332619
0.17976552
-0.24010563
0.1928176
-0.67071664
0.30805662
-0.13320944
-0.15898181
0.22651267
0.24175665
-0.37375048
0.080619656
0.042431347
0.18792948
-0.81853354
0.15989007
-0.09891357
-0.2188883
0.12081319
0.21550003
-0.062261205
-0.07335314
-0.04962171
-0.010656802
-1.1384614
0.14799422
-0.13703614
-0.07721706
-0.0018789809
0.21679632
-0.008190417
0.114866875
0.023939654
0.015298755
-0.76283944
0.06664467
-0.105496846
-0.14052787
0.04261324
0.06796145
0.049348418
0.24700889
-0.079618245
0.012521776
-0.47586462
0.11856146
-0.26320744
-0.07121019
0.08315371
-0.027611358
0.026022129
0.2008067
-0.055789433
0.19648802
-0.41058365
0.30221573
-0.034824643
0.008984555
0.11850632
0.2923527
0.16599049
0.15862949
-0.23200008
0.2781772
-0.36924705
0.5013571
-0.38722342
0.21393941
0.19700958
-0.07200746
0.09023955
0.5108865
-0.44867888
0.34828725
-0.13462058
0.30725652
-0.4514607
0.11905754
0.21462667
-0.12666705
0.22149158
0.43269178
-0.17788488
0.18257914
0.41288754
-0.40603015
0.3488664
-0.2961584
0.20528586
-0.33562872
0.55485386
0.20531596
-0.051490445
-0.001814066
-0.155458
0.068636194
0.13425536
-0.35962236
-0.05606275
-0.11038106
0.009375386
0.12376937
0.23155287
0.04619523
-0.10712336
0.072036155
0.2136332
-0.013925659
-0.24333744
0.05923744
0.10177637
0.17932743
-0.031804707
0.0037328016
-0.17528951
0.327203
0.16111608
-0.057679176
-0.2838412
-0.07936239
-0.09374584
-0.006897162
-0.048942182
-0.05711179
-0.042046864
0.14678633
0.2623965
-0.11945372
-0.038263395
-0.096801415
-0.005717666
0.058553737
0.25379816
-0.006854732
-0.03314371
-0.0004208089
0.4075397
0.015108021
-0.21628939
-0.13171262
-0.26888153
0.097305536
-0.049956538
-0.04866097
0.035231926
0.25707862
0.29935858
0.10442547
0.12294428
-0.14810558
0.11893783
0.030775191
0.2197187
-0.15939374
0.0061865915
0.111200586
0.14640921
-0.06754117
0.19626601
-0.36729947
-0.24193959
0.106742285
0.24841817
-0.224107
-0.34706676
-0.113539934
0.12610564
-0.06241939
0.022891957
-0.3350714
-0.99540555
0.24285251
-0.43650177
-0.8390266
0.18407373
-0.06604973
-0.09243615
0.16295269
0.6593543
-0.82928705
-1.0872991
-0.014947944
0.47377238
0.48623693
0.2898063
0.35486406
-0.15726869
-0.09055563
0.075245045
-1.212766
-1.0025645
0.45555812
0.12546737
-0.7550914
0.56892806
-0.5853526
-0.16587941
-0.42020577
-1.0554966
-1.1172428
-0.04518358
0.2531988
-1.1803008
-1.4315637
0.6904204
-0.90499353
-0.12659687
0.2985057
-0.6239632
-0.0915494
0.40635195
-0.8637226
-0.9467275
-0.6167418
0.09404315
-0.7360122
0.97122175
-0.48958638
-0.42262015
-0.24975406
0.49734905
-0.0034413263
-0.01050651
0.5847607
0.42194018
-0.0055784434
0.40933564
-0.009391956
0.45514095
-0.07991734
0.060318664
-0.03189726
-0.18960233
0.24191704
0.2844155
-0.12454409
-0.095874734
0.2532579
0.6194406
-0.33234158
-0.12035059
-0.41441408
-0.10005238
-0.41080245
0.8863311
-0.7889253
1.0879962
-0.075107984
-0.077736154
1.3500682
-0.4617393
-0.7832636
-0.44034958
-0.2955511
0.02296485
-1.1207659
0.03852861
0.1647636
0.92008936
-0.05373251
0.24331638
-0.1779264
-0.1496877
-0.79832816
-1.603009
-1.2023748
0.25342444
-0.43601
-0.76791924
0.4116228
0.22689863
0.06983826
-0.08236466
-0.23028158
-1.8909776
-0.09995938
0.027686482
0.003346598
-0.47616866
0.46473962
0.41141775
-0.09684147
0.05631939
0.06609842
-2.4404106
0.16695498
-0.13592786
-0.15306875
0.033331145
0.0340253
0.075563885
0.24120165
0.03440759
0.059099413
-1.389199
0.10401406
-0.042892065
-0.007995621
0.07348511
0.22102413
0.14131151
0.05184908
0.16003765
0.21609603
-0.72331893
0.08218709
-0.064289846
0.012726092
0.12151197
0.09104971
0.082429595
0.32536158
0.048618387
0.13835831
-0.17262806
0.17022073
-0.018341761
0.084646
0.33072728
0.06498858
-0.00021391625
0.13426103
0.20270197
0.2818698
-0.2563333
0.2577688
-0.30120867
-0.05933655
-0.011387775
-0.011872489
-0.0037719302
0.42913494
0.22748332
-0.02542936
-0.14965561
0.19532731
-0.26444256
-0.008166358
0.106716625
0.20880929
0.10104019
0.4519847
-0.17130972
-0.21023424
-0.15726544
0.29234272
-0.48265278
0.21502103
0.12259965
-0.053831525
0.11794661
0.51577884
0.0634169
0.3121122
0.3177155
0.1324308
0.04962334
-0.017382134
-0.03468721
-0.09004897
0.3240957
0.2881454
0.09827432
0.14772801
0.4246663
-0.03295511
0.55749923
-0.07536731
0.13132142
-0.047542714
0.27827913
0.16132438
0.2144778
0.25631395
0.01042021
0.14642136
0.25479946
-0.13174391
0.19404382
0.056211837
0.10970756
0.30864528
0.20208804
-0.044032004
-0.033037987
-0.010590768
0.17881387
-0.124112956
-0.15901105
0.21735102
0.13301307
0.27731943
0.22749175
0.09444536
-0.015860347
0.12817244
0.18580568
-0.17419207
-0.36382258
0.23302694
0.043317843
0.27269042
0.26115662
0.0034774947
0.004124861
0.11165215
0.51100165
0.11804307
0.027395949
0.10866273
0.14151308
0.19117409
0.24136887
-0.13485593
-0.03383551
0.13040712
0.1936825
-0.16964881
-0.12695225
-0.043456458
0.070075765
0.16566281
-0.026134606
-0.034871794
-0.001061211
-0.026925996
0.12481517
0.10030388
-0.21761422
0.41968235
-0.48232982
0.15158655
0.21525176
0.361369
-0.37776312
0.052209895
-0.21946009
-0.23836586
-0.19997706
0.28561506
-0.26484218
-0.09745025
-0.14271808
0.07523725
-0.45167375
0.05387615
-0.5288123
-0.29910403
0.35914642
0.20020305
-0.44685802
-0.31010672
-0.010547626
-0.37339255
-0.11280172
-0.013186397
-1.1881996
-0.4201742
0.6807433
-0.9182806
-0.78557366
-0.45870745
-0.06842487
-0.5437691
-0.44594336
-0.04572416
-0.61177665
-0.39327747
-0.5614656
-0.4498351
-1.3217437
-0.2503331
-0.21933822
-1.0894476
-0.11264936
-1.264304
-0.11138506
-0.2768657
-1.182625
-0.80995136
-0.67184556
-0.11070912
-0.3774877
-1.91765
1.2456568
-2.1123927
-0.14343251
0.9429976
-1.7642877
-0.6672925
-0.59424585
-0.062441178
0.4140795
-0.053367987
0.23014338
-0.66657275
0.009791647
0.039176036
-0.49767047
-0.3970571
-0.075193584
-0.45596272
-0.019558154
-0.050209273
0.0017462298
0.6293684
-0.17021778
0.5609794
0.6158619
-0.17793089
0.6967887
0.14916018
0.24909133
0.375187
-0.33623552
-0.00546165
-0.35660163
0.6712228
0.03787226
0.07957925
0.71747315
-0.3049583
-0.5129615
-0.40760094
0.4144719
0.17364998
0.7294247
-0.41957653
0.03420544
1.1530751
-0.019458339
-0.43048272
0.6777726
0.23120093
-0.3821802
-0.07619637
0.2518827
-0.31712478
0.010998167
0.3534822
-0.47537908
0.51572627
0.9146624
0.3033899
-1.6274425
-0.6795847
0.053210855
-0.18671583
-0.57966316
0.7180627
-0.16513006
0.11173747
0.031911664
0.11697419
-1.854075
0.3636574
-0.40758294
0.1433212
-0.028683491
0.5874609
-0.30622286
-0.044739958
0.28314123
0.11578987
-1.3005996
0.1768316
-0.18790027
-0.27017978
-0.31924736
-0.066108055
0.08214722
-0.07708447
0.17213513
0.029990325
-0.6455048
0.12914273
-0.09742437
-0.13429844
0.0070667802
0.19764625
0.13659069
0.09058218
0.2081719
0.015904954
-0.27995953
0.14853992
-0.18312275
-0.12899393
-0.18585779
-0.012396257
0.008867406
0.036231972
0.33679292
0.02712352
-0.037627377
-0.06873534
-0.42411345
-0.25317287
0.05062058
0.18462722
0.18959962
-0.06527839
0.22099705
0.033677388
-0.080397315
0.07205297
-0.47317523
0.08429868
0.19130015
0.12253362
0.06968551
0.35036874
0.48526463
-0.27465755
0.09044747
0.21221271
-0.2828667
-0.10394289
0.1227876
-0.16725826
-0.12442146
0.23573783
0.21141896
0.09993662
-0.0404451
0.16663995
-0.24129865
-0.17777069
-0.21397826
-0.1742728
0.18389036
0.1860908
0.06606503
0.3560721
0.3289223
0.15283106
0.20589602
-0.019191893
0.2952301
0.10362934
0.2214252
0.33596948
0.21238771
0.26062748
0.30152148
0.1257143
0.20467807
0.16078421
0.16906992
-0.042584285
0.200076
0.102083385
0.036943506
0.27283472
-0.068728365
0.05758405
0.29156864
-0.25651416
0.11182171
-0.011233873
0.09554071
0.31158173
0.23242845
0.067493156
0.030609326
0.14046697
0.13115764
-0.22539666
-0.26531276
0.097672276
-0.27497378
0.46259227
0.18125011
0.12876242
-0.0150799025
0.12399751
0.20817198
-0.11599765
-0.41230866
0.25232106
-0.103425875
-0.05229002
0.1465652
-0.09430699
-0.04201485
-0.0027583858
0.13612503
-0.22028147
-0.26891655
0.082070574
-0.11751905
0.030508002
0.08468966
0.09872228
-0.017928982
0.008501954
-0.13622305
-0.37602374
-0.34070733
0.15071423
-0.37711293
-0.1064347
-0.012676099
0.11542712
-0.2742695
-0.18773358
-0.26352704
-0.32133415
-0.119719625
0.19192304
-0.37479
-0.089895226
-0.093752086
-0.16966842
-0.19633444
-0.1524083
-0.45212007
0.0065956553
0.020621398
-0.21063142
-0.070968755
-0.31387275
-0.201234
-0.041954283
0.07014628
0.11720471
-0.5502876
-0.32441294
0.06984031
0.18159646
0.03017127
-0.7904197
0.20175892
-0.24430463
-0.2430962
0.10047541
-0.52925164
-0.20761275
0.12776457
-0.27790013
-0.12910154
-0.6070746
-0.27022797
0.09976435
-0.8127581
0.05627768
-0.59785455
-0.33191004
0.21043238
-0.54999006
-0.5994044
-0.66264945
0.40821683
-0.61548537
-0.07457242
-0.38616645
-0.20874436
-0.47661704
-1.0197718
-0.60185224
-0.6900327
-0.74872583
0.8078308
-1.1945423
2.51737
-2.0643718
0.00357149
0.8159514
-1.3234329
-0.6654913
-0.1484976
-0.26764774
0.85171205
-0.015875876
0.8932375
-0.7956182
-0.18611266
0.5931705
-0.7487028
-0.09966155
-0.106058724
-0.46783572
-0.08064482
-0.0123895705
0.049158268
0.5529367
0.09197019
0.5615302
-0.16035609
0.5368849
0.6145881
0.23568644
0.6573552
0.5944949
-0.27258995
0.100963734
-0.4646705
0.3235977
0.06716644
-0.37001705
0.50625306
0.6053771
-0.7670666
0.007261675
-0.22707137
0.72496825
0.018648105
-0.5754417
0.37294027
-0.6469779
0.821953
-0.22723988
0.83616835
-0.11262121
-0.023321165
0.13099344
0.4778832
-0.6355997
-0.26004818
0.21746181
-0.3265865
0.2862552
0.071978696
0.54260045
-0.633124
-0.24079233
-0.31491995
0.40439567
0.0931528
-0.33333585
-0.9383873
0.33487502
0.052757308
-0.18386595
0.22978137
-0.14142554
-0.24991451
0.14037156
-0.13165957
0.080725715
-0.8933757
-0.15630832
0.32667148
0.25503314
0.37651065
0.13311644
-0.046654705
0.00523191
-0.3545933
0.051915254
-0.5294039
0.07904907
0.17919064
0.14557064
0.0643695
0.11583122
-0.35024
0.12062872
0.22105461
-0.12715694
-0.47750646
-0.067308515
0.06284785
0.24658531
-0.029334497
0.08534366
-0.27959993
-0.0076137525
-0.02193712
-0.05342226
-0.030832082
0.08361783
0.15823095
-0.0012888818
-0.072485305
0.11407435
-0.4884941
-0.15883553
0.23358163
-0.070361115
0.0005683247
0.03970637
0.03426447
-0.29511315
-0.2328658
0.052429553
-0.22552408
-0.026986731
0.09874137
0.07502306
-0.0030603225
0.03240343
0.3474134
-0.058131225
-0.119300015
0.07605075
-0.0914968
-0.1511088
-0.03411073
0.11927725
0.06993211
0.18068364
0.24857345
0.30674565
0.112940356
0.308227
-0.034839064
-0.2044479
0.04528521
-0.009854251
0.3200623
0.308575
0.22855492
0.2496856
0.62859136
0.11413384
0.27942735
0.106262945
0.18741105
-0.29741466
0.2565534
0.17225164
0.10673265
0.46187255
0.3455927
0.061297588
0.19295554
-0.1044246
0.22396746
-0.20757514
0.0938576
0.24518561
0.15124604
0.12628198
0.016505051
0.019409113
0.14094718
-0.045966156
-9.2713264e-05
0.0344944
-0.003914345
0.2313972
0.35089576
0.10844226
-0.09384711
0.21317028
0.1688957
-0.10298995
-0.34491742
-0.048214864
-0.08261682
0.004708265
0.2156665
-0.091963634
-0.15942541
0.07075303
0.019847834
-0.29950553
-0.24825896
0.34491497
-0.16328119
-0.05393703
-0.14013694
-0.13642305
-0.09270164
-0.032204267
0.044992805
-0.15121518
0.039636098
0.14223811
-0.12340593
-0.12801622
0.1425955
0.04192613
-0.19008766
-0.025893385
-0.2384604
-0.21821827
-0.34782305
-0.011891839
0.046717104
-0.04337122
-0.2774032
-0.020455478
-0.31579497
-0.109505124
-0.22394313
-0.047098264
-0.049623717
0.10577976
-0.025007231
-0.2968894
-0.15406303
-0.16241172
0.025778638
0.0795805
-0.23274992
-0.018021075
0.17585534
-0.058578365
0.20160136
-0.1694796
-0.040711265
0.3349372
-0.24141999
-0.005549051
-0.24326177
-0.16579762
-0.16354808
0.34239432
-0.074007325
-0.20637521
-0.3407216
0.21721554
-0.40357518
0.16707534
-0.30273843
0.16597973
0.042048987
0.3959704
0.29400316
-0.38518602
-0.28019214
-0.60852027
0.12926725
0.00039639918
0.17649832
0.25935838
0.61490303
-1.0474807
-0.261568
-0.94758725
0.6740672
-0.7738673
0.51371455
0.09060413
0.0072344327
-0.49242473
-0.75877446
-1.0476921
-0.81135964
-0.34267554
1.9173796
-0.9839503
1.1655974
-0.9630342
-0.02130839
0.36592197
-1.5693135
-0.46430832
0.66202223
0.41876423
0.928453
0.41541317
1.7288605
0.3992289
0.14927766
1.3211094
-0.3778674
-0.13199328
0.01130193
0.055179276
0.0497574
0.017910786
-0.08660169
0.0389458
0.34867305
0.04261959
-0.83105606
0.69572204
0.04306353
-0.2809874
-0.006536253
0.9042081
0.13892521
-0.05107313
0.078223705
0.91193557
0.094505206
0.027006788
0.8124545
0.032379646
-0.44330922
0.16191196
-0.23149197
0.07667773
0.10202457
1.6767417
0.23165566
-0.8775354
0.27739233
-0.12546682
0.10584441
-0.48947483
0.45721188
-0.34567258
0.45181644
0.06837755
-0.118541576
-0.54257995
-0.051311735
-0.5678446
-0.4313899
-0.35541612
-0.07601285
-0.48757634
-0.055205904
0.20388182
-0.08692977
-0.3523247
-0.56946105
-0.18475877
0.19125114
-0.19710068
0.3005742
-0.52129436
-0.18838327
-0.18375987
-0.060632307
-0.13208745
-0.47111666
-0.20168439
0.25446436
0.06705001
0.41347754
-0.29467767
-0.21717505
-0.28852317
0.00085436663
-0.17049313
-1.1993853
0.108201705
0.15603593
0.31975824
0.20092377
0.16087274
-0.18903932
-0.16306676
-0.19626856
0.038915258
-1.4153476
0.0426991
0.0637505
-0.023466492
-0.17806149
0.066280685
-0.17630386
-0.09583378
0.0813109
0.13900484
-0.89400667
0.15061511
0.009954348
-0.07490847
0.0042456295
0.008874761
-0.11815038
0.06127044
0.036172923
-0.022641158
-0.1511429
-0.019975675
0.3095563
-0.2500777
0.19561055
0.050258566
0.022924278
0.07419769
0.0037450872
-0.18943943
0.3768628
0.15697202
0.5037824
0.047323518
0.112929754
0.20598684
-0.09041883
-0.12620722
0.069378
0.020949641
0.30025953
0.44764385
0.14206502
0.1702826
0.39746752
0.24198999
0.24247971
-0.0032943424
-0.051730666
0.04423117
0.3888848
0.2420674
0.19916557
0.2838343
0.41492906
0.04014539
0.004968313
-0.077542
0.1054293
0.06351001
0.09477258
0.037056085
0.14372686
0.4145714
0.44423133
0.088623844
0.13436593
-0.27083686
0.13197953
-0.29154935
0.08025096
0.34137812
0.34708986
-0.051165942
-0.018582806
0.24590433
0.07853469
-0.2107674
-0.16799088
0.20220426
-0.3873401
0.19280533
0.3322991
0.06142161
0.13161592
0.049549643
0.1141642
-0.12639545
-0.39148495
0.07384937
-0.112233095
0.09724535
0.33715433
0.078289464
-0.07451899
0.033353277
-0.06708254
-0.12190803
-0.35355523
0.22879577
-0.24293806
0.11507723
-0.044513308
0.06654556
-0.13999386
-0.16540301
-0.19526505
-0.18841156
-0.38457018
0.10718538
-0.0842858
-0.2642304
-0.01922199
0.10682891
-0.18110083
-0.091681756
-0.17411378
-0.063462056
-0.047906157
0.09930307
0.24280132
-0.2258776
-0.13431798
-0.13852572
-0.041278403
-0.21292958
-0.02953659
-0.27156928
-0.11367719
-0.034071095
-0.027124804
-0.30583093
0.13125479
0.33958322
0.076411605
-0.17926757
-0.093040355
-0.21270332
0.16800386
0.1654139
0.17292595
-0.23905253
-0.001923321
-0.17699206
-0.08090348
-0.042907774
0.079960965
-0.1252523
-0.033734918
0.023542887
0.21244141
0.1951682
-0.39876324
-0.08651652
0.42193663
-0.15628877
-0.11653986
0.23714982
0.17408767
-0.3977015
0.14984283
0.073652096
0.31691948
-0.29390335
0.41740966
-0.54071367
-0.037918612
0.056044422
-0.32915857
-0.8861909
0.30678904
-0.26623356
1.707449
-0.8799217
0.90730834
-0.51247966
-0.14044027
0.15485615
-1.89314
-1.3078439
-1.1389825
-0.9854834
0.847862
-0.5355762
0.9705423
-1.3214333
-0.018740982
-0.041341618
-1.17528
-1.1506
0.26254717
0.39432696
-0.14609833
-0.22294998
1.6802751
0.2803908
-0.92548275
1.1657658
-0.33980352
-0.66374844
0.060133737
0.034018643
-0.06118039
0.032559916
-0.038936518
-0.07837691
0.06848181
0.004334368
0.00606443
-0.048739254
0.0815709
-0.25653133
-0.31148705
0.7653593
0.0655514
-0.036775228
0.552331
1.0803645
0.15783833
0.5125538
1.079852
0.29475555
0.41387394
-0.6532555
-0.34837192
-0.37533653
-0.1770812
0.20078127
-0.17745131
-0.50664705
-0.25264704
-0.5931061
-0.104308724
-0.79465395
0.50884694
-0.455531
0.012068693
0.50320387
-0.6172125
-0.64705384
0.6829401
-0.63671756
-0.1434397
-0.31273967
0.14652373
-0.07489627
0.08904462
0.26774317
-0.11930885
0.1106889
0.21765777
-0.56781477
-0.20260806
0.11542529
0.18931234
-0.33633506
-0.23924531
-0.030415205
0.059149057
-0.17815718
-0.050259136
-0.35793513
-0.10013169
0.045541044
0.07689555
-0.45609495
-0.41617373
-0.22537811
0.113296345
0.11504815
-0.3040936
-0.028783565
0.10699849
-0.093716376
-0.02078471
-0.14001359
-0.14270145
-0.3200803
-0.11833327
-0.18674466
-0.96590215
-0.008352943
0.32173285
-0.24134839
-0.009782488
0.05922603
0.26078707
0.018350556
-0.02663489
0.110149145
-1.8108127
0.1411735
0.0009755993
-0.18400002
-0.015706182
0.12641546
0.19438696
-0.030186757
0.04892835
0.032935377
-2.5585344
-0.02939325
0.16088472
0.0811925
0.12110525
0.13042192
0.09062314
-0.12544137
0.43111473
0.18358777
-2.370965
0.29387406
0.411623
-0.06791194
0.07170943
0.26369008
0.044902574
0.0955104
0.21242577
-0.17275025
-1.3912203
0.30111048
-0.068636015
0.112751134
0.22912824
0.21768947
0.18621667
0.21976751
0.19557463
-0.13063186
-0.58573145
0.25534913
0.33299753
0.27600726
0.38392568
0.14078048
0.19624975
-0.06562883
-0.09208136
0.032529186
-0.37117556
0.12799832
0.25595525
0.33347347
0.2870768
0.03145872
0.14512381
-0.27325657
0.12397297
-0.14309908
-0.24185085
-0.004033819
0.28995314
0.20802419
0.07874364
0.11160306
0.06246149
-0.061347555
-0.21292858
0.3528023
-0.2059919
0.03671896
0.20462744
0.13151057
-0.11500164
-0.0012970658
-0.26501444
-0.009151548
-0.16422115
0.19911069
-0.07493145
-0.13359345
-0.052886505
-0.04845496
-0.12876423
-0.0143455835
-0.20616654
0.060135886
-0.13434818
0.037095923
-0.088446505
0.06657262
0.07764943
-0.012756112
-0.040293865
0.013714994
-0.38981634
-0.11901049
0.0054966914
0.08588956
-0.048322942
-0.12632021
-0.04877887
-0.13795975
0.27887014
-0.07969124
-0.30761304
0.101424776
-0.122353286
-0.06844727
0.19353527
-0.307985
0.007185292
0.08001574
0.061729707
0.15262818
-0.24563919
-0.14462037
0.17239046
0.18524992
-0.10402867
0.06979018
0.35950264
0.27633873
0.15661249
0.19855078
-0.10325314
0.20209594
0.17426988
0.11514529
0.1719943
-0.13412659
-0.10401241
0.06349116
-0.018152371
0.20507501
0.053321227
-0.21384972
0.11910639
-0.07612939
-0.022926496
0.19041401
-0.15328658
-0.3459888
-0.03737735
-0.0076947203
0.17139834
-0.17088327
0.23814502
-0.3852927
0.21837778
0.09615001
-0.6309766
-1.4905576
-0.2649246
0.34266716
0.25861418
-0.13193998
-0.09380714
-0.81655556
-0.4449072
-0.43639016
1.4598844
-0.6781362
0.6443673
-0.7580811
-0.2945602
0.12930669
-2.8037338
-0.01398324
-1.1881536
-0.89310426
0.07637831
-0.461285
0.9971082
-0.54752
0.12774447
-0.36773208
-0.30979738
-0.43793344
-0.715285
0.27632836
-0.60487103
-0.33512095
1.6102247
0.33418062
-0.19416603
0.92974025
-0.40276936
-0.632385
0.20764056
0.20798177
0.015544483
-0.7152813
0.032958608
0.20530339
0.8553977
-0.08914037
0.11898123
1.0005132
-0.64212596
0.052126214
-0.27554047
1.0500354
0.22352464
0.019316018
0.3985339
0.84610736
0.069073774
0.61011887
1.2557865
0.46393645
-0.7143458
-1.0239116
-0.681473
-0.59668016
0.27669105
-0.5202507
-0.3795436
-0.036740374
0.22651061
-0.3701249
0.24763654
-0.1348839
0.5504409
-0.47397256
0.2439623
-0.24406545
-0.94467074
-0.4013994
1.2061654
-0.6004289
0.063236035
-0.27951384
0.189603
0.0888846
-0.31228554
-0.06698129
-0.33710212
-0.086954266
0.13712268
-0.25696325
0.0825021
0.1758606
0.23333101
0.10628563
-0.13096702
0.41985413
-0.2236602
-0.027549973
0.21211475
-0.08645785
0.20099324
-0.3688573
0.084184244
0.0489499
-0.108620346
-0.049651813
0.234609
0.17817353
0.4024272
-0.27975827
0.09969467
-0.18773176
0.15883727
0.02594556
-0.13500522
-0.1608441
0.12687612
-0.15836598
0.38018727
-0.62922704
0.13831824
-0.09922182
-0.046310995
-0.0020643855
-0.17786561
-0.09534876
0.07900078
-0.1295899
0.12656893
-0.2260481
0.13518848
0.0912895
0.15681681
0.2802985
0.06917019
-0.30936697
0.21615747
-0.04134459
-0.76296103
-0.28004774
0.17042556
-0.04109016
0.16206618
0.051733196
-0.046877988
-0.19404767
0.16210252
-0.19276232
-1.2652436
-0.008081297
-0.049117424
0.076036215
0.13165388
-0.009697261
0.08012567
-0.23911479
0.19301642
-0.02674896
-1.5935212
-0.058939062
0.29440793
0.19035837
0.31751764
0.21451497
-0.24569331
-0.3510476
0.06639615
-0.20418064
-1.1286098
-0.010274858
0.17199491
0.33234912
0.29878265
-0.14269443
0.25826207
-0.47961554
-0.046373654
0.108120345
-0.44036973
-0.27455336
0.28097853
0.056987755
0.15730903
-0.11150494
0.19095305
-0.5054639
-0.12460026
0.1804463
-0.2113324
-0.20701467
0.100448065
-0.14248048
0.12734546
-0.15976794
-0.19968952
-0.035361893
-0.05180246
-0.08168395
0.012668838
-0.061604798
0.25187713
-0.14134125
0.1564649
0.0010171485
-0.14619625
0.06805515
-0.18375704
-0.0407962
0.12527202
-0.20554464
0.08050058
-0.03198206
0.22267336
0.053192314
-0.13588625
0.09486944
-0.09281465
-0.14200692
0.084657945
-0.20168804
0.03774135
-0.18797913
0.05013152
-0.02101638
-0.043271214
0.07468789
0.06998067
-0.06704489
0.061604075
-0.14395541
0.09662218
-0.3076876
0.053249933
-0.124882706
-0.14709942
0.1502828
-0.09789413
-0.23407757
0.20295796
0.07251773
0.05545077
-0.15149407
0.06276824
-0.03333216
-0.027612776
0.010788997
0.0065435525
0.16041479
0.09912971
0.06649544
0.08803352
-0.22651081
0.009669199
-0.34597895
-0.08494191
0.1301179
-0.24828938
-0.22667243
0.31099728
0.18499738
-0.084955305
-0.3122354
0.050140876
-0.19372821
0.05478849
0.20002912
0.082612924
-0.7357723
0.05454193
-0.29780775
0.45201138
-0.8593242
-0.06420444
-0.14155214
-0.21846169
-0.17574567
-0.122095816
-1.0402774
-0.32048365
-0.5967611
0.43998462
-1.7101942
0.21169129
-0.15162647
-0.2899449
0.5814827
-0.85228074
-0.84935814
-0.4967425
-0.97855896
1.7602658
-0.8857218
1.4803746
-0.5519078
0.17147861
0.765544
-2.1622484
0.068944454
-0.9161247
-0.35801214
0.45859444
0.02076749
1.3094064
-0.48470137
0.04893103
0.13811855
-0.32122806
0.56213117
-0.8173662
-0.43451265
0.37565795
0.76254326
1.2250568
0.37863734
0.7556555
0.11695719
0.61386806
0.45363426
0.40226865
-0.03876514
-0.024792198
0.73389935
0.23738146
0.035683915
0.40040112
-0.06067736
0.24698403
-0.055852357
0.20128076
-0.6040328
-0.62098634
-0.036496412
0.08233206
-0.28497082
0.62078494
0.6627208
0.7525771
1.2004142
-0.48654836
0.33352053
-0.76053864
-0.96410453
-0.3488249
-0.5632694
-0.4567728
0.10476716
0.13559237
-0.08850104
0.101022445
0.16354825
-0.011461426
0.36752722
-0.337047
-0.4162649
0.15779027
-0.53313863
-0.3235267
0.035363674
0.8043077
0.24514219
-0.009454889
-0.7720963
0.08892216
0.13389477
-0.18359762
0.062956735
-0.09410187
-0.41294414
0.26632103
0.21291617
0.2174409
-1.3938378
-0.13570277
0.2850214
-0.13151449
0.34789887
-0.20664564
-0.21185066
0.23082349
-0.16689597
-0.120021015
-0.7946525
-0.064864285
0.13743034
-0.0047397516
0.39304695
-0.033645656
-0.090783805
0.3475163
-0.25409862
0.11958363
-0.39720657
0.16878991
-0.19097826
0.17061752
0.30918837
0.094632976
0.057469912
0.39314368
-0.40694535
-0.18701173
-0.2334875
-0.031018937
0.14240444
-0.19361283
0.028769558
0.29088902
-0.21678321
0.5310423
-0.5404075
-0.1114097
0.08373533
0.33104488
-0.14033929
-0.021618016
0.015357357
0.3447
-0.4393956
0.46993974
-0.7538008
-0.0017978083
0.04005
0.36726242
0.19432296
-0.2686833
-0.16349997
0.33353558
-0.45745665
0.62144196
-0.94176483
0.3032731
-0.084252626
0.052793402
0.16474868
-0.35688493
-0.27430674
0.38020322
-0.23933256
-0.06704248
-0.96236646
-0.1250707
-0.31107563
-0.020411441
0.090895675
-0.23658428
-0.22065881
0.19092546
-0.31441766
-0.29898006
-0.6783096
0.19672537
0.13736437
0.23097508
0.09182385
-0.03146689
-0.028348777
0.037594616
-0.06932014
-0.071731746
-0.37006494
0.21839373
0.045478042
0.29254368
0.08231235
-0.19612578
-0.20313466
-0.015954155
-0.09522064
-0.14126778
-0.19557363
0.28826314
-0.058578186
0.23764877
0.12384538
-0.066262454
0.049837474
0.072077945
-0.08538728
-0.059115738
0.012761746
0.15618199
-0.013058055
0.16676438
0.019055838
0.0066011157
-0.27061445
0.17870723
-0.40883633
-0.07812379
0.12263674
0.12997033
-0.21070227
0.3830008
-0.02700736
-0.04554961
0.13506462
-0.14296015
-0.14867227
-0.008368205
0.12636548
0.32734582
-0.12993176
0.18085238
-0.036063742
-0.07851146
0.3550935
0.046157118
-0.27758208
0.034660168
-0.07996442
0.08227715
0.0027914639
0.11705378
0.0252537
-0.034688547
-0.022058025
-0.08638028
-0.14101733
-0.11335043
0.11398621
0.0088477945
-0.18339236
0.19566733
-0.020590222
-0.1233801
0.13832296
-0.017852046
-0.11634142
0.12324272
0.08725635
0.34421238
0.024292197
-0.0040841247
-0.11422436
-0.14917833
-0.12562902
-0.07600616
-0.50082886
0.22199078
-0.0807821
0.05359843
-0.72740906
0.2973072
0.010207948
0.12097701
0.2771615
0.15516138
-0.9426358
0.073800705
0.056553394
0.38969576
-1.0388477
0.11472299
0.19373694
0.3043656
0.5582887
0.26286542
-0.83234483
0.055084564
-0.26644954
0.41971833
-1.2340672
0.4030867
0.21045066
0.043595478
1.3843411
-1.3345625
-0.5404237
-0.40916267
-0.9068708
0.873991
0.22991513
1.690795
-0.88369596
0.2794838
0.24811886
-1.0902802
0.16197813
-0.20315248
-0.4318626
0.84345466
0.42619184
2.8809006
-0.38928366
-0.22763143
-0.20753714
0.14721496
0.10487537
-0.3109618
-0.52360505
0.092606775
1.0139003
0.90950423
-0.014617549
0.6267187
-0.20827822
0.6107862
0.067822844
0.3089046
0.07791256
0.003404811
0.028208159
0.005988948
-0.0632495
0.08456
-0.07023672
-0.08258998
0.010628983
0.017543614
0.52442336
-0.5924636
-0.06134997
0.071636796
-0.0027482882
0.2332638
1.1907912
0.6649209
0.7239015
1.2594037
1.1398318
-0.4043916
-0.37087753
-0.2030084
0.29505157
-0.5559046
0.52266794
0.44476914
0.31883258
-0.3741713
0.030027509
-0.18376867
-0.8979381
0.33048064
0.019303186
0.32591385
0.60223275
-0.29986224
-0.1066396
0.07383581
0.42723143
-0.044892132
-0.41786873
0.5380449
-0.6548578
0.3857342
0.7854166
-0.13100134
-0.688154
0.46267387
0.26514995
0.1720208
-1.2803704
-0.06339533
-0.056352895
-0.4015447
1.1295507
0.0341004
-0.16330631
-0.15644716
-0.048383813
-0.16390155
-0.40821537
0.3421301
0.10680741
-0.060783923
0.93947834
-0.11453871
-0.37844595
0.18024066
0.09841813
0.1540791
0.2541414
0.27697006
-0.13483071
0.0069091963
0.5884691
0.042462673
-0.2965973
-0.28372186
-0.00075384136
-0.050514147
0.08638722
0.26663867
-0.13610452
-0.062303297
0.321099
0.10689892
-0.36629885
0.21786237
-0.112111576
-0.07466985
-0.23183845
0.22328794
-0.15658043
-0.07498767
0.12178113
-0.06255986
-0.17253625
0.17057326
-0.12456049
-0.18670747
-0.2096571
0.22793794
-0.049003825
-0.11201294
0.109141655
0.3053531
-0.3619846
0.27164656
-0.33634028
0.04413142
-0.041482322
0.4277583
-0.14273769
-0.12432921
-0.16850398
0.28872603
-0.22170216
0.27508196
-0.2213908
-0.11341293
-0.121411376
0.05225289
0.07285006
-0.18073946
0.015952086
0.38057005
-0.061276797
0.04653421
-0.20810924
-0.11927465
-0.22450218
0.09313814
0.12813865
-0.2517958
0.041681543
0.08933947
-0.044567686
-0.024572065
-0.20218554
0.09672933
0.12161321
0.028509736
-0.16972646
-0.18500218
-0.20463118
0.02907947
0.006383191
-0.09920313
-0.053268682
0.3638149
0.06485378
0.09662754
0.2709521
-0.3228642
0.20635605
0.16576613
-0.21463893
-0.15930457
-0.108092785
0.33393866
0.17471704
0.16007717
-0.11471217
-0.16609325
-0.021707015
-0.050702322
-0.1414175
-0.017764224
-8.780433e-05
0.2551087
0.03517008
0.123113714
0.04005596
-0.17647444
-0.0057226312
0.010766829
-0.023770053
-0.037463956
0.13612
0.40056473
0.205419
0.29865444
0.029639237
-0.2155869
-0.0756352
-0.011706438
-0.118666664
0.1936473
0.2359679
0.3407123
0.04166999
0.014572887
-0.024986247
-0.037040185
0.042019527
-0.10735393
-0.25674373
-0.027785175
0.05280569
0.11192398
-0.14470863
0.33337614
-0.1941243
0.031055517
0.028391177
-0.07781924
-0.409283
0.04321413
-0.001122633
0.063791774
0.3011192
0.23089212
-0.06836573
-0.17653213
0.046905674
-0.09733041
-0.39143705
-0.06409038
-0.11531425
-0.22164196
-0.11745265
0.43080357
0.023609435
0.0031473392
0.03622168
0.21507016
-0.42385855
0.18718186
0.29660454
0.19481212
-0.25216097
0.49334612
0.48700908
0.105835915
0.13888091
-0.87330806
-0.5617141
0.106969856
-0.9696097
0.7298531
-0.9799067
0.5495821
-0.39907262
-0.041869674
0.10175928
-1.8578188
-0.25476387
-0.5651246
-0.91182697
0.26761562
-0.3525374
1.1900399
-0.3632201
-0.35226825
-0.012255649
-0.8592055
0.63405323
-0.7128894
-0.8115886
0.5070025
-0.21409778
1.9954582
-0.34391934
-0.08009375
-0.3208687
0.39722285
-0.003926511
0.31327128
-0.35634723
-0.08125998
0.10722766
0.40192744
0.39511153
0.42642322
0.15030406
0.27554286
0.13030522
0.2698969
-0.04476359
0.014572158
0.54501647
0.3146393
0.04845097
0.40149614
-0.0060273334
0.2932083
-0.06539449
0.12513416
0.55931294
0.5289376
0.33806366
0.44533345
-0.01709364
0.6151834
1.19968
0.18562046
-0.5187572
1.5477854
0.65626836
-0.60400397
0.4463827
0.48450035
0.44167113
0.023671975
2.8146272
0.20197456
-0.77178043
-0.34916097
-0.1843931
-0.15985218
-0.19042246
0.33140823
0.13355991
0.01614468
1.7713097
0.03985657
-0.88722336
-0.30706406
0.3366252
0.07477551
-0.42095456
0.17968649
-0.09084774
-0.17429335
1.2691445
-0.54728466
0.40253803
0.19563743
0.03429205
0.20751637
-0.1709123
-0.15733789
-0.08387729
-0.17058483
-0.36641854
-0.13570222
-0.18163571
0.11178577
0.041095987
-0.28518647
0.061942805
0.18024069
-0.20206755
0.018844526
0.3891346
-0.08648186
-0.62183416
0.36836505
0.23790857
0.0045125247
0.021505421
0.23791769
0.1720154
-0.12645307
0.15353467
-0.026038418
-0.15521865
0.069600485
0.00442144
-0.023197645
-0.037064802
0.035185307
0.0021625771
0.003312752
0.053599324
-0.027868336
-0.13066855
0.16924666
0.07243431
-0.15282142
-0.09513011
0.2377623
0.14441948
-0.095985346
0.29494554
0.32473925
-0.18827885
0.026138496
0.053451322
-0.15548563
0.1512297
-0.072163016
0.005504956
-0.07410872
0.10363689
0.12505673
-0.14445625
0.023963235
-0.05801377
0.015971668
-0.013480726
0.046549384
0.14394
-0.18057676
-0.00087297894
0.26001382
-0.26528308
0.11678647
-0.14463417
0.05017429
0.12739445
-0.090502545
0.24630539
-0.07349743
-0.1049367
0.2288671
-0.13475236
0.035505038
-0.06496476
0.0036386847
-0.052801505
0.16136357
0.22990358
-0.0737816
-0.046233132
0.15017255
-0.2911118
0.029445153
-0.18883482
-0.019898504
0.005601555
0.0029443325
0.06790353
-0.12510857
-0.045066632
0.15709575
-0.2124805
0.034495816
-0.13532443
-0.03873096
0.07399346
0.028132284
-0.008305709
-0.29765645
-0.21719255
-0.037401292
-0.16855973
-0.006440902
-0.16085602
0.17025186
-0.21137199
0.017432172
0.01378747
-0.22429802
-0.02845775
-0.09564614
-0.19762921
-0.119811505
-0.014048762
0.2719509
-0.007943802
0.2671265
0.18967357
-0.31504786
-0.050025385
0.12679303
-0.2793538
-0.06459586
-0.041739352
0.1058278
-0.0477532
0.2931502
-0.025540754
-0.11734284
-0.17157152
-0.08612682
-0.3030055
0.04337023
-0.07671089
0.17719612
-0.10283013
0.20659623
-0.1430084
0.034622036
-0.022623155
-0.24540657
-0.21121207
-0.13955137
-0.025446324
0.37422442
-0.060422637
-0.03148356
0.0832016
0.18360722
-0.13823262
-0.01672982
-0.21612784
0.11582226
0.092823185
0.25680327
0.015494381
-0.038594883
-0.0147398785
0.1034651
-0.043065242
0.11031256
-0.4159791
-0.035904948
0.13521574
0.33871678
0.15558755
0.46268782
0.2287898
-0.23335196
0.1129501
0.17302662
0.14407972
-0.028385784
0.17327584
0.6443508
0.029548956
0.36099568
0.21863574
-0.40806243
0.32390612
-1.3495848
-0.20097147
0.08386328
-0.7898079
0.5808673
-0.20049633
0.6839306
0.13418382
0.123254344
-0.49050435
-0.48226106
0.47777584
-0.70647097
-0.29042837
0.19920366
0.073400445
0.4910241
-0.05020419
0.4409781
0.29139027
0.35484344
0.5869291
-0.447616
-0.8350032
-0.10601733
0.21218356
1.208949
0.2000825
-0.8165851
0.12838098
1.0660783
-1.2668844
0.21627073
-0.0010745972
0.06166237
0.03130202
-0.09627126
0.07521718
-0.011506893
0.6214526
0.7345563
0.08157387
0.032448642
0.055256642
-0.06134052
0.4992166
0.31000715
0.037302002
0.4088846
-0.07240214
0.1504597
-0.065064356
0.2491218
0.20076421
0.056805126
0.35455725
0.09004021
0.08683454
0.336829
0.6656357
0.26908606
0.05682247
0.6621764
-0.09645006
0.38653842
0.45061892
0.68837065
0.18711147
0.027070232
2.393131
0.21278667
-0.56839997
-0.12302522
0.20505333
0.38233057
-0.32420555
0.22370397
-0.27619094
0.20299825
2.0681973
0.3297294
-0.6104819
-0.10887022
0.5750379
0.4979601
-0.3339169
0.6555898
0.46717247
0.017053274
0.03150426
-0.5012754
-0.104635105
0.19776343
-0.25615188
-0.028673425
0.12710983
0.5741864
-0.52132946
0.56788355
-0.29018775
0.22830501
-0.19213614
0.13649629
-0.048656415
-0.13487357
-0.3100856
0.42150614
-0.38431144
-0.06732102
0.23028171
-0.05342808
-0.48076242
0.21198498
-0.08787722
-0.0047621205
-0.147226
0.38838813
0.06414708
0.09071181
0.55010265
0.18812335
-0.27236867
-0.17962031
-0.11152828
-0.058470022
-0.1772067
0.13489471
0.075216405
-0.015477055
0.40114433
-0.018368883
0.21197565
-0.21585588
-0.11817365
-0.15037547
-0.1480851
0.1645804
-0.031787954
-0.1472096
0.23725303
0.06447348
-0.042070244
0.08053241
0.024099855
-0.06694707
-0.13129051
0.08322509
0.058466326
-0.05743031
0.17526922
-0.005406144
0.034404896
0.23881191
0.13699774
-0.24901024
-0.1683312
0.10205157
0.0074765612
-0.10797066
0.08626483
0.079980314
-0.025298549
0.08219085
-0.029378239
-0.16548079
-0.2853764
-0.09182026
0.11168751
-0.21024366
0.116867915
0.061823193
-0.16335952
0.042649426
0.12873489
-0.089031644
-0.054848224
0.03516978
0.049262978
-0.18142262
0.119628206
0.27844366
-0.21681497
-0.014506244
-0.11086409
-0.4134983
-0.059150644
0.069910884
0.08143096
0.1551276
0.0797152
0.20126073
-0.010633739
0.024085466
-0.20735593
-0.5070372
-0.023015456
-0.031996895
0.018253366
0.016560903
-0.007619273
0.08582687
-0.23185945
0.01871387
-0.28467718
-0.33344725
-0.052768543
-0.09589979
0.12436604
-0.14625879
0.08113513
-0.027128043
-0.048356704
-0.071544945
-0.1826508
-0.36726454
0.09740946
0.003656111
-0.09579072
-0.13669519
0.022870572
-0.07861734
-0.2878571
-0.04754732
0.086724974
-0.36188892
0.015206572
-0.036851685
0.04944121
-0.38324708
0.06266455
0.09060565
-0.25029916
-0.09018065
0.023259543
0.14577873
0.028513648
0.22510214
0.09063579
-0.23573478
0.14997678
0.06001776
-0.06869289
0.17218329
-0.06662483
0.14410354
0.19384326
0.44739887
0.139845
-0.3292792
0.049213044
-0.2422428
-0.01959094
0.29154554
-0.02178702
0.16106099
-0.06625121
0.0029287
0.0050238213
0.016591277
-0.28434443
0.021602191
-0.07787314
-0.14162219
-0.24741423
0.4120811
-0.34451833
0.032079928
-0.06866667
-0.39928946
0.08148327
-0.41399756
0.27561018
0.15454565
-0.24546595
-0.37462348
-0.21932228
0.19089483
0.17745523
-0.36661938
0.32454214
-0.8358095
-0.09875214
0.3361631
-0.51566124
0.29368323
0.03565085
0.44088027
-0.40840268
0.12604286
0.64549744
-0.12565102
-0.014399588
-0.63233536
0.20197794
-0.6315385
0.57839483
-0.28900096
-0.077301554
0.47134787
0.43880823
1.0721235
-0.2542312
-0.38958874
-0.11380195
-0.7583897
0.99740344
-0.37465882
0.5597027
-0.3643063
-0.32605034
0.5144904
-1.172185
0.48818958
0.020149477
0.025327668
0.061861955
-0.030650597
0.03997325
0.024289817
0.60623306
0.71722126
0.061524637
-0.06331871
-0.080249526
-0.04878309
-0.06854185
-0.004989937
0.05921281
0.017510556
-0.014795184
-0.032000452
0.04040184
-0.030501064
0.04767769
-0.06261632
-0.056973875
-0.0052139834
0.05483801
-0.08643771
-0.048542526
-0.06832579
0.07154701
0.055477746
0.17282665
-0.046549566
0.07250011
0.61052775
0.6082199
-0.13352285
2.9390016
0.3117604
-0.9170971
3.3617384
1.127312
0.37564266
-0.7252844
-0.03133522
0.10643452
-0.40600964
4.34707
0.010282593
-0.67854863
1.7668779
0.15875043
0.13450943
-0.1669191
0.1863341
0.104078695
-0.22540693
0.2502802
-0.5133044
-1.2576528
0.9526601
-0.3730416
-0.058639243
-0.01611059
-0.007270702
0.20400748
-0.3795775
-0.43820834
0.008266423
-0.066792615
0.41170672
-0.07224789
-0.3015438
-0.15690288
0.13545345
-0.1928095
-0.21316418
-0.20641226
-0.011695173
0.13833866
-0.15891467
-0.27655363
0.10755595
-0.096441366
0.04725615
-0.21469834
-0.13069044
0.28946576
-0.086370625
-0.083351925
-0.25074276
0.23801008
0.08506652
0.23056813
0.15421706
0.04215259
0.12655899
0.14305505
0.34568056
-0.05510489
-0.0140054915
-0.07256799
-0.21929166
0.016664632
0.00590886
-0.14559555
-0.19377504
0.051764403
0.034980185
-0.3164019
0.40849778
0.0741444
-0.39998597
-0.051907923
0.093300365
0.19528338
-0.17674273
0.4206864
0.17061648
0.17559567
0.41511828
0.10563157
-0.17991741
0.14069813
0.0036072847
-0.047931597
-0.0696469
0.7175384
0.19018324
0.04388224
0.14132927
0.12897573
-0.5504368
0.13480265
0.076603875
-0.013351413
0.007703159
0.18890369
0.23324116
-0.07586379
0.18428186
0.17916101
-0.57593966
0.20825684
0.35711384
0.07241613
0.07654963
0.38704148
0.33518508
-0.20598635
0.058634415
0.11391145
-0.26303747
-0.007708913
0.13190791
0.09799424
-0.056231838
0.24256541
0.34699994
0.029277727
-0.027284792
-0.004318949
-0.4957182
0.17249866
0.26677945
0.02306962
-0.10594156
0.003928685
0.3692057
-0.17266497
0.03016793
-0.06989768
-0.6324345
0.41547137
0.37735492
0.18454874
0.06923931
0.205548
0.37349027
0.0836059
0.018203856
-0.29385012
-0.55948365
0.3413539
-0.115636826
0.025063174
0.13283697
0.26646096
0.3693021
0.026121484
-0.19894034
0.09307617
-0.42182317
0.1978031
0.25904173
0.18953247
0.0018048481
-0.10756787
-0.050246146
-0.10459431
0.14928468
-0.21867132
-0.41801977
0.26361933
0.21262363
0.03140263
-0.4276195
-0.0585714
-0.17840135
-0.33857855
-0.17562954
0.10257249
-0.3558979
0.19613464
0.33983013
0.16718511
-0.7036185
-0.097979315
-0.07107411
0.2808431
0.07118999
-0.17282104
-0.22697644
0.2211232
0.17658782
-0.12363051
0.011483224
-0.0071677323
-0.9983357
-0.004440624
-0.44508493
-0.25904614
0.31710497
-0.08077842
0.4021905
0.11914172
0.0819799
0.20664267
-1.4115324
0.049484532
-0.5359715
0.76788974
-0.4096522
-0.32965764
0.7339059
0.11913727
0.003914764
0.55760056
0.27739877
0.016750451
-0.406577
-0.075087495
0.0713051
-0.2728219
0.31081745
-0.36514536
0.53983736
-0.051332913
0.1409257
-0.14954087
0.010351957
-0.1151449
-0.42710453
0.55901295
-0.82626545
0.23847549
-0.4321625
0.6153339
0.33151248
-0.43942526
0.49701917
-0.8409446
-0.30411285
1.2887095
0.25834993
0.34891
0.42432606
-0.72526103
-0.93760604
-0.6541118
0.696107
-0.008284755
-0.056145728
0.049536936
0.033896133
0.08662585
-0.0054358244
-0.076550126
-0.046569273
-0.078213885
0.040562995
-0.08198233
-0.034803744
0.035650365
0.0026810765
-0.06652933
0.07135733
0.0717252
0.03033033
0.013909496
0.066337205
-0.056767844
0.062418766
-0.084388725
-0.0800612
0.08073465
0.05317653
0.016979821
0.038689755
-0.041844994
0.07195143
0.75042343
-0.087360196
-0.03580173
0.68899614
-0.081069656
0.61639845
0.072792456
0.06664422
-0.3617273
-0.24897061
0.44251382
-0.5871909
-0.46209463
-1.1297911
0.08960079
-0.4258008
1.4183941
0.061020482
-0.5114708
0.89440656
0.48595184
-0.12532729
-1.2952424
-0.9173896
-0.37083754
0.45609626
0.49889496
-0.8786765
-0.48241368
0.39703935
-0.36539114
-0.15827543
-0.65262014
-0.6971603
0.1135125
0.6832273
-0.52916765
-0.56327266
0.00090672506
0.40436894
-0.009679137
-0.7573375
-0.058083497
-0.1379442
-0.10397117
-0.10747886
-0.20304337
-0.18401049
-0.46962878
0.33292678
0.16769047
-0.23662181
-0.39404118
-0.42827186
-0.2993234
-0.19801229
-0.38961628
-0.5016443
-0.3972776
0.17655899
0.20146069
-0.16013171
-0.41257975
0.19393162
-0.062791236
0.030363388
-0.19399767
-0.22222334
-0.050247576
0.20906846
-0.14812317
-0.18780227
-0.080240704
0.15249038
0.10033738
-0.24825265
-0.09889187
0.011266226
-0.20090285
0.15270177
0.05150608
-0.1860844
-0.11198835
-0.016200822
-0.12129204
-0.03622654
-0.18955623
-0.09966715
-0.24739604
0.098351255
0.22361284
0.102781154
0.0023241234
0.28981352
0.18894958
0.024271099
0.18580757
-0.113413975
-0.3019219
0.0093387915
-0.0989066
-0.110331155
-0.10068751
0.3375778
0.041092373
-0.14456154
0.19132236
-0.04052454
-0.30789566
0.04005091
0.075547725
-0.015605703
-0.15150054
0.06111529
0.12765014
-0.10398112
0.27564314
-0.111248605
-0.21331751
0.08546644
-0.0002057753
0.085642464
0.037437543
0.11185949
0.016086208
-0.26319826
0.31524283
0.013783722
-0.26320082
-0.014278946
-0.033270497
-0.05535604
-0.03779629
0.16356471
0.09026223
0.22449343
0.24036317
0.12073767
-0.25633693
-0.056405514
0.13160524
0.2370136
-0.03334551
0.0863489
0.3240414
-0.11125745
0.25745592
0.07683646
-0.3315678
0.051722527
-0.10497857
0.19701608
-0.3089761
0.0078434255
-0.19756395
-0.16156195
-0.017839208
-0.03698726
-0.17766817
0.08395987
0.18359928
0.042228587
0.011522744
-0.12802753
0.18287185
-0.29479685
0.42157152
0.39439
-0.41862983
-0.36788198
0.39729613
0.16300339
0.1107617
0.09930429
0.18312918
0.20566127
0.18272784
0.063166626
-0.33149987
-0.66584986
0.44408882
0.07584405
-0.27089643
0.03692355
0.27703336
0.056166757
0.2501757
-0.08416374
-0.10240945
-0.09785051
0.083295904
0.1363567
0.077104755
0.13547617
0.083684996
0.21129368
0.23973888
-0.8478787
-0.34798434
-0.07952374
-0.19550939
0.3605168
0.06358204
-0.27762118
0.6513688
0.06069772
0.0005985802
-0.599116
-0.4607905
-4.658639e-07
0.9247651
0.30909926
0.021973813
-0.103547
0.5791393
0.3606168
0.36115083
-0.3512489
-0.23628539
0.15229447
-0.8834772
0.24933915
-0.49417433
1.2236464
-0.107593864
0.28684062
1.3136797
-0.3816439
-0.28567895
0.04353013
-0.5898907
1.217776
0.5642671
0.027031684
-0.34010184
-0.7878465
0.006400541
-0.20185697
-0.32898098
-0.316242
-0.7063961
0.5915678
0.41414428
0.89952105
-0.42483515
0.49451032
0.12925363
-0.51810116
-0.22735295
-0.3648232
0.006953597
-0.022366509
0.07059123
0.014598474
0.037773483
0.08015146
-0.08542204
-0.07003224
-0.06373846
-0.027069729
-0.03247824
0.051758386
-0.07100516
-0.07537378
0.011949174
0.002360329
0.057712846
0.08535574
0.017687015
0.045093693
-0.014035322
0.036119506
0.031960785
-0.03698521
0.082297154
0.039333977
-0.0017512888
0.0008124411
0.021172695
-0.035147663
0.6544496
0.5310135
-0.0008854568
0.15266427
0.5613089
0.12810372
0.113661036
-0.11650102
-0.12912053
0.71958196
-0.45045838
-0.14880879
-0.040826973
-0.732163
0.5972441
-0.13955766
-0.9198285
-0.06960002
0.8689249
-0.2033955
-0.17996939
0.4386484
-1.3480314
-0.4601198
0.21195947
-0.43547985
-0.6509726
-0.6442545
0.0010936985
0.28564578
-0.31747413
0.23391283
-1.074104
-1.0165982
0.03250418
1.0593265
-0.57881796
-1.740103
0.29832792
0.595305
-0.37616226
0.64995575
-0.7880395
-0.09259909
0.32837588
0.37053466
0.03203832
-0.9199225
-0.22699879
0.37006682
-0.22668391
0.24029753
-1.3625685
-0.4572955
0.19281754
0.2194055
-0.41109794
-0.9988254
0.23526433
0.21251056
-0.064747214
0.32272124
-0.9372358
-0.2532664
-0.1390068
0.31434667
-0.058310106
-1.0518531
-0.3665919
0.25169575
-0.24775285
0.32259244
-1.0474267
-0.20698668
-0.14454472
0.2265885
0.20530076
-0.51184624
-0.043194473
-0.17646505
-0.049123567
0.33259118
-0.8605738
0.02764031
0.17027295
0.031808876
0.22079962
-0.31155556
-0.21949318
0.06575842
-0.2823605
0.15391736
-1.0931437
-0.1889101
-0.16047949
0.1216312
-0.031090338
-0.43078622
0.13189545
0.1422606
-0.27749112
0.29498082
-0.8680934
0.09005379
0.0019371598
0.30889162
0.13898759
-0.6091238
-0.22935328
0.12139908
-0.17752649
0.22274132
-0.7421114
-0.22142726
-0.05188324
0.13570416
0.2432069
-0.42553398
-0.10142093
0.109443136
-0.15415306
0.20676726
-0.48631763
-0.044234097
0.07084813
0.39967772
0.06576231
-0.58314264
-0.17538145
0.052363753
-0.17347538
0.116727054
-0.6480864
0.17387542
0.07231472
-0.1653181
0.58171684
-0.7153842
-0.10242008
-0.12482107
0.052831978
0.63483775
-0.7922801
0.0035568716
0.19491805
0.1965903
0.5239341
-0.9258782
-0.0007167173
0.15272518
0.11974812
0.28427845
-0.7189565
0.2313546
0.4079743
0.3368786
0.50965214
-1.0329711
-0.10434314
0.051386803
0.038005162
0.4911768
-0.62946147
-0.12655371
0.5962998
0.5959741
0.8066961
-0.7420548
0.082578264
0.354632
-0.027700141
0.39915335
-0.67482775
0.053277593
0.45960826
0.7744317
0.76130724
-0.3546477
-0.093393214
0.31469977
0.64660704
0.9599893
-0.45422646
-0.018453661
0.29965112
1.3214356
1.2104782
-0.89741987
0.18747512
-0.20210406
0.6992003
0.42146727
-0.5446308
-0.49643794
0.3565012
0.7973627
0.9011388
-0.9820187
0.024078008
0.29517
0.40382874
-0.40629086
-0.77952117
-0.53193814
1.1808399
0.0030438392
0.30228403
-0.6453738
0.06102762
0.02785373
1.4547106
-0.5616606
0.15582366
0.18273777
1.0302523
0.35529563
0.093860984
-0.64759207
0.3370415
-0.26465347
-0.30454716
-0.9837158
0.49181086
-0.28862205
0.6498181
0.5178969
1.2149023
-0.70899206
0.10956996
0.4273588
0.10148551
0.51724935
-0.18124144
-0.52641565
-0.47432286
0.29365075
-0.1820494
0.025447913
0.13487802
-0.08620538
-0.4066368
0.6218019
0.014833003
0.61961293
-0.41768226
-0.07081909
0.44903907
0.07326206
-0.35209763
0.019106627
0.054683886
-0.077417426
0.01344274
-0.0571602
-0.047432117
-0.055956792
0.03504578
-0.05203886
0.06000272
0.06918312
-0.034868263
0.073000796
0.04481574
0.050898023
-0.013405867
0.02093342
-0.042374156
-0.038271416
-0.028489757
0.07790201
0.02381286
-0.022113718
-0.042640954
-0.07441231
-0.043370225
-0.07255812
-0.019825824
-0.0036325008
-0.029569931
0.0030912757
-0.027234454
-0.03457481
-0.06054099
-0.0029077455
0.00059824437
-0.02026707
-0.0063621923
0.042549543
0.051519983
-0.08402885
0.6720012
0.45711848
-0.07454093
-0.04119269
0.37347963
0.5513342
0.016309319
0.07491473
0.55986696
0.4691576
0.822089
0.8721951
-0.35316482
0.20096621
0.7072654
0.1752334
0.3517318
-0.020687709
0.7888837
0.7112923
-0.6073009
0.6648619
-0.44611883
-0.17828035
-0.18155423
0.37998253
0.53419363
-0.9081463
0.75956047
0.75926083
-0.31182083
0.5680213
-0.4826207
-0.1536753
0.0077022007
0.8259092
0.5685375
-1.1656114
0.9231191
0.10635396
-0.33622414
0.5340639
-0.7258175
0.58633375
0.42750585
2.7484539
0.40078142
-0.9228653
1.0549543
-0.02969447
-0.14795196
0.5223951
-1.2098582
0.5004398
0.13801765
2.4857984
0.37409684
-0.56050736
1.1786283
-0.2963427
-0.14363489
0.16684413
-1.0970701
0.367121
0.060773868
2.4674356
-0.024523389
-0.26444215
1.3794281
0.34544572
-0.2170415
0.022954283
-0.46913034
0.43791556
0.08985111
2.0656912
0.1430915
-0.17418732
0.8901908
0.17206433
-0.2017919
-0.035155814
-0.65015346
0.20383683
0.22679436
1.9325243
0.1491638
0.03530275
0.8956093
0.15738301
-0.08995584
0.5807522
-1.3209764
0.25353643
0.4119644
1.4572365
0.23415416
0.043523263
0.64657944
0.12765224
-0.095771074
-0.012021669
-1.4344095
0.08432215
0.2699441
1.8266382
0.44340128
0.28444466
0.64230245
0.1541752
-0.0075754505
0.41039437
-0.7899909
0.32658386
0.26142815
2.2665977
0.45071933
-0.5639184
1.0172511
0.24124047
0.031007778
0.116411954
-1.4221897
-0.109960444
-0.08420442
1.3485622
0.13866131
-1.020357
0.5920223
0.21717525
-0.21901716
-0.0004173063
-1.045177
-0.23255402
-0.036440756
1.7522254
0.91869384
-0.8537431
0.33440387
0.1891083
-0.17754923
0.120570056
-0.45292133
0.1590325
0.070615396
1.144685
0.6142544
-0.6195258
0.30540383
0.24943626
-0.1608989
0.09888065
-0.8720393
0.10189002
-0.22053736
1.180049
0.5053761
-0.92994946
0.13130966
0.3015595
-0.56249225
0.23061277
-0.8524211
-0.09059162
-0.1139014
1.2528418
0.6985975
-0.4924119
0.26592204
0.30094114
0.05039186
0.643085
-0.77801436
0.0784292
0.4807822
0.8939809
1.0912046
-0.881869
0.008430483
0.681404
-0.37722674
0.4688981
-1.1290858
-0.5225619
0.29565433
1.0732783
1.3249447
-0.5581891
0.34737462
0.4073242
-0.76391065
-0.38395983
-1.0512422
-0.4598797
-0.71714175
1.1778961
1.277077
-0.3559022
0.76551425
-0.039593443
0.65835553
0.7092889
-0.619597
0.22806837
0.50026697
1.1382545
0.73006946
0.44488785
0.6869701
0.294862
0.4624624
0.5099107
0.5110722
0.048769154
0.33133155
-0.47491774
-0.028224304
-0.05836217
0.603788
-0.018906958
0.027093
0.019914351
-0.06357755
-0.044414025
-0.06454535
0.57063115
0.18169476
0.0006764382
0.61367786
0.02926191
-0.08411805
0.08688729
0.08642428
-0.050439596
0.018623017
-0.049120583
-0.025950529
-0.03561343
0.027837627
-0.07638838
0.034413688
-0.0712137
0.039520167
0.050169043
-0.033462845
0.014314599
0.083095364
0.07675537
-0.0099914
0.07549431
0.03115885
-0.034591764
-0.05262728
-0.061294775
0.071712576
0.052626796
-0.0573351
-0.01733885
-0.071935855
-0.06699881
-0.008964144
0.015141778
-0.057568844
0.036255814
-0.07628503
0.06169387
0.06624959
0.07404589
0.040086977
0.021817587
0.040290065
0.043176956
0.038494505
0.07801018
-0.04666614
0.0495855
0.02704084
-0.03068459
0.027171902
-0.05028894
0.07630714
-0.03170644
-0.03926628
-0.069683135
-0.05600214
-0.017385438
0.04564392
0.040973388
-0.005538292
-0.001554124
-0.0027555001
0.07917317
0.017316341
0.08967391
0.0154886395
1.0767293
0.034676105
-0.019076139
0.86072326
0.004493311
-0.16786098
-0.09828008
0.032255918
-0.14249812
-0.053936407
1.4855044
0.08594849
0.052984484
1.663033
0.036406346
0.14182271
0.4200373
-0.2919334
0.097864546
-0.063993424
2.306186
0.25905928
-0.06961219
2.2748399
-0.17838204
-0.1253608
0.25349644
-0.35331807
0.21455842
0.04346065
2.7005892
0.7702699
-0.09336246
1.9754268
-0.23473406
-0.47887284
-0.14250512
-0.63449913
0.31556085
-0.045373954
3.4916482
0.82927704
-0.1095262
2.683381
-0.07501717
-0.30343944
0.2933606
-0.5775507
0.46175513
-0.6080019
4.275235
0.32758987
-0.10687636
3.5701485
-0.015746802
-0.9212962
-0.0015104437
-0.92768764
0.08420109
0.102267794
1.8400893
0.75824004
-0.49665886
2.2484365
0.31557387
-0.4116572
-0.2828393
-0.9265885
0.263005
0.08488573
0.9815278
0.77694243
-0.11178659
2.119275
0.5382858
0.1773406
0.18534176
-0.64697033
0.5299188
-0.32300228
1.23044
0.28585404
-0.21507595
1.8158906
0.2192506
-1.2572672
-0.40961942
-1.0538036
-0.041105125
0.100494586
3.1202095
0.034188136
-0.098761655
4.2462654
-0.0074032173
-0.1278543
0.79012644
-1.3680769
0.34713018
0.9293509
6.2857633
-0.10899665
-0.046016958
3.9644113
0.18251526
0.3186906
0.63523805
-0.5246398
0.58443826
0.6952759
5.6655097
0.07808169
-0.07313614
3.6733608
0.349163
-0.0019801883
-0.22511435
-0.045298398
0.34605855
0.83367586
5.258175
0.27251902
-0.17111032
3.4628253
-0.376752
-0.59087545
-0.30914465
-0.65643966
0.62455744
0.30512807
5.175027
0.40253517
-0.21679474
4.0594025
-0.6492459
-0.57229245
0.2672884
-0.73515826
0.68571925
0.6686983
3.2330937
0.5038416
-0.14995438
2.29623
-0.18852153
-0.35506213
0.35573265
-0.45921102
0.5711866
0.7006713
2.14186
0.36727113
-0.15391716
1.6348805
-0.5596708
-0.31206757
0.7698225
-0.1229323
0.37728873
-0.2440577
0.7366116
0.27496174
-0.23712663
-0.025846899
-0.8885845
-0.5665775
-0.25737545
0.05792918
-0.37217608
-0.61274064
0.7792833
0.1798914
-0.29573736
0.83960646
-0.33830494
-0.7380968
-0.5154797
0.0707378
-0.44113353
-0.76780915
0.93792135
-0.070442975
-0.23850662
1.2803483
-0.48658708
-0.20726673
-0.04665068
0.0068692863
-0.042861145
-0.010454617
1.0329785
-0.021866167
0.005407073
1.3450845
-0.07753077
-0.0649548
-0.075742
-0.05966948
0.0361673
0.029023625
-0.04089941
-0.07485814
-0.071979195
-0.0014045686
-0.030212816
0.07155269
-0.059658952
0.0094656125
0.07408341
0.07888781
-0.0017891303
0.070081614
-0.08556492
-0.062048644
0.07498071
-0.053940095
-0.010642283
-0.02232688
0.012807168
-0.058225263
0.0006157309
0.047083326
0.04968851
-0.049567197
-0.0012449026
0.023719653
-0.07883878
0.0566506
-0.053516757
0.056090765
0.014194414
0.0018406957
-0.05067827
0.035323396
-0.06675409
-1.7970287
-0.63480145
-0.43704972
0.26910284
0.331508
0.15143418
-1.1772839
-0.4587051
0.32038307
0.31727642
-0.57463163
-0.659107
0.35343054
-0.2979675
0.34176958
-0.3899329
0.38301224
-0.81261635
-0.33053705
0.17925057
-3.2533448
0.72835344
-0.48243764
-0.7583056
0.5950931
-0.7828989
-1.1663517
-0.42868593
0.25948957
-0.46907783
-1.6707844
0.2661331
0.38276207
0.16385204
-1.1942881
-0.17208207
0.1045801
-0.012835228
0.17406386
-1.8697768
-0.8233966
-1.3306878
-0.51437646
-0.77660197
0.45458987
0.5217847
0.61121213
-1.2452776
0.36643586
0.3378498
-1.7968471
0.16792624
-0.00564294
-0.057788163
-0.40681413
-0.7911025
-1.8050398
0.25074834
0.07774271
0.18153904
0.5775763
-0.31393403
0.50452375
0.53765
-1.5844548
0.4921624
-0.24300885
0.22234091
0.47268993
0.24151152
0.3893818
0.11718004
-0.3303315
-0.82952124
-0.3072074
0.23790693
0.33453944
-1.5435388
0.24692594
-0.8370244
-1.1615283
-1.5047778
-0.67426246
-0.5185805
0.39463612
0.14954275
-2.6732922
0.5448549
-0.30358422
0.45718902
-4.4521265
0.3075339
-0.9787923
0.6638726
-0.5042983
0.5857942
-2.8942418
-1.4680533
-0.74776727
0.22369069
