-0.05221446976065636
-0.06573083996772766
-0.03619042783975601
-0.06316310167312622
0.08446631580591202
-0.07277970016002655
-0.017408087849617004
-0.06722140312194824
0.08674556761980057
0.07652661949396133
0.06167101114988327
-0.0394086055457592
-0.04571525380015373
0.002799004316329956
0.049418531358242035
0.013276539742946625
0.07269849628210068
-0.055575814098119736
-0.07411205768585205
0.008409321308135986
-0.08167575299739838
-0.03609384596347809
0.07691846042871475
-0.05109371617436409
-0.058175232261419296
-0.04604290425777435
0.06135100871324539
-0.05916174501180649
-0.007557518780231476
0.05532195419073105
-0.033085767179727554
0.06567353755235672
-0.0832585021853447
0.03812986984848976
-0.07023109495639801
-0.10124710202217102
-0.06698992103338242
-0.3330425024032593
-0.7136614322662354
-0.5001946091651917
-0.0688733384013176
-0.10179448127746582
0.25863707065582275
-0.20745119452476501
-0.27719953656196594
-0.33377814292907715
-0.05659092962741852
-0.7072857618331909
-0.7270967364311218
-0.5939734578132629
-0.653113603591919
-0.6590422987937927
-0.017126142978668213
0.0014489218592643738
-0.06044415757060051
0.08605118840932846
0.07686012238264084
0.036822617053985596
-0.01620464026927948
0.0646493211388588
-0.04902877286076546
0.02078375034034252
-0.23222479224205017
-0.7434065937995911
-0.7641499042510986
-1.0267548561096191
-0.818291425704956
-0.8976015448570251
-0.831342339515686
-1.1368019580841064
-1.164918065071106
-0.6749545335769653
-0.6971942782402039
-0.8332909345626831
-0.5980637669563293
-0.9067986607551575
-0.9076244235038757
-1.166799545288086
-0.9374169111251831
-1.0074950456619263
-0.6072270274162292
-0.5145812034606934
0.015072822570800781
-0.0710616335272789
0.0786883607506752
-0.08046772330999374
0.6806216239929199
0.577552080154419
0.047274328768253326
-0.5157692432403564
-0.7874020934104919
-1.2875715494155884
-1.5236207246780396
-0.9823110103607178
-1.4559979438781738
-0.9345018267631531
-1.429506778717041
-1.370072603225708
-1.2551308870315552
-1.0608892440795898
-0.9099709987640381
-0.6650870442390442
-1.1668819189071655
-0.4906999170780182
-0.6236615180969238
-0.5944812297821045
-0.6261043548583984
-0.6501165628433228
-0.7131569981575012
-0.292754203081131
-0.29103466868400574
0.0476633682847023
0.03792834281921387
0.018017686903476715
0.6929857730865479
0.5488042831420898
0.061855167150497437
-0.003974210936576128
-0.12551851570606232
-0.20447281002998352
0.10680519044399261
-0.3565033972263336
-0.36295661330223083
-0.09160824120044708
-0.08601308614015579
0.041107792407274246
-0.08177637308835983
-0.12089536339044571
-0.1471855640411377
-0.28441140055656433
-0.12600767612457275
0.004804697353392839
-0.08804355561733246
0.21769773960113525
-0.02681400440633297
-0.06575498729944229
-0.7398339509963989
-0.8841642737388611
-0.7046712040901184
-0.5628606081008911
0.029425039887428284
-0.020196519792079926
0.8168987035751343
0.06619087606668472
-0.12025967985391617
0.19593259692192078
0.08645555377006531
0.07229044288396835
-0.30093613266944885
-0.1294318437576294
-0.37303274869918823
-0.30078208446502686
-0.06498102843761444
-0.15844251215457916
-0.14917148649692535
0.07779714465141296
0.11411081999540329
0.00021184681099839509
-0.07940511405467987
0.06485899537801743
-0.14199210703372955
0.005451485514640808
0.014165416359901428
0.09474271535873413
-0.12575623393058777
-0.49523481726646423
-0.8769630193710327
-0.47167330980300903
0.029564164578914642
-0.03008553758263588
-0.26313167810440063
-0.49336525797843933
-0.21390791237354279
-0.047452885657548904
-0.3584533631801605
0.047784119844436646
-0.20762954652309418
-0.1622600257396698
-0.08876043558120728
-0.2136874794960022
-0.21131132543087006
-0.1844567358493805
-0.3113592863082886
-0.26405641436576843
-0.36625856161117554
-0.14019304513931274
-0.22715356945991516
-0.18193559348583221
-0.020868413150310516
0.08691704273223877
-0.0899210050702095
0.15746766328811646
-0.12683455646038055
-0.4979082942008972
-0.08443121612071991
-0.642071008682251
-0.03701571747660637
-0.7122582793235779
-0.583738386631012
-0.12954598665237427
0.21191400289535522
0.2587190568447113
-0.20260225236415863
0.06550999730825424
0.012167527340352535
-0.1623060554265976
-0.06695017218589783
-0.07172293215990067
-0.3548542857170105
-0.14176812767982483
-0.14094391465187073
-0.2556651532649994
-0.08670499175786972
-0.10243266075849533
-0.03429662808775902
0.15302254259586334
0.07157818973064423
0.0808955579996109
0.19052459299564362
-0.20642425119876862
-0.3959023356437683
-1.486175298690796
-0.41642138361930847
-0.715904176235199
-0.31694331765174866
-1.0770456790924072
0.07207712531089783
0.12058283388614655
0.2055121511220932
0.4518175423145294
0.06083667650818825
0.06817915290594101
-0.06684480607509613
0.11448776721954346
-0.10256810486316681
-0.004913188051432371
-0.18113833665847778
-0.09119203686714172
-0.3222760260105133
-0.16528606414794922
-0.22077558934688568
-0.1510765701532364
0.0831913873553276
-0.003714017104357481
-0.05334547162055969
0.032660093158483505
0.29793208837509155
0.19410927593708038
-1.3800735473632812
-1.2426033020019531
-0.5185694694519043
-0.022572897374629974
-0.10682274401187897
-0.7190494537353516
0.02661915309727192
-0.5812937021255493
-0.15282145142555237
-0.421091228723526
-0.17011436820030212
0.14440934360027313
-0.03852198272943497
-0.041944652795791626
-0.28842154145240784
0.003637951100245118
-0.2811187505722046
-0.04559159651398659
-0.3440040647983551
-0.17147864401340485
-0.02760939486324787
-0.03746577724814415
0.031186608597636223
-0.20419396460056305
0.06571599841117859
0.30218055844306946
0.31473663449287415
-0.264769047498703
-2.3761188983917236
-1.7472892999649048
-0.9854745864868164
-0.4888310134410858
-0.0032535872887820005
-0.0015907284105196595
-0.5410072207450867
-0.6012622117996216
0.00384073075838387
-0.06251803040504456
-0.24335907399654388
0.04909275099635124
0.12102734297513962
-0.041431307792663574
0.20019105076789856
-0.13004791736602783
-0.12289217859506607
-0.325139582157135
-0.039316289126873016
-0.060934893786907196
-0.17253577709197998
0.05637004226446152
-0.035482797771692276
0.14420421421527863
0.04952332004904747
0.15867765247821808
0.300037682056427
-0.7755338549613953
-1.7974870204925537
-0.7523914575576782
-0.41696327924728394
0.3117130696773529
0.012994164600968361
-0.44968998432159424
-0.3609488606452942
0.013705478049814701
-0.16287028789520264
0.3463699221611023
-0.08263102918863297
-0.296322226524353
-0.12979638576507568
0.026991667225956917
-0.09600692242383957
0.09351617097854614
0.11363236606121063
-0.30204084515571594
0.09145931899547577
0.09808280318975449
0.12071042507886887
-0.03317162021994591
0.1099390834569931
0.1447761356830597
-0.09048157930374146
-0.33076122403144836
-0.04290858656167984
-1.3831396102905273
-1.4576592445373535
-1.1648452281951904
-0.12441666424274445
-0.3379038870334625
0.059980608522892
-0.015749813988804817
-0.5954746603965759
-0.05274808779358864
-0.36923202872276306
-0.1578831523656845
0.1928175985813141
0.18792948126792908
-0.010656801983714104
0.015298754908144474
0.012521776370704174
0.19648802280426025
0.2781772017478943
0.3482872545719147
0.1825791448354721
-0.0018140659667551517
0.04619523137807846
0.0037328016478568316
-0.05711178854107857
-0.006854732055217028
-0.048660971224308014
-0.15939374268054962
-0.22410699725151062
-0.8390265703201294
0.48623692989349365
-0.7550914287567139
-1.4315637350082397
-0.6167417764663696
0.5847607254981995
0.24191704392433167
-0.4108024537563324
-0.2955510914325714
-0.798328161239624
-0.23028157651424408
0.0660984218120575
0.05909941345453262
0.21609602868556976
0.13835830986499786
0.2818697988986969
-0.025429360568523407
-0.21023423969745636
0.3121122121810913
0.14772801101207733
0.2563139498233795
-0.04403200373053551
0.0944453626871109
0.0034774946980178356
-0.13485592603683472
-0.034871794283390045
0.3613690137863159
0.07523725181818008
-0.3733925521373749
-0.543769121170044
-1.0894476175308228
-1.9176499843597412
-0.053367987275123596
-0.050209272652864456
0.3751870095729828
-0.40760093927383423
0.2312009334564209
0.30338990688323975
0.11697418987751007
0.11578986793756485
0.02999032475054264
0.015904953703284264
0.027123520150780678
0.03367738798260689
-0.27465754747390747
0.09993661940097809
0.3560720980167389
0.26062747836112976
0.2728347182273865
0.06749315559864044
0.12876242399215698
-0.09430699050426483
0.09872227907180786
0.11542712152004242
-0.16966842114925385
-0.04195428267121315
-0.2443046271800995
0.09976434707641602
-0.6154853701591492
-1.1945422887802124
-0.01587587594985962
-0.012389570474624634
0.5944948792457581
0.007261674851179123
-0.11262121051549911
0.5426004528999329
-0.18386594951152802
0.25503313541412354
0.14557063579559326
0.24658530950546265
-0.0012888817582279444
-0.29511314630508423
-0.058131225407123566
0.30674564838409424
0.249685600399971
0.46187254786491394
0.1262819766998291
0.1084422618150711
-0.09196363389492035
-0.1364230513572693
0.04192613065242767
-0.020455477759242058
-0.16241171956062317
0.3349372148513794
0.21721553802490234
-0.6085202693939209
-0.7738673090934753
-0.9839503169059753
0.41541317105293274
0.017910785973072052
0.9042081236839294
0.1619119644165039
-0.4894748330116272
-0.35541611909866333
-0.1971006840467453
0.0670500099658966
0.31975823640823364
-0.02346649207174778
-0.07490847259759903
-0.2500776946544647
0.04732351750135422
0.17028260231018066
0.283834308385849
0.4145714044570923
-0.05116594210267067
0.06142161041498184
0.0782894641160965
0.06654556095600128
0.10682891309261322
-0.13852572441101074
0.33958321809768677
-0.17699205875396729
-0.08651652187108994
-0.2939033508300781
-0.8799216747283936
-0.5355762243270874
-0.22294998168945312
0.032559916377067566
0.7653592824935913
-0.6532555222511292
-0.7946539521217346
-0.31273967027664185
0.11542528867721558
0.04554104432463646
-0.09371637552976608
-0.24134838581085205
-0.18400001525878906
0.0811925008893013
-0.06791193783283234
0.11275113373994827
0.2760072648525238
0.33347347378730774
0.20802418887615204
0.13151057064533234
-0.04845495894551277
-0.012756112031638622
-0.13795974850654602
0.08001574128866196
0.27633872628211975
0.06349115818738937
-0.34598881006240845
-1.4905575513839722
-0.6781362295150757
-0.4612849950790405
-0.33512094616889954
-0.7152813076972961
1.0500353574752808
-1.0239115953445435
-0.13488389551639557
-0.2795138359069824
0.17586059868335724
-0.3688572943210602
-0.1877317577600479
-0.09922181814908981
0.09128949791193008
-0.041090160608291626
0.07603621482849121
0.19035837054252625
0.33234912157058716
0.05698775500059128
-0.14248047769069672
-0.14134125411510468
-0.03198206052184105
-0.18797913193702698
-0.3076876103878021
-0.1514940708875656
-0.22651080787181854
-0.31223538517951965
-0.8593242168426514
-1.7101942300796509
-0.8857218027114868
0.020767489448189735
0.762543261051178
0.7338993549346924
-0.03649641200900078
-0.9641045331954956
0.36752721667289734
-0.7720962762832642
-1.393837809562683
-0.79465252161026
-0.397206574678421
-0.23348750174045563
0.08373533189296722
0.040049999952316284
-0.08425262570381165
-0.3110756278038025
0.13736437261104584
0.04547804221510887
-0.058578185737133026
-0.013058055192232132
-0.21070227026939392
-0.1299317628145218
0.002791463863104582
-0.18339236080646515
0.024292197078466415
-0.7274090647697449
-1.0388476848602295
-1.2340672016143799
0.22991512715816498
0.4261918365955353
1.0139002799987793
0.028208158910274506
-0.06134996935725212
-0.37087753415107727
-0.897938072681427
-0.4178687334060669
-1.2803703546524048
-0.40821537375450134
0.2541413903236389
0.08638721704483032
-0.23183844983577728
-0.20965710282325745
-0.04148232191801071
-0.12141137570142746
-0.22450217604637146
0.12161321192979813
0.06485377997159958
0.1747170388698578
0.03517007827758789
0.20541900396347046
0.04166999086737633
-0.14470863342285156
0.30111920833587646
-0.11745265126228333
-0.2521609663963318
-0.9799066781997681
-0.3525373935699463
-0.2140977829694748
0.10722766071557999
0.5450164675712585
0.33806365728378296
0.44638270139694214
-0.19042246043682098
-0.42095455527305603
-0.17091229557991028
0.06194280460476875
0.02150542102754116
-0.0370648019015789
-0.09513010829687119
0.15122969448566437
-0.013480725698173046
0.12739445269107819
-0.052801504731178284
0.005601555109024048
0.07399345934391022
-0.2113719880580902
-0.007943801581859589
-0.04775319993495941
-0.10283012688159943
-0.060422636568546295
0.015494381077587605
0.1555875539779663
0.02954895608127117
-0.20049633085727692
0.07340044528245926
0.21218356490135193
0.03130201995372772
0.49921658635139465
0.35455724596977234
0.4506189227104187
-0.32420554757118225
-0.33391690254211426
0.1271098256111145
-0.31008559465408325
-0.1472260057926178
-0.17720669507980347
-0.1480851024389267
-0.1312905102968216
-0.16833120584487915
-0.2853763997554779
-0.05484822392463684
-0.05915064364671707
-0.023015456274151802
-0.05276854336261749
0.0974094569683075
0.01520657166838646
0.028513647615909576
0.19384326040744781
-0.06625121086835861
-0.3445183336734772
-0.21932227909564972
0.03565084934234619
0.5783948302268982
0.9974034428596497
0.061861954629421234
-0.06854184716939926
-0.05697387456893921
0.07250010967254639
-0.7252843976020813
-0.16691909730434418
-0.01611058972775936
-0.15690287947654724
-0.0964413657784462
0.23056812584400177
0.01666463166475296
-0.05190792307257652
0.1406981348991394
0.1348026543855667
0.20825684070587158
-0.007708913180977106
0.1724986582994461
0.4154713749885559
0.3413538932800293
0.1978030949831009
0.2636193335056305
0.19613464176654816
0.22112320363521576
-0.08077841997146606
-0.329657644033432
-0.27282190322875977
0.5590129494667053
1.2887095212936401
0.04953693598508835
0.03565036505460739
-0.08438872545957565
-0.035801731050014496
-0.46209463477134705
-1.295242428779602
-0.6526201367378235
-0.05808349698781967
-0.39404118061065674
-0.412579745054245
-0.08024070411920547
-0.11198835074901581
0.002324123401194811
-0.10068751126527786
-0.15150053799152374
0.03743754327297211
-0.03779628872871399
-0.03334550932049751
-0.30897611379623413
0.011522743850946426
0.11076170206069946
-0.27089643478393555
0.07710475474596024
0.06358204036951065
0.021973812952637672
-0.4941743314266205
0.564267098903656
0.41414427757263184
0.07059123367071152
-0.07100515812635422
0.03196078538894653
-0.0008854568004608154
-0.04082697257399559
-1.3480314016342163
-1.0741039514541626
-0.78803950548172
-1.3625684976577759
-0.9372357726097107
-1.047426700592041
-0.8605738282203674
-1.0931437015533447
-0.8680933713912964
-0.7421113848686218
-0.48631763458251953
-0.648086428642273
-0.7922800779342651
-0.718956470489502
-0.6294614672660828
-0.6748277544975281
-0.45422646403312683
-0.5446308255195618
-0.7795211672782898
0.15582366287708282
0.4918108582496643
-0.18124143779277802
0.014833003282546997
0.013442739844322205
0.04481574147939682
-0.04264095425605774
-0.06054098904132843
-0.07454092800617218
-0.35316482186317444
-0.4461188316345215
-0.4826206862926483
-0.7258175015449524
-1.2098581790924072
-1.0970700979232788
-0.46913033723831177
-0.6501534581184387
-1.3209763765335083
-1.434409499168396
-0.7899909019470215
-1.422189712524414
-1.0451769828796387
-0.4529213309288025
-0.8720393180847168
-0.8524211049079895
-0.7780143618583679
-1.1290857791900635
-1.0512422323226929
-0.6195970177650452
0.5110722184181213
-0.0635775476694107
0.08642428368330002
0.03952016681432724
-0.05262728035449982
-0.05756884440779686
0.03849450498819351
-0.039266280829906464
0.017316341400146484
0.03225591778755188
-0.2919333875179291
-0.35331806540489197
-0.6344991326332092
-0.5775507092475891
-0.9276876449584961
-0.9265884757041931
-0.6469703316688538
-1.053803563117981
-1.3680769205093384
-0.5246397852897644
-0.04529839754104614
-0.6564396619796753
-0.7351582646369934
-0.4592110216617584
-0.1229322999715805
0.057929180562496185
0.0707378014922142
0.006869286298751831
-0.059669479727745056
0.009465612471103668
-0.02232687920331955
0.05665060132741928
