-0.004389747977256775
-0.028392162173986435
-0.08481324464082718
0.06563752144575119
0.07928421348333359
-0.05712266266345978
0.06466085463762283
0.0021150782704353333
-0.01471991091966629
0.06468977779150009
0.036599427461624146
-0.016643859446048737
-0.07326237112283707
-0.011761941015720367
-0.07617373019456863
0.07498302310705185
0.026735462248325348
0.06257858127355576
-0.007519051432609558
-0.07698405534029007
0.020674578845500946
-0.028895646333694458
0.07487600296735764
0.05642779916524887
0.02151428908109665
-0.022483065724372864
0.07457207888364792
0.05935121327638626
0.022538378834724426
0.0410078689455986
-0.08130870759487152
0.07303302735090256
-0.08171506971120834
0.04159099608659744
-0.5398247241973877
-0.4896826446056366
-0.1563766896724701
-0.45433706045150757
-0.41499432921409607
-0.5931930541992188
-0.4443909525871277
-0.5055721998214722
-0.19746434688568115
-0.8652358055114746
-0.7906920909881592
-0.7459600567817688
-0.030422614887356758
-0.36933353543281555
-0.30982840061187744
-0.2773565649986267
-0.6777163743972778
-0.6229196190834045
0.0482669398188591
-0.03787694498896599
0.08591616898775101
0.061289362609386444
-0.051709968596696854
-0.06882338225841522
0.04406724125146866
-0.7085782289505005
-0.8221470713615417
-0.03210994973778725
-0.3902527391910553
-0.5630676746368408
-0.6085512042045593
-0.8970595598220825
-0.8711095452308655
-0.8061733841896057
-0.7520388960838318
-0.8505447506904602
-0.6122767925262451
-0.6996940970420837
-0.9152836799621582
-0.1898428201675415
-0.208095520734787
-0.38364824652671814
-0.020595433190464973
0.11358809471130371
-0.42567068338394165
-0.9202622771263123
-0.1468392163515091
-0.004302620887756348
-0.011078782379627228
0.06179829686880112
-0.07912081480026245
0.040047697722911835
0.052864424884319305
-0.7154152989387512
-0.8376665115356445
-0.048879750072956085
-0.48791608214378357
-0.8403651714324951
-1.095350742340088
-0.9963017106056213
-0.8373858332633972
-0.6822728514671326
-1.4720429182052612
-1.7738093137741089
-1.7751752138137817
-1.1348850727081299
-0.46339476108551025
-0.3070720136165619
-0.2610224187374115
0.15164941549301147
-0.4058220088481903
-0.08893640339374542
0.2639275789260864
-0.6392669081687927
-0.49595218896865845
-0.3275511860847473
-0.04378260672092438
0.02329152822494507
-0.08100242167711258
-0.0007405877113342285
-0.056980572640895844
0.6861684322357178
-0.24032261967658997
0.4290487766265869
0.14294734597206116
0.1906176656484604
-0.5028219819068909
-0.49573180079460144
-0.47750604152679443
-0.0392443984746933
-0.34932345151901245
-0.4968097507953644
-1.0985842943191528
-0.5508713722229004
-0.4407811164855957
-0.592162549495697
-0.22496208548545837
-0.3947884738445282
-0.506130039691925
0.10939406603574753
-0.29325681924819946
-0.116093210875988
0.33334881067276
-0.19831280410289764
-0.47764551639556885
-0.8658763766288757
-0.007974617183208466
0.0575580820441246
-0.06351496279239655
0.04120868071913719
-0.7790758609771729
-0.38200631737709045
-0.2927243113517761
-0.3917316198348999
0.05833669379353523
0.044781394302845
-0.0464785173535347
-0.12200182676315308
-0.05249977856874466
-0.21432575583457947
-0.3643878400325775
-0.19491606950759888
-0.36979490518569946
-0.3468465209007263
-0.052503228187561035
-0.27857843041419983
0.013542268425226212
0.3756449520587921
0.38124677538871765
0.07738368213176727
0.29328662157058716
-0.043478693813085556
0.310030460357666
-0.27167806029319763
0.06936203688383102
-0.4730936586856842
-0.22106724977493286
0.3551277220249176
-0.05985335633158684
0.6170309782028198
-0.0058320555835962296
0.1463988572359085
0.16517385840415955
0.045670196413993835
0.01050696149468422
0.06873681396245956
-0.052585601806640625
0.12290943413972855
0.16888368129730225
0.00842071883380413
0.11064863204956055
0.158540740609169
0.0188449639827013
0.09375759959220886
-0.0766381025314331
0.0532061941921711
0.23300950229167938
-0.04561719670891762
0.9605690240859985
0.11875264346599579
0.12382147461175919
0.1650828719139099
0.3396022915840149
-0.19952087104320526
0.11028941720724106
0.665614902973175
-0.42962372303009033
0.12133197486400604
0.18715816736221313
0.19637908041477203
-0.06647184491157532
0.11876825243234634
0.2673194706439972
0.09431961178779602
0.06846147775650024
0.1281370222568512
-0.10906299948692322
-0.018095368519425392
0.14739884436130524
0.09966709464788437
0.030578063800930977
0.182886004447937
0.16864357888698578
0.01726277731359005
0.21479710936546326
0.17410843074321747
0.20992052555084229
-0.0605747364461422
-0.04066875949501991
0.5892058610916138
-0.7288828492164612
-0.06538759171962738
0.4190193712711334
0.27982813119888306
-0.00840836577117443
0.011647816747426987
-0.2684014141559601
0.17810103297233582
0.27678465843200684
0.2865321636199951
0.15290658175945282
0.14727485179901123
0.0328991636633873
-0.017039906233549118
0.16693836450576782
0.004337409511208534
0.07002723217010498
-0.022845912724733353
0.15029700100421906
0.02547852322459221
0.05080582574009895
0.07601528614759445
0.0690852552652359
0.23282590508460999
0.662738561630249
0.4789651036262512
-0.5212652087211609
-0.21510376036167145
0.9544920921325684
1.1130987405776978
0.6592208743095398
0.16799212992191315
0.2313356250524521
0.30958741903305054
0.02873542159795761
-0.15733075141906738
-0.024127913638949394
0.04958652704954147
-0.011910364963114262
0.28228816390037537
0.20251688361167908
-0.0907958522439003
0.009861612692475319
-0.033933691680431366
0.014225785620510578
0.16166561841964722
0.10950691998004913
-0.004929018672555685
0.05577080696821213
0.08230023831129074
-0.022128084674477577
0.15431992709636688
0.7666054964065552
0.616400957107544
-0.34655335545539856
0.7079044580459595
0.8280991315841675
1.5811045169830322
0.6251715421676636
-0.1282178908586502
-0.30658939480781555
-0.036125507205724716
-0.08435005694627762
0.17963752150535583
-0.028062865138053894
0.1303921490907669
0.3736385703086853
0.19772112369537354
0.11217714846134186
-0.02691720612347126
-0.12402372807264328
-0.048011790961027145
0.11617890000343323
0.023145612329244614
-0.07443064451217651
0.1812787652015686
0.04860188066959381
-0.12016361206769943
-0.04852060601115227
-0.004295219201594591
0.3755909204483032
1.8829420804977417
0.13937024772167206
0.7380595803260803
1.4952452182769775
0.09911838918924332
1.1808204650878906
0.17481516301631927
0.011319905519485474
0.17498642206192017
0.03278448432683945
0.17991772294044495
0.2619588077068329
0.24719369411468506
0.1954432874917984
0.2878393828868866
0.29953533411026
-0.1292266994714737
-0.03136349096894264
0.16859009861946106
0.05202184244990349
0.09742376208305359
0.26938915252685547
-0.2352760285139084
-0.24197722971439362
-0.2205401062965393
-0.24144621193408966
-0.8766332864761353
-0.755983293056488
0.9750578999519348
-0.0534488707780838
-0.26498910784721375
0.793806791305542
1.1124284267425537
1.9996364116668701
0.0891571193933487
0.10738959908485413
-0.025795549154281616
0.2417566478252411
0.21550002694129944
0.21679632365703583
0.0679614469408989
-0.02761135809123516
0.29235270619392395
-0.07200746238231659
-0.1266670525074005
-0.3356287181377411
-0.11038105934858322
0.059237439185380936
-0.07936239242553711
-0.09680141508579254
-0.13171261548995972
-0.14810557663440704
-0.36729946732521057
-0.3350714147090912
-0.829287052154541
-1.2127660512924194
-1.1172428131103516
-0.09154939651489258
-0.24975405633449554
-0.07991734147071838
-0.33234158158302307
1.350068211555481
-0.05373251065611839
0.4116227924823761
0.4647396206855774
0.03402530029416084
0.22102412581443787
0.09104970842599869
0.06498858332633972
-0.011872489005327225
0.2088092863559723
-0.05383152514696121
-0.09004896879196167
-0.04754271358251572
0.05621183663606644
0.2173510193824768
0.23302693665027618
0.10866273194551468
-0.04345645755529404
0.4196823537349701
0.28561505675315857
0.2002030462026596
-0.9182806015014648
-0.4498350918292999
-0.8099513649940491
-0.6672924757003784
-0.39705708622932434
-0.17793089151382446
0.07957924902439117
1.153075098991394
0.353482186794281
0.718062698841095
0.5874608755111694
-0.06610805541276932
0.19764624536037445
-0.012396257370710373
0.1846272200345993
0.12253361940383911
-0.16725826263427734
-0.1742728054523468
0.10362934321165085
-0.04258428514003754
-0.01123387273401022
0.09767227619886398
0.2523210644721985
0.08207057416439056
0.1507142335176468
0.19192303717136383
-0.21063141524791718
0.18159645795822144
-0.2779001295566559
-0.5499900579452515
-0.6018522381782532
-0.6654912829399109
-0.09966155141592026
0.5368849039077759
-0.37001705169677734
-0.6469779014587402
0.21746180951595306
-0.33333584666252136
0.08072571456432343
0.051915254443883896
-0.12715694308280945
-0.05342226102948189
-0.07036111503839493
0.07502306252717972
0.11927724629640579
-0.009854250587522984
-0.2974146604537964
-0.20757514238357544
0.03449440002441406
-0.0482148639857769
0.344914972782135
0.14223811030387878
-0.01189183909446001
0.10577975958585739
-0.05857836455106735
0.34239432215690613
0.3959704041481018
-1.0474807024002075
-1.047692060470581
-0.46430832147598267
-0.13199327886104584
0.6957220435142517
0.027006788179278374
-0.8775354027748108
-0.5425799489021301
-0.3523246943950653
-0.13208745419979095
-0.17049312591552734
0.03891525790095329
0.13900484144687653
-0.02264115773141384
-0.18943943083286285
0.02094964124262333
0.044231168925762177
0.06351000815629959
-0.29154935479164124
0.20220425724983215
0.07384937256574631
0.22879576683044434
0.10718537867069244
0.09930306673049927
-0.034071095287799835
0.16541390120983124
0.02354288659989834
-0.3977015018463135
-0.8861908912658691
-1.3078439235687256
-1.1505999565124512
-0.6637484431266785
-0.04873925447463989
0.5125538110733032
-0.5066470503807068
-0.6470538377761841
0.11068890243768692
-0.17815718054771423
0.11504814773797989
-0.18674466013908386
0.11014914512634277
0.03293537721037865
0.18358777463436127
-0.17275024950504303
-0.13063186407089233
0.032529186457395554
-0.1430990844964981
0.3528023064136505
0.19911068677902222
0.037095922976732254
0.08588956296443939
-0.06844726949930191
0.185249924659729
0.11514528840780258
-0.07612939178943634
-0.3852927088737488
-0.8165555596351624
-0.013983240351080894
-0.43793344497680664
-0.6323850154876709
1.0005131959915161
0.6101188659667969
-0.03674037382006645
-0.4013994038105011
-0.086954265832901
-0.027549972757697105
0.17817352712154388
-0.15836597979068756
-0.12958990037441254
-0.04134459048509598
-0.1927623152732849
-0.026748960837721825
-0.20418064296245575
0.10812034457921982
0.1804462969303131
-0.08168394863605499
-0.040796201676130295
-0.14200691878795624
-0.06704489141702652
-0.2340775728225708
0.16041478514671326
-0.22667242586612701
-0.7357723116874695
-1.040277361869812
-0.8493581414222717
0.06894445419311523
0.5621311664581299
0.45363426208496094
-0.05585235729813576
1.2004141807556152
-0.08850104361772537
0.03536367416381836
-0.41294413805007935
-0.21185065805912018
-0.09078380465507507
0.05746991187334061
-0.21678321063518524
-0.43939560651779175
-0.45745664834976196
-0.23933255672454834
-0.31441766023635864
-0.06932014226913452
-0.0952206403017044
-0.08538728207349777
-0.40883633494377136
-0.14867226779460907
-0.2775820791721344
-0.14101733267307281
-0.11634141951799393
-0.5008288621902466
-0.9426357746124268
-0.8323448300361633
-0.5404236912727356
0.1619781255722046
0.10487537086009979
0.06782284379005432
0.01062898337841034
0.7239015102386475
0.3188325762748718
-0.10663960129022598
-0.6881539821624756
-0.1633063107728958
-0.37844595313072205
-0.29659730195999146
-0.3662988543510437
-0.17253625392913818
-0.36198461055755615
-0.22170215845108032
-0.06127679720520973
-0.04456768557429314
0.006383190862834454
-0.21463893353939056
-0.1414175033569336
-0.023770052939653397
-0.11866666376590729
-0.25674372911453247
-0.40928301215171814
-0.3914370536804199
-0.42385855317115784
-0.5617141127586365
-0.2547638714313507
0.6340532302856445
-0.00392651092261076
0.130305215716362
-0.06539449095726013
-0.5187572240829468
-0.7717804312705994
-0.8872233629226685
0.4025380313396454
-0.18163570761680603
-0.6218341588973999
-0.15521864593029022
-0.1306685507297516
-0.18827885389328003
-0.14445625245571136
-0.26528307795524597
-0.13475236296653748
-0.2911117970943451
-0.21248050034046173
-0.168559730052948
-0.19762921333312988
-0.2793537974357605
-0.30300548672676086
-0.21121206879615784
-0.21612784266471863
-0.4159790873527527
0.14407971501350403
-0.20097146928310394
0.47777584195137024
0.5869290828704834
-1.266884446144104
0.08157386630773544
-0.06506435573101044
0.05682247132062912
-0.568399965763092
-0.6104819178581238
-0.10463510453701019
-0.19213613867759705
-0.48076242208480835
-0.2723686695098877
0.21197564899921417
-0.04207024350762367
0.03440489619970322
-0.025298548862338066
-0.16335952281951904
-0.21681496500968933
-0.010633738711476326
-0.23185944557189941
-0.04835670441389084
-0.2878570854663849
-0.2502991557121277
-0.0686928927898407
-0.019590940326452255
-0.07787314057350159
0.27561017870903015
-0.09875214099884033
-0.014399588108062744
-0.25423121452331543
-1.172184944152832
0.061524637043476105
0.04040183871984482
0.0715470090508461
-0.9170970916748047
-0.6785486340522766
-1.257652759552002
-0.06679261475801468
0.13833865523338318
-0.08335192501544952
-0.05510488897562027
-0.3164018988609314
0.17559567093849182
0.04388223960995674
-0.0758637934923172
-0.20598635077476501
0.029277727007865906
-0.17266497015953064
0.08360590040683746
0.026121484115719795
-0.10459431260824203
-0.33857855200767517
0.2808431088924408
-0.004440623801201582
0.049484532326459885
0.016750451177358627
-0.14954087138175964
-0.4394252598285675
-0.6541118025779724
-0.0782138854265213
0.013909496366977692
-0.04184499382972717
-0.3617272973060608
-0.5114707946777344
-0.4824136793613434
0.0009067250648513436
-0.46962878108024597
-0.3972775936126709
-0.05024757608771324
-0.20090284943580627
-0.24739603698253632
-0.30192190408706665
-0.3078956604003906
-0.21331751346588135
-0.2632008194923401
-0.25633692741394043
-0.33156779408454895
-0.17766816914081573
-0.41862982511520386
-0.3314998745918274
-0.10240945219993591
-0.34798434376716614
-0.4607904851436615
-0.23628538846969604
-0.2856789529323578
-0.3289809823036194
-0.22735294699668884
-0.06373845785856247
0.017687015235424042
0.021172694861888885
-0.12912052869796753
0.8689249157905579
0.0010936985490843654
0.2983279228210449
-0.22699879109859467
0.23526433110237122
-0.3665919005870819
-0.043194472789764404
-0.21949318051338196
0.13189545273780823
-0.22935327887535095
-0.10142093151807785
-0.17538145184516907
-0.10242007672786713
-0.0007167172734625638
-0.10434313863515854
0.08257826417684555
-0.09339321404695511
0.18747511506080627
0.02407800778746605
0.06102761998772621
0.3370414972305298
0.1095699593424797
0.1348780244588852
-0.35209763050079346
0.06000272184610367
-0.02848975732922554
-0.02956993132829666
0.051519982516765594
0.5598669648170471
0.7888836860656738
0.7595604658126831
0.9231191277503967
1.0549542903900146
1.1786283254623413
1.3794281482696533
0.8901907801628113
0.8956093192100525
0.6465794444084167
0.6423024535179138
1.0172511339187622
0.5920222997665405
0.3344038724899292
0.30540382862091064
0.1313096582889557
0.26592203974723816
0.0084304828196764
0.3473746180534363
0.7655142545700073
0.6869701147079468
0.6037880182266235
0.6136778593063354
0.02783762663602829
-0.009991399943828583
-0.07193585485219955
0.04008697718381882
0.027171902358531952
-0.005538292229175568
0.8607232570648193
1.6630330085754395
2.2748398780822754
1.9754267930984497
2.6833810806274414
3.570148468017578
2.248436450958252
2.1192750930786133
1.8158905506134033
4.246265411376953
3.9644112586975098
3.673360824584961
3.462825298309326
4.0594024658203125
2.2962300777435303
1.634880542755127
-0.025846898555755615
0.8396064639091492
1.280348300933838
1.345084547996521
-0.0014045685529708862
-0.062048643827438354
-0.049567196518182755
0.03532339632511139
