0.05035796016454697
-0.04292985051870346
0.05980152636766434
0.054853446781635284
0.015931688249111176
-0.06872808933258057
0.023225948214530945
0.03485184907913208
0.058859147131443024
-0.03810488432645798
-0.049386367201805115
0.07140900939702988
-0.012861890718340874
-0.059190232306718826
0.033778123557567596
0.0122036412358284
0.009464062750339508
-0.007337644696235657
-0.07438874244689941
0.009738385677337646
0.013263791799545288
0.024447806179523468
-0.0674872100353241
0.05338067561388016
-0.07454054057598114
0.010012336075305939
0.08403456956148148
-0.07826783508062363
0.07683085650205612
-0.017078593373298645
-0.005763024091720581
-0.03327745571732521
0.04326119273900986
-0.05534737929701805
-0.002081938087940216
-0.0003497675061225891
0.029737412929534912
-0.05989028885960579
-0.02847352996468544
-0.03588060289621353
-0.07329969108104706
-0.06395649164915085
-0.5760143399238586
-0.4368177652359009
-0.5852727293968201
0.015790484845638275
-0.08210344612598419
0.06693307310342789
-0.0420948788523674
-0.03512702137231827
0.043062515556812286
-0.07830730080604553
-0.06908852607011795
0.03917402774095535
-0.015555605292320251
0.07818818837404251
0.07126731425523758
-0.03452878072857857
-0.07971791923046112
-0.049705870449543
-0.00751204788684845
-0.0623486265540123
0.10102874040603638
-0.003245995379984379
0.03666829317808151
-0.5934175252914429
-0.3410890996456146
0.4505311846733093
0.07660345733165741
-0.470344215631485
-0.16787174344062805
0.17221014201641083
0.07616572827100754
0.09174603223800659
0.01941661350429058
-0.2273220270872116
0.01730792596936226
-0.23502111434936523
-0.08773381263017654
0.05932466685771942
0.06667120009660721
-0.05915471911430359
0.011544905602931976
-0.0863124281167984
0.0420672670006752
-0.06597445160150528
0.05045945942401886
0.08993507921695709
0.8748073577880859
0.33671534061431885
-0.11044114828109741
0.059328217059373856
-0.12207384407520294
-0.2243422418832779
-0.3747941851615906
-0.26841869950294495
0.23088319599628448
0.03713808208703995
-0.0805937796831131
-0.015987640246748924
-0.10120666772127151
-0.018927153199911118
-0.03897123038768768
-0.21014966070652008
-0.015269216150045395
0.22304023802280426
-0.1067039966583252
-0.5218563675880432
0.16066144406795502
-0.863700270652771
0.007523387670516968
0.053628481924533844
0.069504015147686
0.5142529606819153
0.4756845533847809
0.4569084048271179
1.1691179275512695
0.3390550911426544
0.42441263794898987
0.6482709050178528
0.04843420907855034
-0.04816631227731705
-0.17442479729652405
0.10494476556777954
0.12009462714195251
0.14075182378292084
-0.04638465493917465
0.26734989881515503
0.060359887778759
-0.0680343508720398
0.46681448817253113
0.11410055309534073
-0.3652700185775757
0.22627456486225128
0.1379997879266739
-0.22695685923099518
0.42608559131622314
0.18969306349754333
0.8092352151870728
-0.04537293314933777
-0.0026843249797821045
0.05421901494264603
0.8432185053825378
0.5656967163085938
0.7512319087982178
0.24292327463626862
0.17116467654705048
-0.24319994449615479
-0.005376602988690138
-0.020224981009960175
0.1742846816778183
0.1122925654053688
-0.07954981923103333
-0.13713902235031128
0.013479633256793022
0.12732475996017456
0.024337073788046837
-0.04428880661725998
0.05269179865717888
0.0224709864705801
0.02859826758503914
-0.044097110629081726
0.1265619844198227
0.24977146089076996
0.032523754984140396
-0.04030032828450203
-0.01693303883075714
-0.10542993992567062
0.009819045662879944
0.6305472254753113
0.3515205383300781
0.32718029618263245
0.31478166580200195
-0.13194069266319275
0.26981857419013977
-0.03126401826739311
0.27520304918289185
-0.09623391181230545
-0.09263250976800919
0.06602928042411804
0.05100085586309433
0.18710829317569733
0.025922540575265884
-0.16767221689224243
0.1372232735157013
0.01009669341146946
0.08675610274076462
-0.08967828005552292
0.06677181273698807
0.012303492985665798
0.08231221139431
0.37848910689353943
0.5616554617881775
0.0393814742565155
0.12428094446659088
1.1213499307632446
0.04808878153562546
1.500882625579834
0.43454551696777344
-0.11719725281000137
-0.20768000185489655
0.003177355043590069
-0.0034934559371322393
0.04736138507723808
-0.014285986311733723
-0.1812596619129181
-0.18071769177913666
-0.11034511774778366
0.06301068514585495
0.05950262024998665
0.1874818503856659
0.12023691087961197
0.08031576871871948
0.16173413395881653
0.09314492344856262
0.06437709182500839
-0.026494840160012245
-0.02065032348036766
-0.04894798621535301
-0.1800457090139389
0.25142043828964233
0.5021711587905884
-0.5884569883346558
1.2435901165008545
0.021347520872950554
-0.17683927714824677
-0.449194073677063
-0.25234654545783997
-0.17418482899665833
0.3241535723209381
0.12576627731323242
-0.32836681604385376
-0.020014923065900803
-0.06345877051353455
-0.05053345486521721
-0.15613561868667603
0.005715285427868366
0.07109510153532028
0.025703726336359978
0.12827308475971222
0.15247339010238647
0.04305575042963028
0.05076911300420761
-0.04250923916697502
0.07942185550928116
0.021221978589892387
0.12844286859035492
-0.21121016144752502
0.4058011472225189
0.6892474293708801
-0.43093037605285645
0.4964824318885803
0.01546784769743681
0.0020367440301924944
-0.691554844379425
-0.23565228283405304
0.0821477398276329
-0.12972988188266754
-0.0023680920712649822
-0.07275578379631042
0.01713799498975277
-0.11023809760808945
-0.011739817447960377
-0.026240946725010872
-0.1245948076248169
-0.056482236832380295
-0.05357789248228073
0.038104403764009476
-0.024225842207670212
-0.10972613096237183
-0.07723753899335861
-0.10647977143526077
0.011144081130623817
0.043089743703603745
0.2121986448764801
-0.029230592772364616
0.6355873346328735
0.9629571437835693
0.01865868642926216
0.32217466831207275
-0.0193378534168005
0.1327422559261322
-0.3133165240287781
0.6981585621833801
0.06596719473600388
-0.2615359425544739
-0.19951120018959045
0.05436879023909569
-0.04406941682100296
-0.20947225391864777
0.08863683044910431
0.05602686479687691
-0.06096760183572769
-0.004384309984743595
0.10178712010383606
-0.031119605526328087
-0.053089458495378494
-0.008577109314501286
-0.13255919516086578
0.09752508997917175
-0.2033146470785141
-0.19972704350948334
0.2044285535812378
0.24801337718963623
0.8824588060379028
1.4986366033554077
1.036852478981018
0.10197395086288452
-0.08502674847841263
-0.05165434628725052
-0.7329902648925781
0.3450170159339905
-0.12106315791606903
-0.1451021432876587
-0.074884794652462
-0.21134890615940094
-0.06427965313196182
-0.1019049733877182
-0.18137037754058838
-0.13553184270858765
-0.0327170267701149
0.01798143982887268
0.5152325630187988
0.12929944694042206
0.03815115988254547
-0.16984082758426666
-0.03377704322338104
-0.10726261138916016
-0.1143837571144104
-0.42922765016555786
-1.0046970844268799
-0.1133730560541153
0.15692971646785736
1.3986306190490723
1.0686089992523193
0.7378523349761963
0.03863363713026047
-0.2051742523908615
-1.001109004020691
-0.042849861085414886
-0.2352253794670105
0.01133261900395155
-0.3737504780292511
-0.06226120516657829
-0.008190416730940342
0.04934841766953468
0.026022128760814667
0.16599048674106598
0.09023954719305038
0.22149157524108887
0.5548538565635681
0.00937538594007492
0.1017763689160347
-0.09374584257602692
-0.005717665888369083
-0.26888152956962585
0.11893782764673233
-0.24193958938121796
-0.9954055547714233
-1.087299108505249
-1.002564549446106
-0.04518358036875725
0.4063519537448883
0.4973490536212921
0.06031866371631622
-0.12035059183835983
-0.46173930168151855
0.2433163821697235
0.22689862549304962
0.41141775250434875
0.07556388527154922
0.14131151139736176
0.08242959529161453
-0.00021391625341493636
-0.0037719302345067263
0.10104019194841385
0.11794660985469818
0.3240956962108612
0.2782791256904602
0.1097075566649437
0.1330130696296692
0.04331784322857857
0.14151307940483093
0.07007576525211334
-0.4823298156261444
-0.2648421823978424
-0.4468580186367035
-0.7855736613273621
-1.3217437267303467
-0.671845555305481
-0.5942458510398865
-0.07519358396530151
0.6967887282371521
0.7174731492996216
-0.019458338618278503
-0.475379079580307
-0.16513006389141083
-0.3062228560447693
0.08214721828699112
0.13659068942070007
0.008867406286299229
0.18959961831569672
0.06968551129102707
-0.12442146241664886
0.18389035761356354
0.22142520546913147
0.20007599890232086
0.09554070979356766
-0.2749737799167633
-0.10342587530612946
-0.11751905083656311
-0.3771129250526428
-0.3747900128364563
-0.07096875458955765
0.030171269550919533
-0.12910154461860657
-0.5994043946266174
-0.6900327205657959
-0.1484975963830948
-0.10605872422456741
0.6145880818367004
0.5062530636787415
0.8219529986381531
-0.32658651471138
-0.9383872747421265
-0.8933756947517395
-0.5294039249420166
-0.47750645875930786
-0.03083208203315735
0.0005683246999979019
-0.0030603224877268076
0.06993211060762405
0.3200623095035553
0.25655341148376465
0.09385760128498077
-0.003914345055818558
-0.08261682093143463
-0.16328118741512299
-0.12340593338012695
0.04671710357069969
-0.025007231160998344
0.20160135626792908
-0.07400732487440109
0.2940031588077545
-0.26156800985336304
-0.8113596439361572
0.6620222330093384
0.01130193006247282
0.04306352883577347
0.8124545216560364
0.27739232778549194
-0.051311735063791275
-0.5694610476493835
-0.47111666202545166
-1.1993852853775024
-1.4153475761413574
-0.8940066695213318
-0.1511428952217102
0.3768627941608429
0.300259530544281
0.3888848125934601
0.0947725772857666
0.08025096356868744
-0.38734009861946106
-0.11223309487104416
-0.2429380565881729
-0.08428580313920975
0.24280132353305817
-0.027124803513288498
0.1729259490966797
0.21244141459465027
0.14984282851219177
0.3067890405654907
-1.1389825344085693
0.26254716515541077
0.060133736580610275
0.08157090097665787
1.0798519849777222
-0.2526470422744751
0.6829401254653931
0.21765777468681335
-0.05025913566350937
-0.304093599319458
-0.9659021496772766
-1.8108127117156982
-2.5585343837738037
-2.370965003967285
-1.3912203311920166
-0.5857314467430115
-0.3711755573749542
-0.2418508529663086
-0.20599189400672913
-0.07493145018815994
-0.08844650536775589
-0.04832294210791588
0.19353526830673218
-0.10402867197990417
0.17199429869651794
-0.02292649634182453
0.21837778389453888
-0.44490718841552734
-1.188153624534607
-0.7152850031852722
0.20764055848121643
-0.6421259641647339
1.2557865381240845
0.22651061415672302
1.2061654329299927
0.13712267577648163
0.21211475133895874
0.40242719650268555
0.3801872730255127
0.12656892836093903
-0.7629610300064087
-1.265243649482727
-1.593521237373352
-1.1286097764968872
-0.44036972522735596
-0.21133239567279816
0.012668837793171406
0.1252720206975937
0.0846579447388649
0.06160407513380051
0.20295795798301697
0.09912970662117004
0.31099727749824524
0.0545419305562973
-0.32048365473747253
-0.49674248695373535
-0.916124701499939
-0.8173661828041077
0.402268648147583
0.20128075778484344
-0.48654836416244507
0.10102244466543198
0.8043076992034912
0.2663210332393646
0.23082348704338074
0.3475162982940674
0.3931436836719513
0.5310422778129578
0.4699397385120392
0.6214419603347778
-0.06704247742891312
-0.29898005723953247
-0.07173174619674683
-0.1412677764892578
-0.05911573767662048
-0.0781237930059433
-0.008368205279111862
0.03466016799211502
-0.11335042864084244
0.12324272096157074
0.22199077904224396
0.0738007053732872
0.05508456379175186
-0.4091626703739166
-0.20315247774124146
-0.3109618127346039
0.30890458822250366
0.01754361391067505
1.2594037055969238
-0.37417128682136536
0.0738358125090599
0.4626738727092743
-0.1564471572637558
0.180240660905838
-0.2837218642234802
0.21786236763000488
0.17057326436042786
0.27164655923843384
0.27508196234703064
0.046534210443496704
-0.024572065100073814
-0.09920313209295273
-0.15930457413196564
-0.017764223739504814
-0.0374639555811882
0.19364729523658752
-0.027785174548625946
0.04321413114666939
-0.06409037858247757
0.18718186020851135
0.10696985572576523
-0.5651245713233948
-0.7128893733024597
0.31327128410339355
0.26989689469337463
0.1251341551542282
1.5477854013442993
-0.34916096925735474
-0.3070640563964844
0.19563743472099304
0.11178576946258545
0.3683650493621826
0.06960048526525497
0.16924665868282318
0.02613849565386772
0.023963235318660736
0.11678647249937057
0.035505037754774094
0.02944515272974968
0.03449581563472748
-0.006440902128815651
-0.11981150507926941
-0.06459586322307587
0.04337022826075554
-0.13955137133598328
0.11582226306200027
-0.03590494766831398
-0.028385784476995468
0.0838632807135582
-0.7064709663391113
-0.44761601090431213
0.21627072989940643
0.03244864195585251
0.2491218000650406
0.6621763706207275
-0.12302522361278534
-0.10887022316455841
0.19776342809200287
0.13649629056453705
0.21198497712612152
-0.17962031066417694
-0.21585588157176971
0.08053240925073624
0.2388119101524353
0.0821908488869667
0.04264942556619644
-0.014506244100630283
0.02408546581864357
0.018713869154453278
-0.07154494524002075
-0.047547321766614914
-0.0901806503534317
0.17218329012393951
0.2915455400943756
-0.14162218570709229
0.1545456498861313
0.33616310358047485
-0.632335364818573
-0.38958874344825745
0.48818957805633545
-0.06331870704889297
-0.03050106391310692
0.055477745831012726
3.361738443374634
1.7668778896331787
0.952660083770752
0.41170671582221985
-0.15891467034816742
-0.25074276328086853
-0.014005491510033607
0.40849778056144714
0.4151182770729065
0.14132927358150482
0.1842818558216095
0.05863441526889801
-0.027284791693091393
0.03016792982816696
0.0182038564234972
-0.19894033670425415
0.14928467571735382
-0.17562954127788544
0.0711899921298027
-0.44508492946624756
-0.5359715223312378
-0.4065769910812378
0.010351956821978092
0.4970191717147827
0.6961069703102112
0.04056299477815628
0.0663372054696083
0.07195142656564713
-0.2489706128835678
0.8944065570831299
0.39703935384750366
0.40436893701553345
0.33292677998542786
0.1765589863061905
0.20906846225261688
0.15270176529884338
0.09835125505924225
0.009338791482150555
0.04005090892314911
0.08546643704175949
-0.014278946444392204
-0.05640551447868347
0.05172252655029297
0.08395987004041672
-0.36788198351860046
-0.6658498644828796
-0.0978505089879036
-0.07952374219894409
-4.658639056742686e-07
0.15229447185993195
0.04353012889623642
-0.3162420094013214
-0.36482319235801697
-0.027069728821516037
0.04509369283914566
-0.035147663205862045
0.7195819616317749
-0.20339550077915192
0.2856457829475403
0.5953050255775452
0.3700668215751648
0.21251055598258972
0.25169575214385986
-0.17646504938602448
0.06575842201709747
0.1422605961561203
0.12139908224344254
0.10944313555955887
0.05236375331878662
-0.12482106685638428
0.15272517502307892
0.05138680338859558
0.3546319901943207
0.31469976902008057
-0.20210406184196472
0.29517000913619995
0.02785372920334339
-0.2646534740924835
0.42735880613327026
-0.0862053781747818
0.019106626510620117
0.0691831186413765
0.07790201157331467
0.003091275691986084
-0.08402884751558304
0.4691576063632965
0.7112923264503479
0.7592608332633972
0.10635396093130112
-0.029694469645619392
-0.2963427007198334
0.3454457223415375
0.17206433415412903
0.1573830097913742
0.12765224277973175
0.15417520701885223
0.2412404716014862
0.21717524528503418
0.18910829722881317
0.24943625926971436
0.3015595078468323
0.30094113945961
0.6814039945602417
0.4073241949081421
-0.039593443274497986
0.2948620021343231
-0.018906958401203156
0.029261909425258636
-0.07638838142156601
0.07549431174993515
-0.06699880957603455
0.021817587316036224
-0.05028894171118736
-0.0015541240572929382
0.004493311047554016
0.036406345665454865
-0.1783820390701294
-0.23473405838012695
-0.07501716911792755
-0.01574680209159851
0.31557387113571167
0.5382857918739319
0.2192506045103073
-0.007403217256069183
0.18251526355743408
0.3491629958152771
-0.37675198912620544
-0.6492459177970886
-0.18852153420448303
-0.5596708059310913
-0.8885844945907593
-0.33830493688583374
-0.4865870773792267
-0.07753077149391174
-0.03021281585097313
0.0749807134270668
-0.0012449026107788086
-0.06675408780574799
