-0.06015487015247345
-0.05928085744380951
0.036280207335948944
0.05909232050180435
0.05889185518026352
0.02370838075876236
-0.042530883103609085
-0.032268352806568146
0.06026763468980789
-0.07680828124284744
-0.011272653937339783
0.034700244665145874
-0.0778346136212349
-0.07226371765136719
0.04496977478265762
-0.026649102568626404
-0.028162851929664612
-0.07944649457931519
0.005344077944755554
0.05332653969526291
0.041675396263599396
0.05220251530408859
0.06337475031614304
-0.023912377655506134
0.032945163547992706
-0.07425747066736221
0.0707198902964592
-0.027041975408792496
0.021697156131267548
-0.03898053988814354
0.0007734373211860657
0.014528483152389526
-0.04822258651256561
0.044155724346637726
0.08673220127820969
-0.41715678572654724
-0.39818909764289856
-0.4785994291305542
-0.5854318737983704
-0.21575936675071716
-0.3488008975982666
-0.44880637526512146
0.4448186457157135
0.2947045564651489
0.04312114417552948
-0.2815847098827362
-0.06452557444572449
-0.028532784432172775
-0.07826385647058487
-0.06694652140140533
-0.0724300965666771
-0.05900033563375473
0.024307556450366974
-0.03705723211169243
0.07423048466444016
-0.015286587178707123
-0.00020457804203033447
0.0398612841963768
-0.0013293176889419556
-0.042808521538972855
0.04295165091753006
-0.25355464220046997
-0.025628404691815376
-0.08301083743572235
-0.11880704015493393
0.172560453414917
0.1347244828939438
-0.17703939974308014
-0.6765604019165039
-0.22737932205200195
0.0814795196056366
0.20932213962078094
-0.1900358945131302
-0.8421357274055481
-1.1479215621948242
-0.7029253840446472
-0.5051792860031128
-0.5063138008117676
-0.24663150310516357
0.41344282031059265
0.2791125774383545
-0.0837472677230835
0.018672779202461243
0.05367622524499893
-0.04902959614992142
-0.025801531970500946
0.6932832598686218
0.6251991987228394
0.3941240608692169
-0.31162771582603455
-0.28928473591804504
0.24812369048595428
-0.20767304301261902
0.006575583014637232
0.1015419289469719
0.25456008315086365
0.16743344068527222
0.1179266944527626
-0.3702279329299927
-0.12365592271089554
0.015553644858300686
-0.5153698325157166
-0.6539083123207092
-0.1860310584306717
-0.4986598789691925
-0.40388068556785583
-0.6507639288902283
-0.0356111116707325
-0.042275939136743546
0.005698428023606539
-0.000341551611199975
-0.06412757933139801
0.05066338926553726
0.3237766623497009
0.9668541550636292
1.0223708152770996
0.18533934652805328
-0.6734036207199097
-0.3830203711986542
0.2603212296962738
0.40356680750846863
0.2523374557495117
0.15390589833259583
0.23564288020133972
0.35221779346466064
0.37682780623435974
0.06101970002055168
0.05065188556909561
0.21073462069034576
0.0759734958410263
-0.012097935192286968
-0.11479216068983078
0.13519832491874695
0.042651187628507614
-0.4034767746925354
-0.05993610620498657
-0.3006022274494171
-0.1892140805721283
0.17725512385368347
-0.12952007353305817
0.06355267018079758
-0.023624874651432037
0.9811626076698303
0.3123306930065155
-0.20242317020893097
0.3340657651424408
0.26735755801200867
0.02019275352358818
0.18070189654827118
0.15012028813362122
-0.024757500737905502
0.1513858139514923
0.1808387190103531
0.29530519247055054
0.15138867497444153
0.19781863689422607
-0.013823723420500755
-0.13238510489463806
0.06754094362258911
0.18314890563488007
-0.02623402699828148
0.07698845863342285
0.08924349397420883
0.08102213591337204
0.06499209254980087
-0.09715309739112854
0.11641409993171692
0.017809279263019562
0.015182584524154663
0.0523250550031662
0.10520601272583008
0.5498793721199036
0.3765266239643097
0.09010452777147293
-0.08981482684612274
0.0031284599099308252
0.007105994038283825
0.08435467630624771
0.09146757423877716
0.09876812249422073
0.11967264860868454
0.22959557175636292
0.35960790514945984
0.22220847010612488
0.21394865214824677
0.3287792503833771
0.29567328095436096
0.0008720477926544845
-0.08500103652477264
0.1796032339334488
-0.41220739483833313
0.1646908074617386
-0.0010652388446033
0.6903269290924072
0.18372467160224915
0.05433040112257004
0.3817210793495178
0.7869042158126831
1.007861614227295
0.4422760009765625
0.426339328289032
-0.1341901570558548
-0.03740832209587097
-0.1798846423625946
0.1755029708147049
-0.16964982450008392
-0.040006544440984726
-0.23999500274658203
0.10232049226760864
0.30890974402427673
0.21050995588302612
0.3298763632774353
0.3116125762462616
0.0640629231929779
0.012234067544341087
0.02866998128592968
0.1612289845943451
-0.006715731229633093
-0.06855276972055435
-0.3499077260494232
0.08211442828178406
-0.06115030497312546
0.5263522863388062
-0.16235820949077606
-0.6634178757667542
1.208802580833435
1.1855673789978027
0.4492252469062805
0.4752390682697296
-0.28409209847450256
0.15268144011497498
-0.05203172564506531
0.04253165423870087
-0.22841273248195648
0.010242066346108913
-0.04604991525411606
0.058847807347774506
0.3852083384990692
0.3159148693084717
0.2504681348800659
0.08759193867444992
0.042073555290699005
0.21618422865867615
0.13769957423210144
-0.07955563813447952
0.004499596543610096
0.07679954171180725
-0.27833929657936096
-0.12545029819011688
0.2125418335199356
0.6258878707885742
0.17163027822971344
0.7595923542976379
2.901902198791504
1.3760945796966553
0.8004508018493652
0.4203750193119049
-0.09318473935127258
0.106013722717762
0.0062675755470991135
-0.1037425622344017
0.09020262956619263
0.14048321545124054
0.12679652869701385
0.034625884145498276
-0.15545320510864258
0.2729479968547821
0.245509073138237
0.03001796267926693
0.08514595031738281
0.1185489073395729
0.12096882611513138
0.03954295068979263
-0.0655035451054573
0.06628574430942535
-0.12804704904556274
-0.34907177090644836
-0.15077926218509674
0.6210456490516663
0.9817652106285095
0.6601452827453613
3.20589017868042
1.602756142616272
0.23243921995162964
-0.07193577289581299
0.1346031129360199
0.21419361233711243
0.1743713915348053
0.09613155573606491
0.08297748863697052
0.08408336341381073
-0.10550770908594131
-0.23236295580863953
-0.2068461924791336
0.019306862726807594
0.23206061124801636
0.32561326026916504
0.007408407051116228
0.17876702547073364
0.17275142669677734
-0.005366927478462458
0.10400792211294174
0.514164388179779
-0.06147827208042145
-0.6610012650489807
-0.0671418234705925
-0.4434254765510559
-0.07349295914173126
0.9010956883430481
0.40676215291023254
1.2663788795471191
0.1520647555589676
-0.25276339054107666
-0.06886574625968933
0.23562251031398773
0.3680151700973511
0.11604180186986923
0.03001304715871811
-0.0896293967962265
0.03254137933254242
-0.04525665193796158
-0.31745272874832153
0.46809378266334534
0.328104168176651
0.03236375376582146
0.14778228104114532
0.22431111335754395
0.09230592101812363
0.4481498897075653
0.3299701511859894
0.8063461184501648
0.36288830637931824
-0.5319206118583679
-0.8887209892272949
-0.6938233971595764
-0.389879435300827
0.6919325590133667
0.9211611151695251
1.0580463409423828
0.383919358253479
-0.12956620752811432
0.2632841467857361
-0.1332094371318817
-0.09891357272863388
-0.13703614473342896
-0.105496846139431
-0.26320743560791016
-0.03482464328408241
-0.38722342252731323
-0.45146068930625916
0.34886640310287476
0.13425536453723907
0.213633194565773
0.1611160784959793
0.26239651441574097
0.4075396955013275
0.2993585765361786
0.14640921354293823
0.1261056363582611
-0.09243614971637726
-0.157268688082695
-0.16587941348552704
-0.1265968680381775
0.9712217450141907
0.4093356430530548
-0.09587473422288895
1.087996244430542
0.03852861002087593
0.25342443585395813
0.027686482295393944
-0.13592785596847534
-0.04289206489920616
-0.06428984552621841
-0.018341761082410812
-0.3012086749076843
-0.2644425630569458
-0.48265278339385986
0.049623340368270874
0.5574992299079895
0.2547994554042816
0.1788138747215271
0.18580567836761475
0.5110016465187073
0.1936825066804886
0.12481517344713211
-0.21946008503437042
-0.5288122892379761
-1.1881996393203735
-0.6117766499519348
-0.11138506233692169
-0.14343251287937164
0.009791647084057331
-0.17021778225898743
-0.35660162568092346
0.7294247150421143
0.2518827021121979
0.05321085453033447
-0.40758293867111206
-0.18790027499198914
-0.09742437303066254
-0.18312275409698486
-0.4241134524345398
-0.4731752276420593
-0.2828666865825653
-0.241298645734787
0.2058960199356079
0.20467807352542877
0.2915686368942261
0.13115763664245605
0.20817197859287262
0.13612502813339233
-0.13622304797172546
-0.2635270357131958
-0.4521200656890869
-0.5502876043319702
-0.5292516350746155
-0.5978545546531677
-0.2087443619966507
0.0035714900586754084
-0.1861126571893692
0.09197019040584564
-0.4646705090999603
0.01864810474216938
0.4778831899166107
-0.31491994857788086
-0.2499145120382309
-0.046654704958200455
-0.35023999214172363
-0.2795999348163605
-0.4884940981864929
-0.22552408277988434
-0.09149680286645889
-0.03483906388282776
0.27942734956741333
0.19295553863048553
0.14094717800617218
0.16889570653438568
0.01984783448278904
0.044992804527282715
-0.23846040666103363
-0.22394312918186188
-0.23274992406368256
-0.24326176941394806
-0.3027384281158447
0.17649832367897034
0.0072344327345490456
-0.02130839042365551
0.14927765727043152
0.3486730456352234
0.07822370529174805
0.10202457010746002
0.4518164396286011
-0.05520590394735336
-0.18838326632976532
-0.21717505156993866
-0.18903931975364685
-0.17630386352539062
-0.11815038323402405
0.022924277931451797
-0.09041883051395416
0.24247971177101135
0.004968313034623861
0.13436593115329742
0.07853469252586365
0.11416420340538025
-0.06708253920078278
-0.1952650547027588
-0.17411378026008606
-0.029536589980125427
-0.0930403545498848
0.07996096462011337
-0.1165398582816124
-0.037918612360954285
-0.14044027030467987
-0.018740981817245483
-0.9254827499389648
0.06848181039094925
0.5523309707641602
-0.17708119750022888
0.012068692594766617
0.08904462307691574
-0.23924531042575836
-0.4161737263202667
-0.14270144701004028
0.26078706979751587
0.19438695907592773
0.09062314033508301
0.04490257427096367
0.18621666729450226
0.19624975323677063
0.14512380957603455
0.0624614916741848
-0.2650144398212433
-0.20616653561592102
-0.3898163437843323
-0.3076130449771881
-0.24563919007778168
-0.10325314104557037
0.0533212274312973
0.1713983416557312
0.258614182472229
-0.29456019401550293
0.12774446606636047
-0.19416603446006775
0.8553977012634277
0.3985339105129242
0.2766910493373871
0.24396230280399323
-0.31228554248809814
-0.13096702098846436
-0.10862034559249878
-0.13500522077083588
-0.17786560952663422
0.06917019188404083
-0.046877987682819366
0.08012566715478897
-0.24569331109523773
0.2582620680332184
0.19095304608345032
-0.19968952238559723
-0.14619624614715576
-0.13588625192642212
-0.04327121376991272
-0.14709942042827606
-0.027612775564193726
-0.08494190871715546
0.054788488894701004
-0.21846169233322144
-0.2899448871612549
0.17147861421108246
0.04893102869391441
0.7556555271148682
0.40040111541748047
0.6207849383354187
-0.4567728042602539
0.15779027342796326
-0.1835976243019104
-0.13151448965072632
-0.004739751573652029
0.17061752080917358
-0.19361282885074615
-0.021618016064167023
-0.2686833143234253
-0.3568849265575409
-0.23658427596092224
-0.03146689012646675
-0.19612577557563782
-0.06626245379447937
0.0066011156886816025
-0.04554960876703262
-0.07851146161556244
-0.034688547253608704
-0.12338010221719742
-0.14917832612991333
0.1209770068526268
0.3043656051158905
0.04359547793865204
0.2794837951660156
-0.22763143479824066
0.6267186999320984
0.08455999940633774
0.2332638055086136
-0.5559046268463135
0.32591384649276733
0.3857342004776001
-0.4015446901321411
-0.06078392267227173
0.006909196265041828
-0.062303297221660614
-0.07498767226934433
-0.11201293766498566
-0.12432920932769775
-0.18073946237564087
-0.25179579854011536
-0.1850021779537201
-0.32286420464515686
-0.16609324514865875
-0.1764744371175766
-0.21558690071105957
-0.03704018518328667
0.031055517494678497
-0.17653213441371918
0.003147339215502143
0.1058359146118164
-0.04186967387795448
-0.352268248796463
-0.08009374886751175
0.42642322182655334
0.40149614214897156
0.615183413028717
0.02367197535932064
0.016144679859280586
-0.17429335415363312
-0.17058482766151428
0.018844526261091232
-0.12645307183265686
0.0033127518836408854
-0.09598534554243088
-0.07410871982574463
-0.18057675659656525
-0.07349742949008942
-0.07378160208463669
-0.12510856986045837
-0.29765644669532776
-0.22429801523685455
-0.31504786014556885
-0.11734283715486526
0.034622035920619965
0.18360722064971924
0.10346510261297226
-0.2333519607782364
-0.4080624282360077
0.12325434386730194
0.44097810983657837
-0.816585123538971
-0.011506892740726471
0.40888461470603943
0.3368290066719055
0.02707023173570633
0.20299825072288513
0.01705327443778515
0.5678835511207581
-0.06732101738452911
0.090711809694767
-0.015477054752409458
-0.14720959961414337
-0.05743030831217766
-0.10797066241502762
-0.21024365723133087
-0.181422621011734
0.1551275998353958
0.016560902819037437
-0.14625878632068634
-0.13669519126415253
-0.3832470774650574
-0.23573477566242218
-0.32927921414375305
0.016591276973485947
-0.39928945899009705
-0.36661937832832336
0.12604285776615143
0.4713478684425354
-0.3643063008785248
0.024289816617965698
0.017510555684566498
-0.08643770962953568
-0.1335228532552719
-0.40600964426994324
-0.2254069298505783
-0.37957748770713806
-0.21316418051719666
-0.13069044053554535
0.12655898928642273
-0.19377504289150238
-0.17674273252487183
-0.06964690238237381
0.007703159004449844
0.07654962688684464
-0.05623183771967888
-0.10594155639410019
0.0692393109202385
0.1328369677066803
0.0018048480851575732
-0.42761948704719543
-0.7036185264587402
0.011483224108815193
0.081979900598526
0.003914764150977135
0.5398373603820801
-0.43216249346733093
0.4243260622024536
-0.005435824394226074
0.07135733217000961
0.053176529705524445
0.6163984537124634
-0.42580080032348633
0.45609626173973083
0.6832273006439209
-0.10747885704040527
-0.19801229238510132
0.03036338835954666
-0.24825264513492584
-0.0362265408039093
0.024271098896861076
-0.1445615440607071
-0.1039811223745346
-0.26319825649261475
0.22449342906475067
-0.11125744879245758
-0.16156195104122162
-0.2947968542575836
0.20566126704216003
0.05616675689816475
0.21129368245601654
0.06069771945476532
0.3606168031692505
0.28684061765670776
-0.7878465056419373
0.49451032280921936
0.08015146106481552
0.002360329031944275
0.039333976805210114
0.12810371816158295
-0.13955765962600708
-0.4354798495769501
1.0593265295028687
0.37053465843200684
0.21940550208091736
0.31434667110443115
0.22658850252628326
0.03180887550115585
0.1216311976313591
0.308891624212265
0.1357041597366333
0.39967772364616394
-0.165318101644516
0.19659030437469482
0.33687859773635864
0.5959740877151489
0.7744317054748535
1.321435570716858
0.7973626852035522
0.003043839242309332
0.3552956283092499
0.5178968906402588
0.29365074634552
-0.07081908732652664
-0.05595679208636284
0.020933419466018677
-0.07255811989307404
-0.020267069339752197
0.5513342022895813
0.175233393907547
0.37998253107070923
0.8259091973304749
2.7484538555145264
2.4857983589172363
2.467435598373413
2.0656912326812744
1.93252432346344
1.4572365283966064
1.8266382217407227
2.2665977478027344
1.348562240600586
1.752225399017334
1.1446850299835205
1.180048942565918
1.252841830253601
0.8939809203147888
1.0732783079147339
1.1778961420059204
1.1382545232772827
-0.4749177396297455
0.5706311464309692
-0.04912058264017105
0.014314599335193634
0.05262679606676102
0.06169386953115463
0.0495854988694191
-0.017385438084602356
1.0767292976379395
1.485504388809204
2.3061859607696533
2.700589179992676
3.4916481971740723
4.275235176086426
1.8400893211364746
0.9815278053283691
1.2304400205612183
3.1202094554901123
6.285763263702393
5.6655097007751465
5.258174896240234
5.175026893615723
3.233093738555908
2.141860008239746
0.7366116046905518
0.7792832851409912
0.9379213452339172
1.0329785346984863
-0.04089941084384918
-0.0017891302704811096
0.000615730881690979
0.014194414019584656
