-0.07876446098089218
-0.061886340379714966
0.0015629082918167114
-0.028406918048858643
0.00408586859703064
0.0004188641905784607
-0.0005445182323455811
0.03902972489595413
-0.013352543115615845
0.07650487869977951
-0.02437182515859604
-0.03221879526972771
0.2489463984966278
0.5599557161331177
0.7912973165512085
0.6325397491455078
0.0424678698182106
-0.048223789781332016
-0.04370719939470291
0.07482599467039108
0.07341758161783218
0.03151483088731766
0.013079315423965454
0.04193536192178726
0.06266634911298752
-0.07830348610877991
0.028920933604240417
0.03007538616657257
0.025902152061462402
0.07421834021806717
0.028216823935508728
0.08239414542913437
0.10653140395879745
0.0037695826031267643
0.5019605159759521
0.2619536817073822
-0.4194656312465668
-0.6876606345176697
-0.20042912662029266
0.19460158050060272
0.1601990908384323
-0.32951247692108154
0.014625705778598785
0.8187335729598999
1.155888557434082
0.3324108421802521
0.062136415392160416
0.28537482023239136
0.5502796769142151
-1.077295200957451e-05
0.15164989233016968
0.3250560760498047
-0.02950982376933098
0.05305606871843338
-0.04860870540142059
0.07656914740800858
0.06813506036996841
-0.010083794593811035
0.28867611289024353
0.04186582192778587
0.025848492980003357
0.2962958812713623
-0.025586267933249474
0.002507851691916585
-0.04344194009900093
-0.05629333481192589
-0.05056178197264671
0.43467527627944946
0.675061821937561
0.15693773329257965
0.21706010401248932
0.6198249459266663
0.49757182598114014
0.33211231231689453
0.5986501574516296
0.3480898439884186
0.4069233536720276
0.5749402046203613
0.5396825671195984
0.6830706596374512
1.0503544807434082
0.718914270401001
0.04296136647462845
-0.08518489450216293
-0.028540823608636856
0.05134882777929306
0.17300041019916534
0.5011871457099915
0.37632328271865845
0.8047933578491211
0.8055921196937561
0.6616610288619995
0.5429357290267944
0.7848440408706665
0.6362530589103699
0.46960553526878357
0.24208544194698334
0.6535159349441528
-0.06976799666881561
0.3467312753200531
0.23310722410678864
-0.05889875814318657
0.3487299680709839
0.2949940264225006
0.17957183718681335
0.36124297976493835
-0.11914767324924469
-0.6023856401443481
-0.4337635338306427
0.3097139894962311
0.2895774841308594
-0.03566136583685875
0.07830750197172165
0.0281250961124897
0.2189456969499588
0.3745132088661194
0.06989862769842148
0.39035868644714355
0.31776878237724304
0.1980469524860382
0.013329723849892616
0.08227193355560303
0.14607425034046173
-0.0509454607963562
0.15026257932186127
0.14298710227012634
0.18545791506767273
0.2829286456108093
0.2801860272884369
0.09353294968605042
0.09622617065906525
-0.1256767213344574
0.112543486058712
-0.22247636318206787
-0.8809835910797119
-1.4612091779708862
-1.5949461460113525
-0.09953728318214417
0.8100407719612122
0.41168835759162903
0.00886855274438858
-0.08615866303443909
1.070854902267456
0.5342281460762024
0.5356957316398621
0.024783356115221977
-0.41494596004486084
0.18697549402713776
-0.14086706936359406
-0.08035775274038315
-0.02390509843826294
-0.0635102316737175
0.07976776361465454
-0.021206768229603767
0.07311078906059265
0.16307292878627777
0.23882532119750977
0.10668989270925522
-0.15354500710964203
-0.17333632707595825
-0.02717505767941475
0.30780789256095886
-0.14244407415390015
-0.3904550075531006
-0.17300233244895935
0.24523603916168213
0.646690845489502
0.20516805350780487
-0.044692203402519226
0.3448406457901001
-0.5265329480171204
0.15814033150672913
0.5645650625228882
0.1556425243616104
-0.13005222380161285
-0.025868458673357964
0.0634450912475586
-0.012853681109845638
0.021759619936347008
0.03492453694343567
0.09522431343793869
-0.20638206601142883
-0.001827044179663062
0.09406078606843948
-0.1197129562497139
-0.2282688021659851
-0.030760377645492554
-0.08732549101114273
-0.19282621145248413
-0.32056280970573425
-0.2795807123184204
-0.2282561957836151
-0.06236662343144417
0.5281206965446472
0.21695762872695923
0.37126559019088745
-0.006379075814038515
0.24721470475196838
-0.11008995771408081
0.030741894617676735
0.6187140941619873
0.03899649903178215
0.057742100208997726
0.03635793179273605
0.32165247201919556
-0.16401644051074982
0.0424637496471405
-0.04194259271025658
-0.05335065349936485
-0.06070229038596153
-0.19787761569023132
0.027289485558867455
-0.15133006870746613
-0.059112079441547394
-0.1262671798467636
-0.11345675587654114
-0.10614258795976639
-0.11658868193626404
0.4365343451499939
-0.2436029613018036
0.02366357482969761
0.06032444164156914
0.4497494399547577
0.13452725112438202
0.024428239092230797
0.5250630974769592
0.009905095212161541
-0.10754825919866562
0.5239706039428711
-0.18486683070659637
0.18052653968334198
0.036228809505701065
-0.13759104907512665
-0.088524229824543
0.1752707064151764
-0.029402688145637512
-0.036080315709114075
0.27676820755004883
0.20294524729251862
-0.06145768240094185
-0.2445375770330429
0.07100439816713333
-0.17862927913665771
0.13110120594501495
0.05185399949550629
-0.3744161128997803
0.22151243686676025
-0.12470468133687973
-0.07532641291618347
0.2672514319419861
0.9602216482162476
0.6839542388916016
0.019978486001491547
0.18585622310638428
-0.26335766911506653
-0.02661319449543953
0.2637878656387329
0.37148553133010864
-0.08415699750185013
-0.013906777836382389
0.07067812234163284
0.11896853148937225
-0.026612039655447006
-0.05596642568707466
-0.17053267359733582
-0.22832469642162323
0.11751221865415573
-0.01924525573849678
-0.006270484067499638
-0.006595882121473551
-0.2582559287548065
-0.3405272960662842
0.010745082050561905
-0.34252968430519104
-0.16098421812057495
0.24361397325992584
0.3215901553630829
0.09653176367282867
0.9568557739257812
-0.6918092370033264
0.15051069855690002
0.4110681414604187
-0.000518990505952388
-0.46629223227500916
0.24687817692756653
0.13998901844024658
0.3709334433078766
0.28933191299438477
0.2412496954202652
-0.0634782463312149
0.03644294664263725
-0.016355790197849274
-0.337809681892395
-0.5565150380134583
-0.1127421110868454
-0.31972867250442505
-0.10224760323762894
-0.17727112770080566
-0.0376160591840744
-0.0744108334183693
-0.039552927017211914
-0.05827869474887848
-0.20938874781131744
-0.21958833932876587
0.1480594426393509
0.04027261212468147
-0.3291199207305908
-0.4508175551891327
0.30068084597587585
0.41674163937568665
0.09062807261943817
-0.38176149129867554
0.16993670165538788
0.2680015563964844
0.5350916385650635
0.33868980407714844
-0.038181547075510025
-0.38822606205940247
-0.7008007168769836
-0.47538602352142334
-0.5122124552726746
-0.6364306807518005
0.021272288635373116
-0.29074549674987793
-0.17552290856838226
-0.1768091470003128
0.08647090941667557
-0.1342736780643463
-0.30587875843048096
-0.14625273644924164
-0.030027201399207115
0.1925601214170456
0.2798878848552704
0.4047127664089203
0.6175136566162109
0.23564565181732178
0.07410479336977005
0.15653099119663239
0.3662208020687103
-0.0957409217953682
-0.2775637209415436
-0.2974855303764343
-0.6707166433334351
-0.8185335397720337
-1.1384613513946533
-0.7628394365310669
-0.47586461901664734
-0.41058364510536194
-0.36924704909324646
-0.1346205770969391
0.4128875434398651
-0.155458003282547
-0.10712336003780365
-0.17528951168060303
-0.042046863585710526
-0.03314371034502983
0.035231925547122955
0.00618659146130085
-0.3470667600631714
0.18407373130321503
0.2898063063621521
0.568928062915802
0.690420389175415
0.09404315054416656
0.4219401776790619
0.28441551327705383
0.8863310813903809
0.022964850068092346
-1.6030089855194092
-1.8909776210784912
-2.440410614013672
-1.3891990184783936
-0.7233189344406128
-0.17262805998325348
-0.25633329153060913
-0.14965561032295227
-0.15726543962955475
0.31771549582481384
0.42466628551483154
0.010420209728181362
-0.03303798660635948
-0.01586034707725048
0.0041248612105846405
-0.0338355116546154
-0.00106121099088341
-0.37776312232017517
-0.4516737461090088
-0.11280172318220139
-0.44594335556030273
-0.1126493588089943
1.2456568479537964
0.23014338314533234
0.0017462298274040222
-0.33623552322387695
0.41447189450263977
-0.38218021392822266
-1.627442479133606
-1.8540749549865723
-1.3005995750427246
-0.6455047726631165
-0.2799595296382904
-0.03762737661600113
-0.08039731532335281
0.09044747054576874
-0.040445100516080856
0.328922301530838
0.3015214800834656
-0.06872836500406265
0.03060932643711567
-0.015079902485013008
-0.042014848440885544
-0.01792898215353489
-0.2742694914340973
-0.19633443653583527
0.07014627754688263
-0.24309620261192322
-0.8127580881118774
-0.07457242161035538
2.5173699855804443
0.8932374715805054
0.04915826767683029
-0.27258995175361633
-0.2270713746547699
-0.023321164771914482
-0.6331239938735962
0.229781374335289
0.3765106499195099
0.06436949968338013
-0.029334496706724167
-0.0724853053689003
-0.23286579549312592
-0.11930001527070999
0.11294035613536835
0.6285913586616516
0.3455927073955536
0.016505051404237747
-0.0938471108675003
-0.15942540764808655
-0.09270164370536804
-0.19008766114711761
-0.315794974565506
0.02577863819897175
-0.2414199858903885
-0.40357518196105957
0.12926724553108215
0.5137145519256592
1.1655974388122559
1.7288604974746704
-0.08660168945789337
0.1389252096414566
-0.23149196803569794
0.4572118818759918
-0.07601284980773926
0.3005742132663727
0.4134775400161743
0.20092377066612244
-0.17806148529052734
0.004245629534125328
0.19561055302619934
0.11292975395917892
0.3974675238132477
0.414929062128067
0.4442313313484192
-0.01858280599117279
0.13161592185497284
-0.07451899349689484
-0.13999386131763458
-0.18110083043575287
-0.041278403252363205
0.07641160488128662
-0.08090347796678543
0.42193663120269775
0.41740965843200684
0.9073083400726318
0.970542311668396
1.6802750825881958
-0.038936518132686615
0.06555140018463135
-0.3483719229698181
0.5088469386100769
0.14652372896671295
0.18931233882904053
0.07689554989337921
-0.020784709602594376
-0.009782488457858562
-0.015706181526184082
0.12110525369644165
0.07170943170785904
0.22912824153900146
0.3839256763458252
0.28707680106163025
0.07874363660812378
-0.11500164121389389
-0.12876422703266144
-0.0402938649058342
0.2788701355457306
0.061729706823825836
0.15661248564720154
-0.018152371048927307
-0.03737735003232956
-0.2649245858192444
0.6443672776222229
0.9971082210540771
1.610224723815918
0.032958608120679855
0.22352464497089386
-0.6814730167388916
0.5504409074783325
0.18960300087928772
0.23333100974559784
0.08418424427509308
0.15883727371692657
-0.046310994774103165
0.15681681036949158
0.16206617653369904
0.13165387511253357
0.31751763820648193
0.2987826466560364
0.15730902552604675
0.12734545767307281
0.15646490454673767
0.22267335653305054
0.05013151839375496
0.05324993282556534
0.06276824325323105
0.009669198654592037
0.050140876322984695
-0.06420443952083588
0.21169129014015198
1.4803745746612549
1.3094063997268677
1.225056767463684
0.2373814582824707
0.0823320597410202
-0.3488248884677887
-0.3370470106601715
0.0889221578836441
-0.13570277392864227
-0.06486428529024124
0.16878990828990936
-0.03101893700659275
0.33104488253593445
0.36726242303848267
0.05279340222477913
-0.02041144110262394
0.23097507655620575
0.2925436794757843
0.23764877021312714
0.16676437854766846
0.38300079107284546
0.18085238337516785
0.11705377697944641
0.1956673264503479
-0.004084124695509672
0.29730719327926636
0.11472298949956894
0.40308669209480286
1.6907949447631836
2.8809006214141846
0.909504234790802
0.005988948047161102
0.07163679599761963
-0.20300839841365814
0.3304806351661682
0.5380449295043945
-0.06339532881975174
0.3421300947666168
0.2769700586795807
0.2666386663913727
0.2232879400253296
0.22793793678283691
0.4277583062648773
0.052252888679504395
0.09313814342021942
0.02850973606109619
0.09662754088640213
0.16007716953754425
0.123113714158535
0.2986544370651245
0.014572886750102043
0.3333761394023895
0.2308921217918396
0.4308035671710968
0.49334612488746643
0.5495821237564087
1.190039873123169
1.9954582452774048
0.4019274413585663
0.31463930010795593
0.44533345103263855
0.48450034856796265
0.33140823245048523
0.17968648672103882
-0.15733788907527924
0.1802406907081604
0.2379176914691925
0.035185307264328
0.23776230216026306
-0.07216301560401917
0.04654938355088234
-0.0905025452375412
0.16136357188224792
0.0029443325474858284
0.028132284060120583
0.01743217185139656
0.26712650060653687
0.2931501865386963
0.2065962255001068
-0.03148356080055237
-0.03859488293528557
0.46268782019615173
0.36099568009376526
0.6839305758476257
0.49102410674095154
1.2089489698410034
-0.09627126157283783
0.31000715494155884
0.09004020690917969
0.6883706450462341
0.22370396554470062
0.6555898189544678
0.574186384677887
0.4215061366558075
0.38838812708854675
0.1348947137594223
0.16458040475845337
0.08322508633136749
0.10205157101154327
-0.09182026237249374
0.035169780254364014
0.06991088390350342
-0.031996894627809525
-0.0958997905254364
0.0036561109591275454
-0.036851685494184494
0.22510214149951935
0.4473988711833954
0.002928700065240264
0.03207992762327194
0.19089482724666595
0.44088026881217957
-0.2890009582042694
-0.37465882301330566
-0.03065059706568718
-0.004989936947822571
-0.005213983356952667
0.610527753829956
-0.031335219740867615
0.18633410334587097
-0.007270702160894871
0.13545344769954681
0.04725614935159683
0.15421706438064575
0.005908859893679619
0.09330036491155624
0.0036072847433388233
0.07660387456417084
0.3571138381958008
0.13190791010856628
0.26677945256233215
0.3773549199104309
-0.11563682556152344
0.2590417265892029
0.21262362599372864
0.3398301303386688
0.17658782005310059
0.40219050645828247
0.7339059114456177
0.3108174502849579
-0.8262654542922974
0.2583499252796173
0.03389613330364227
0.0026810765266418457
-0.08006119728088379
0.6889961361885071
-1.1297911405563354
-0.9173895716667175
-0.6971603035926819
-0.13794420659542084
-0.4282718598842621
0.19393162429332733
0.15249037742614746
-0.016200821846723557
0.2898135185241699
0.33757779002189636
0.061115290969610214
0.11185949295759201
0.16356471180915833
0.08634889870882034
0.007843425497412682
-0.1280275285243988
0.09930428862571716
0.03692355006933212
0.13547617197036743
-0.27762117981910706
-0.10354699939489365
1.2236464023590088
0.027031684294342995
0.8995210528373718
0.014598473906517029
-0.07537378370761871
-0.036985211074352264
0.15266427397727966
-0.7321630120277405
-0.4601198136806488
-1.0165982246398926
-0.09259908646345139
-0.4572955071926117
-0.2532663941383362
-0.2069866806268692
0.027640309184789658
-0.1889100968837738
0.09005378931760788
-0.22142726182937622
-0.04423409700393677
0.17387542128562927
0.0035568715538829565
0.23135459423065186
-0.1265537142753601
0.05327759310603142
-0.01845366135239601
-0.4964379370212555
-0.5319381356239319
0.18273776769638062
-0.28862205147743225
-0.5264156460762024
0.6196129322052002
-0.05716019868850708
0.05089802294969559
-0.07441230863332748
-0.0029077455401420593
-0.04119269177317619
0.20096620917320251
-0.17828035354614258
-0.15367530286312103
0.5863337516784668
0.5004398226737976
0.36712101101875305
0.437915563583374
0.2038368284702301
0.2535364329814911
0.08432214707136154
0.3265838623046875
-0.10996044427156448
-0.23255401849746704
0.15903249382972717
0.10189002007246017
-0.09059161692857742
0.0784291997551918
-0.5225619077682495
-0.45987969636917114
0.22806836664676666
0.04876915365457535
-0.04441402480006218
-0.05043959617614746
0.050169043242931366
-0.06129477545619011
0.036255814135074615
0.0780101791024208
-0.06968313455581665
0.08967390656471252
-0.14249812066555023
0.0978645458817482
0.2145584225654602
0.31556084752082825
0.4617551267147064
0.08420109003782272
0.26300498843193054
0.5299187898635864
-0.04110512509942055
0.3471301794052124
0.5844382643699646
0.34605854749679565
0.6245574355125427
0.6857192516326904
0.5711866021156311
0.37728872895240784
-0.37217608094215393
-0.4411335289478302
-0.04286114498972893
0.03616730123758316
0.07408341020345688
0.012807168066501617
-0.05351675674319267
