0.077915258705616
0.028755605220794678
0.023170575499534607
0.07300535589456558
-0.0825132504105568
-0.08585629612207413
0.026237308979034424
0.0701017752289772
-0.08276800811290741
0.07525882869958878
0.05724359303712845
0.004622787237167358
0.06292254477739334
-0.28661441802978516
-0.5697035789489746
-0.5773715376853943
0.0483395978808403
0.039575181901454926
0.019037693738937378
-0.05704832077026367
-0.04450809583067894
0.036672212183475494
-0.03463108092546463
-0.04746906831860542
-0.013813704252243042
0.019623734056949615
0.01662479341030121
0.08348066359758377
-0.05120415985584259
-0.0669497549533844
0.009221486747264862
-0.0038616806268692017
0.141367569565773
0.5418396592140198
1.1341359615325928
1.968717098236084
2.0360310077667236
2.385526180267334
2.470916271209717
0.10833606123924255
-0.19138826429843903
0.33325672149658203
-0.11652788519859314
-0.9366897344589233
-0.49802085757255554
-0.055189505219459534
2.523742437362671
2.047637701034546
1.898148775100708
1.195419192314148
0.94660484790802
0.7062470316886902
0.012982361018657684
-0.003025449812412262
-0.07753031700849533
0.06572660058736801
-0.0008075088262557983
-0.03234327211976051
0.3786974847316742
-0.3602640628814697
-0.08760537207126617
1.600570797920227
2.2878425121307373
2.053358554840088
3.55867338180542
4.652048587799072
3.7541346549987793
2.297220468521118
1.2813491821289062
0.35463830828666687
0.6502382755279541
-0.13340798020362854
0.3980258107185364
0.8564437627792358
0.16962267458438873
0.35688188672065735
0.873199999332428
0.966896653175354
0.7494513988494873
0.6027944087982178
1.59556245803833
0.4997791051864624
-0.0662980005145073
0.006991051137447357
-0.06510331481695175
0.04536107927560806
-0.3927173614501953
-0.48171326518058777
-0.338258296251297
0.4169357717037201
0.7743003368377686
0.43489277362823486
-0.3348596692085266
0.5341242551803589
-0.2750419080257416
-0.12345067411661148
-0.31289029121398926
-0.583595335483551
-0.21665768325328827
-0.3579424023628235
-0.07591202110052109
-0.2324846386909485
-0.45632004737854004
0.15334510803222656
0.08731561154127121
0.2654072046279907
0.5793778300285339
0.41812464594841003
0.5318679213523865
0.5804165005683899
-0.017400480806827545
0.07025530189275742
0.08019062131643295
0.06596649438142776
-0.4989222586154938
-1.0711736679077148
0.434948205947876
0.14983388781547546
0.36954352259635925
0.09509611129760742
0.41628339886665344
0.23919372260570526
0.23574088513851166
0.10326538234949112
0.44419437646865845
0.2794190049171448
0.21564637124538422
-0.19912107288837433
0.2016936093568802
0.12889064848423004
-0.029646659269928932
0.030134929344058037
-0.08826106041669846
-0.4873419404029846
-0.4790925681591034
-0.3219588100910187
-0.7312524318695068
-0.35761767625808716
-0.20578688383102417
-0.03996209055185318
-0.01859058439731598
-0.006182670593261719
0.6067923903465271
-0.820792555809021
0.5435607433319092
-0.25605303049087524
0.07340075820684433
0.2774832844734192
0.21304552257061005
0.434708833694458
0.31178662180900574
0.0494096502661705
0.13712817430496216
-0.2532860338687897
0.09305603057146072
-0.1578214317560196
-0.10371185839176178
0.1101585254073143
0.014364007860422134
-0.04594048857688904
0.08119324594736099
0.11283726245164871
-0.4427100718021393
0.18788215517997742
-0.2370467633008957
-0.14409177005290985
-0.5717368125915527
0.07635451853275299
-0.010544605553150177
-0.1413935124874115
0.17183484137058258
-0.48976966738700867
0.7690762877464294
0.12588199973106384
-0.4251178205013275
0.06444516032934189
-0.17382889986038208
-0.19740475714206696
-0.30002617835998535
-0.12571685016155243
-0.10186951607465744
-0.23455724120140076
-0.19374336302280426
0.07728692889213562
-0.13767006993293762
-0.07395916432142258
-0.04073275998234749
-0.23097866773605347
-0.3600512444972992
-0.0910564512014389
-0.1683841198682785
-0.06251003593206406
-0.054978709667921066
-0.05848301947116852
-0.16272298991680145
-0.7278106808662415
0.06864669173955917
-0.10984911024570465
0.5391802787780762
-0.6230375170707703
0.2603631913661957
-0.22500380873680115
-0.06412298232316971
-0.2716871500015259
-0.20870184898376465
-0.24395257234573364
-0.34718140959739685
-0.0820598229765892
-0.33345359563827515
-0.009442399255931377
-0.1636628359556198
-0.07937240600585938
-0.07291090488433838
-0.031839776784181595
-0.27429184317588806
-0.088357113301754
-0.20824170112609863
-0.31871485710144043
0.05447280779480934
-0.29843607544898987
-0.048160143196582794
-0.045100998133420944
0.160203754901886
-0.8924160599708557
-0.6860887408256531
0.08620300889015198
0.47217223048210144
-0.5816550850868225
-0.2921953499317169
-0.020953264087438583
0.005341858137398958
-0.27325135469436646
-0.31305238604545593
0.04895314946770668
-0.20946460962295532
-0.31836146116256714
-0.21856044232845306
-0.11733727157115936
-0.24910198152065277
-0.32126033306121826
-0.24991561472415924
-0.28569844365119934
-0.34466153383255005
-0.14718465507030487
-0.09133497625589371
-0.06338225305080414
-0.30510345101356506
-0.42268258333206177
-0.5061911940574646
-0.009018988348543644
0.09758901596069336
-0.4804631471633911
-0.006739283446222544
-0.37482717633247375
-0.07473890483379364
-0.09418433159589767
-0.164287269115448
-0.4886287450790405
-0.21624760329723358
-0.2798921465873718
-0.27718034386634827
-0.12438014149665833
-0.030799366533756256
-0.2604576051235199
-0.15866582095623016
-0.20510053634643555
-0.19968202710151672
-0.11212444305419922
-0.1940145343542099
-0.3178917467594147
-0.07928153872489929
-0.24653175473213196
-0.1523991972208023
-0.17196716368198395
-0.10172025114297867
-0.2964872121810913
-0.8700487017631531
-0.47852396965026855
-0.45375436544418335
-0.24856692552566528
-0.09792938083410263
-0.4352758824825287
-1.043273687362671
-0.5408931374549866
-0.380838006734848
-0.07592377811670303
-0.10198128968477249
-0.064851775765419
-0.01682131178677082
-0.22471776604652405
-0.027135608717799187
-0.06018303707242012
0.014345492236316204
-0.2539742588996887
-0.33168190717697144
-0.5074915289878845
-0.29832595586776733
-0.05961918830871582
-0.006389461923390627
-0.0693432167172432
-0.20698124170303345
-0.22625599801540375
-0.013308858498930931
-0.18206101655960083
-0.7262897491455078
-1.0076638460159302
-1.0195223093032837
-0.6443983316421509
-0.05818545073270798
-0.8344976305961609
-0.4196353554725647
-0.35330119729042053
-0.47355014085769653
0.32236331701278687
-0.09505624324083328
-0.029537295922636986
-0.03092673420906067
0.12489121407270432
-0.014542486518621445
-0.22854486107826233
-0.17322398722171783
-0.6398556232452393
-0.5071496367454529
-0.5097170472145081
-0.08583833277225494
-0.13837830722332
-0.06809806823730469
2.5216919311787933e-05
-0.013812249526381493
-0.03053605929017067
-0.19006140530109406
-0.16810423135757446
-0.5595780611038208
-0.7854803204536438
-1.1598126888275146
-0.958577573299408
0.0020425356924533844
-0.1983647495508194
-0.036354027688503265
-0.5873416662216187
-0.2903017997741699
0.0027786623686552048
-0.24010562896728516
0.04243134707212448
-0.04962170869112015
0.023939654231071472
-0.07961824536323547
-0.05578943341970444
-0.23200008273124695
-0.4486788809299469
-0.17788487672805786
-0.05149044468998909
0.2315528690814972
-0.031804706901311874
-0.04894218221306801
0.25379815697669983
-0.049956537783145905
0.21971869468688965
0.2484181672334671
-0.43650177121162415
0.4737723767757416
0.12546737492084503
-1.1803008317947388
-0.9467275142669678
-0.01050650980323553
-0.189602330327034
-0.1000523790717125
-0.4403495788574219
-0.14968770742416382
-0.08236466348171234
0.05631938949227333
0.034407589584589005
0.16003765165805817
0.048618387430906296
0.20270197093486786
0.22748331725597382
-0.1713097244501114
0.06341689825057983
0.09827432036399841
0.2144778072834015
0.20208804309368134
0.22749175131320953
0.2611566185951233
0.2413688749074936
-0.026134606450796127
0.21525175869464874
-0.14271807670593262
-0.010547625832259655
-0.06842487305402756
-0.21933822333812714
-0.3774876892566681
0.414079487323761
-0.019558154046535492
0.24909132719039917
-0.5129615068435669
0.677772581577301
0.9146624207496643
0.031911663711071014
0.28314122557640076
0.172135129570961
0.20817190408706665
0.336792916059494
0.22099705040454865
0.4852646291255951
0.21141895651817322
0.06606502830982208
0.21238771080970764
0.03694350644946098
0.2324284464120865
0.18125011026859283
0.14656519889831543
0.084689661860466
-0.012676099315285683
-0.09375208616256714
-0.20123399794101715
0.20175892114639282
-0.27022796869277954
0.40821683406829834
0.807830810546875
0.8517120480537415
-0.08064482361078262
0.6573551893234253
-0.7670665979385376
0.8361683487892151
0.07197869569063187
0.05275730788707733
0.3266714811325073
0.17919063568115234
0.06284785270690918
0.1582309454679489
0.034264471381902695
0.34741339087486267
0.2485734522342682
0.22855491936206818
0.10673265159130096
0.15124604105949402
0.3508957624435425
0.2156665027141571
-0.1401369422674179
0.14259549975395203
-0.27740320563316345
-0.15406303107738495
-0.04071126505732536
-0.34072160720825195
-0.28019213676452637
0.6740671992301941
1.91737961769104
0.9284530282020569
0.049757398664951324
-0.006536252796649933
-0.4433092176914215
0.1058444082736969
-0.4313898980617523
0.19125114381313324
0.25446435809135437
0.15603592991828918
0.0637504979968071
0.00995434820652008
0.3095563054084778
0.5037823915481567
0.14206501841545105
0.19916556775569916
0.14372685551643372
0.34708985686302185
0.3322991132736206
0.3371543288230896
-0.04451330751180649
-0.019221989437937737
-0.13431797921657562
0.13125479221343994
-0.0019233210477977991
-0.3987632393836975
0.3169194757938385
1.707448959350586
0.8478620052337646
-0.146098330616951
-0.061180390417575836
-0.3114870488643646
0.41387394070625305
-0.10430872440338135
-0.14343969523906708
-0.20260806381702423
-0.10013169050216675
0.1069984883069992
0.32173284888267517
0.0009755992796272039
0.16088472306728363
0.4116230010986328
-0.06863601505756378
0.33299753069877625
0.2559552490711212
0.2899531424045563
0.20462743937969208
-0.05288650467991829
0.07764942944049835
-0.04877886921167374
0.007185291964560747
0.3595026433467865
-0.10401240736246109
-0.15328657627105713
-0.6309766173362732
1.4598844051361084
0.07637830823659897
-0.6048710346221924
0.015544483438134193
-0.27554047107696533
-0.7143458127975464
0.24763654172420502
0.06323603540658951
0.0825020968914032
0.20099323987960815
0.09969466924667358
0.1383182406425476
0.13518847525119781
0.17042556405067444
-0.049117423593997955
0.2944079339504242
0.1719949096441269
0.2809785306453705
0.10044806450605392
0.2518771290779114
0.08050058037042618
0.03774134814739227
0.09662217646837234
0.05545077100396156
0.0880335196852684
-0.08495530486106873
0.452011376619339
0.43998461961746216
1.760265827178955
0.4585944414138794
0.37565794587135315
-0.024792198091745377
-0.6209863424301147
-0.760538637638092
-0.011461425572633743
-0.009454889222979546
0.2174409031867981
-0.12002101540565491
0.1195836290717125
-0.1870117336511612
-0.11140970140695572
-0.0017978083342313766
0.30327311158180237
-0.1250707060098648
0.19672536849975586
0.2183937281370163
0.28826314210891724
0.15618199110031128
0.12997032701969147
0.3273458182811737
0.08227714896202087
0.008847794495522976
0.3442123830318451
0.05359843000769615
0.38969576358795166
0.41971832513809204
0.8739910125732422
0.8434546589851379
0.09260677546262741
0.0034048110246658325
-0.5924636125564575
-0.4043915867805481
-0.18376867473125458
-0.04489213228225708
0.1720207929611206
-0.16390155255794525
0.15407909452915192
-0.05051414668560028
-0.07466985285282135
-0.18670746684074402
0.04413142055273056
-0.11341293156147003
-0.11927465349435806
0.0967293307185173
0.3638148903846741
0.3339386582374573
0.25510871410369873
0.4005647301673889
0.340712308883667
0.11192397773265839
0.06379177421331406
-0.22164195775985718
0.1948121190071106
0.729853093624115
0.2676156163215637
0.5070024728775024
-0.08125998079776764
0.014572158455848694
0.528937578201294
-0.6040039658546448
-0.15985217690467834
0.07477550953626633
0.2075163722038269
-0.2851864695549011
0.004512524697929621
-0.02319764532148838
-0.15282142162322998
-0.1554856300354004
0.01597166806459427
0.0501742884516716
0.0036386847496032715
-0.01989850401878357
-0.038730960339307785
0.17025186121463776
0.271950900554657
0.10582780092954636
0.17719611525535583
0.3742244243621826
0.2568032741546631
0.3387167751789093
0.6443508267402649
0.5808672904968262
0.19920365512371063
-0.1060173287987709
0.06166236847639084
-0.06134051829576492
0.05680512636899948
0.38653841614723206
0.3823305666446686
0.49796009063720703
-0.028673425316810608
-0.13487356901168823
-0.004762120544910431
-0.058470021933317184
-0.15037547051906586
-0.0669470727443695
-0.24901023507118225
-0.16548079252243042
-0.0890316441655159
-0.41349831223487854
-0.5070372223854065
-0.33344724774360657
-0.3672645390033722
-0.36188891530036926
0.14577873051166534
0.144103541970253
0.16106098890304565
0.4120810925960541
-0.37462347745895386
0.2936832308769226
-0.6315385103225708
-0.7583897113800049
0.025327667593955994
-0.048783089965581894
-0.06261631846427917
-0.046549566090106964
0.37564265727996826
0.13450942933559418
-0.05863924324512482
-0.30154380202293396
0.10755594819784164
0.08506651967763901
-0.21929165720939636
-0.3999859690666199
-0.17991741001605988
-0.550436794757843
-0.5759396553039551
-0.26303747296333313
-0.49571821093559265
-0.6324344873428345
-0.5594836473464966
-0.4218231737613678
-0.41801977157592773
-0.3558979034423828
-0.2269764393568039
0.3171049654483795
-0.4096522033214569
0.07130510360002518
-0.42710453271865845
-0.30411285161972046
-0.05614572763442993
-0.03480374440550804
0.06241876631975174
-0.0873601958155632
-0.5871909260749817
-0.12532728910446167
-0.15827542543411255
-0.7573375105857849
-0.23662181198596954
-0.16013170778751373
-0.1878022700548172
-0.18608440458774567
0.10278115421533585
-0.11033115535974503
-0.015605702996253967
0.08564246445894241
-0.055356040596961975
0.23701359331607819
0.19701607525348663
0.042228586971759796
0.16300338506698608
0.07584404945373535
0.13635669648647308
0.3605167865753174
0.3090992569923401
0.24933914840221405
1.2177759408950806
0.5915678143501282
-0.022366508841514587
0.05175838619470596
0.036119505763053894
0.5310134887695312
-0.1488087922334671
0.43864840269088745
0.23391282558441162
0.6499557495117188
0.24029752612113953
0.3227212429046631
0.32259243726730347
0.33259117603302
0.1539173573255539
0.29498082399368286
0.22274132072925568
0.2067672610282898
0.11672705411911011
0.6348377466201782
0.2842784523963928
0.4911768138408661
0.39915335178375244
0.9599893093109131
0.42146727442741394
-0.40629085898399353
-0.5616605877876282
-0.9837157726287842
0.517249345779419
0.6218019127845764
-0.07741742581129074
0.07300079613924026
-0.02211371809244156
-0.03457481041550636
0.4571184813976288
0.8721951246261597
0.6648619174957275
0.568021297454834
0.5340638756752014
0.5223950743675232
0.16684412956237793
0.02295428328216076
-0.03515581414103508
0.5807521939277649
-0.012021669186651707
0.4103943705558777
0.116411954164505
-0.0004173062916379422
0.12057005614042282
0.09888064861297607
0.23061276972293854
0.6430850028991699
0.46889808773994446
-0.3839598298072815
0.7092888951301575
0.5099107027053833
0.019914351403713226
0.08688729256391525
-0.07121369987726212
-0.03459176421165466
0.015141777694225311
0.043176956474781036
-0.031706441193819046
0.07917317003011703
-0.09828007966279984
0.42003729939460754
0.2534964382648468
-0.14250512421131134
0.2933605909347534
-0.0015104437479749322
-0.282839298248291
0.1853417605161667
-0.40961942076683044
0.7901264429092407
0.6352380514144897
-0.2251143455505371
-0.30914464592933655
0.2672883868217468
0.35573264956474304
0.7698224782943726
-0.25737544894218445
-0.5154796838760376
-0.046650681644678116
-0.07574199885129929
-0.0596589520573616
-0.010642282664775848
-0.0788387805223465
