-0.04305306077003479
-0.03647154942154884
0.03730933368206024
-0.045412395149469376
-0.07034020125865936
-0.007284708321094513
0.04434482008218765
-0.04920758679509163
0.028508514165878296
-0.04533262178301811
-0.045175667852163315
-0.06811985373497009
0.38552096486091614
0.3353126347064972
-0.13227367401123047
-0.1462397426366806
0.003608517348766327
-0.0551970973610878
-0.025132887065410614
-0.036211900413036346
-0.05416088551282883
0.035912953317165375
0.0036244764924049377
0.0760793462395668
0.057665906846523285
0.013900421559810638
-0.07301163673400879
-0.018182873725891113
0.03878910094499588
-0.08210450410842896
0.04739048331975937
-0.0629768967628479
0.21609996259212494
0.5158069729804993
1.4212329387664795
1.5641289949417114
0.8394596576690674
0.22475749254226685
0.6245150566101074
1.116779088973999
1.0536513328552246
1.0844379663467407
-0.025874825194478035
-0.2576739192008972
-0.6296536326408386
0.4662368893623352
1.7682530879974365
2.667815923690796
2.0917623043060303
1.4256445169448853
1.0472217798233032
0.6713981032371521
-0.055804543197155
0.06924713402986526
-0.011372692883014679
-0.010787300765514374
0.017382264137268066
-0.05656083673238754
0.4582847058773041
0.6833373308181763
1.3765560388565063
0.8081426620483398
0.4531559348106384
0.8894152045249939
0.5493797063827515
0.020261507481336594
0.5595875382423401
0.32565367221832275
0.25871574878692627
0.21318678557872772
0.043409861624240875
0.07640361785888672
0.32991352677345276
0.28411582112312317
0.25991132855415344
0.9079023003578186
1.6960035562515259
1.79456627368927
2.959259271621704
0.8288739919662476
0.12396864593029022
0.6029493808746338
-0.06041385978460312
-0.08229509741067886
0.0007432177662849426
-0.013824857771396637
-0.34810593724250793
0.7627717852592468
0.8628131747245789
0.09595968574285507
0.39667728543281555
0.6880921721458435
0.35782065987586975
-0.07096690684556961
0.07173141837120056
0.07030623406171799
-0.2650104761123657
0.036951757967472076
0.05088266730308533
-0.1282663345336914
0.0030251110438257456
-0.06201779097318649
0.2653193473815918
0.30035603046417236
0.31058469414711
0.16582413017749786
0.4730108678340912
0.9209752082824707
0.869885265827179
-0.5361158847808838
0.30278462171554565
-0.05217931792140007
-0.004434451460838318
0.006110630929470062
-0.40538445115089417
-0.04129254072904587
-0.3346335291862488
-0.1593986600637436
-0.17542873322963715
0.3501124680042267
-0.4103425145149231
-0.32472214102745056
-0.1683824062347412
-0.09558287262916565
-0.0359157957136631
-0.20826765894889832
0.0790993720293045
-0.21020908653736115
-0.08820923417806625
0.0970754474401474
-0.08788187801837921
-0.14304998517036438
-0.04822622239589691
0.08967321366071701
0.041250042617321014
0.3829837739467621
0.5006920695304871
0.27566584944725037
-0.5921152830123901
0.1672651469707489
-0.025998715311288834
-0.05034467205405235
0.40679576992988586
-0.5886836051940918
-0.6174070239067078
-0.7191095948219299
-1.0137169361114502
-0.25967657566070557
-0.009416776709258556
-0.05697319656610489
0.033724166452884674
-0.12605071067810059
-0.12395050376653671
-0.16990986466407776
-0.22381901741027832
-0.23544789850711823
-0.051232289522886276
0.09537377953529358
-0.12573307752609253
0.08356598019599915
0.3305560350418091
0.1535334438085556
0.23142069578170776
0.20156027376651764
0.23261965811252594
0.7899335026741028
0.5273504257202148
0.4005621075630188
-0.08597288280725479
-0.15914462506771088
0.74895840883255
-0.48561516404151917
-0.2688773572444916
0.08557931333780289
-0.39471888542175293
-0.01339893601834774
-0.1081751212477684
-0.14037111401557922
-0.1576586663722992
-0.1521645486354828
0.009909008629620075
-0.18809223175048828
0.17448240518569946
-0.007403070107102394
-0.09160209447145462
0.1662786900997162
-0.0824010893702507
0.14563941955566406
0.008027237839996815
-0.060739703476428986
-0.09481265395879745
0.1735345423221588
0.5999137759208679
1.368788242340088
0.7131368517875671
0.430807888507843
-0.040895018726587296
-0.030348297208547592
0.31689944863319397
-0.5918242335319519
-1.2104182243347168
-0.04636910930275917
-0.47529613971710205
-0.04141468182206154
-0.023156199604272842
-0.0978914275765419
0.07177098095417023
-0.1829456090927124
-0.1254393309354782
-0.15383917093276978
-0.041210275143384933
-0.06964399665594101
-0.012956751510500908
-0.0018274456961080432
-0.10312433540821075
0.08082398772239685
0.12922979891300201
0.14361326396465302
0.2824742794036865
0.48327064514160156
0.27397921681404114
1.0845317840576172
1.11579167842865
0.7873868942260742
-0.04124835133552551
-0.1114344596862793
-0.4925689399242401
-0.8073530793190002
-0.8671094179153442
0.06848277151584625
-0.062328170984983444
-0.18194426596164703
0.3267253339290619
0.11460801959037781
-0.12775547802448273
-0.051282208412885666
-0.20241469144821167
-0.05810999870300293
-0.12245934456586838
-0.021543653681874275
-0.023407047614455223
-0.08080895245075226
0.04171470180153847
0.06978859752416611
0.12211651355028152
0.6316706538200378
0.6929328441619873
1.0294876098632812
1.6545889377593994
2.8085148334503174
1.4571456909179688
0.013200297951698303
-0.07005015760660172
-0.0072935763746500015
-0.7279987931251526
-0.849590539932251
-0.5689802765846252
-0.6435280442237854
0.1012745127081871
-0.016863027587532997
-0.17404679954051971
0.11383456736803055
0.08892044425010681
0.11130499839782715
-0.25141406059265137
-0.3956473171710968
-0.3174899220466614
-0.34549859166145325
-0.162446066737175
-0.300924152135849
-0.2668667435646057
-0.32186052203178406
-0.4323064386844635
-0.4081132709980011
-0.4774441123008728
-0.5355249643325806
0.6445581912994385
1.589663028717041
0.8194954991340637
0.5610731840133667
0.02472422830760479
-0.12761370837688446
-0.7626330256462097
-1.0674105882644653
-0.523614227771759
-0.5805473923683167
-0.03306133300065994
0.03688434511423111
0.06487177312374115
0.16725219786167145
0.3843364417552948
0.20144030451774597
0.11108410358428955
-0.522682249546051
-0.8216999769210815
-0.44639822840690613
-0.7399889230728149
-0.7494081258773804
-0.8200632333755493
-0.7362672686576843
-1.0744634866714478
-1.3287734985351562
-1.4418909549713135
-2.0366151332855225
-1.617098093032837
-0.5284993052482605
0.10039841383695602
0.1173689216375351
-0.10313276946544647
-0.29711297154426575
-0.21269941329956055
-1.200938105583191
-1.2476773262023926
-0.1878345012664795
0.3263482451438904
0.2620350420475006
0.19831249117851257
0.27062445878982544
0.24926498532295227
0.31886178255081177
0.5291223526000977
-0.04321473836898804
-0.23731812834739685
-0.028899718075990677
0.02882363460958004
-0.13328425586223602
-0.11276358366012573
-0.11755359917879105
0.0191553495824337
0.08922497183084488
-8.96086057764478e-05
-0.3474736213684082
-1.3210691213607788
-0.5358744263648987
-0.1846248209476471
-0.21510247886180878
0.0009697228670120239
-0.27175426483154297
-0.905251681804657
-1.2527353763580322
-1.3456748723983765
-0.2498708814382553
0.30805662274360657
0.1598900705575943
0.14799422025680542
0.06664466857910156
0.11856146156787872
0.30221572518348694
0.5013570785522461
0.3072565197944641
-0.40603014826774597
0.06863619387149811
0.07203615456819534
0.32720300555229187
0.14678633213043213
-0.00042080890852957964
0.257078617811203
0.11120058596134186
-0.1135399341583252
-0.0660497322678566
0.35486406087875366
-0.5853525996208191
-0.9049935340881348
-0.7360122203826904
-0.00557844340801239
-0.12454409152269363
-0.788925290107727
-1.1207659244537354
-1.202374815940857
-0.09995938092470169
0.16695497930049896
0.10401406139135361
0.08218708634376526
0.1702207326889038
0.25776880979537964
0.19532731175422668
0.2923427224159241
0.1324308067560196
-0.0329551100730896
0.14642135798931122
-0.010590768419206142
0.12817244231700897
0.11165215075016022
0.13040712475776672
-0.02692599594593048
0.052209895104169846
0.05387615039944649
-0.013186397030949593
-0.045724160969257355
-1.2643040418624878
-2.1123926639556885
-0.6665727496147156
0.6293684244155884
-0.0054616499692201614
0.17364998161792755
-0.07619637250900269
-0.6795846819877625
0.3636573851108551
0.17683160305023193
0.12914273142814636
0.14853991568088531
-0.06873533874750137
0.0720529705286026
0.2122127115726471
0.16663995385169983
0.1528310626745224
0.12571430206298828
0.05758405104279518
0.14046697318553925
0.1239975094795227
-0.0027583858463913202
0.00850195437669754
-0.18773357570171356
-0.15240830183029175
0.1172047108411789
0.10047540813684464
0.05627768114209175
-0.38616645336151123
-2.0643718242645264
-0.7956181764602661
0.5529366731643677
0.10096373409032822
0.7249682545661926
0.13099344074726105
-0.24079233407974243
-0.14142553508281708
0.1331164389848709
0.11583121865987778
0.08534365892410278
0.11407434940338135
0.052429553121328354
0.07605075091123581
0.308227002620697
0.11413384228944778
0.06129758805036545
0.019409112632274628
0.21317027509212494
0.07075303047895432
-0.032204266637563705
-0.025893384590744972
-0.10950512439012527
0.07958050072193146
-0.005549050867557526
0.16707533597946167
0.0003963991766795516
0.09060412645339966
-0.9630342125892639
0.39922890067100525
0.03894580155611038
-0.05107313022017479
0.07667773216962814
-0.3456725776195526
-0.48757633566856384
-0.521294355392456
-0.2946776747703552
0.16087274253368378
0.06628068536520004
0.008874760940670967
0.050258565694093704
0.2059868425130844
0.24198998510837555
0.0401453897356987
0.08862384408712387
0.2459043264389038
0.0495496429502964
0.033353276550769806
-0.16540300846099854
-0.09168175607919693
-0.21292957663536072
-0.17926757037639618
-0.042907774448394775
-0.1562887728214264
-0.5407136678695679
-0.5124796628952026
-1.3214333057403564
0.28039079904556274
-0.07837691158056259
-0.03677522763609886
-0.37533652782440186
-0.4555310010910034
-0.07489626854658127
-0.33633506298065186
-0.4560949504375458
-0.14001359045505524
0.05922602862119675
0.1264154613018036
0.13042192161083221
0.2636900842189789
0.21768946945667267
0.1407804787158966
0.031458720564842224
0.11160305887460709
-0.0012970657553523779
-0.014345583505928516
0.013714994303882122
-0.07969123870134354
0.15262818336486816
0.1985507756471634
0.20507501065731049
-0.0076947202906012535
0.3426671624183655
-0.7580810785293579
-0.5475199818611145
0.334180623292923
0.2053033858537674
0.019316017627716064
-0.5966801643371582
-0.4739725589752197
0.08888459950685501
0.10628563165664673
0.04894990101456642
0.02594555914402008
-0.002064385451376438
0.28029850125312805
0.051733195781707764
-0.00969726126641035
0.21451497077941895
-0.14269442856311798
-0.1115049421787262
-0.15976794064044952
0.0010171484900638461
0.05319231376051903
-0.021016379818320274
-0.12488270550966263
-0.033332161605358124
-0.3459789454936981
-0.19372820854187012
-0.14155213534832
-0.15162646770477295
-0.5519077777862549
-0.48470136523246765
0.3786373436450958
0.03568391501903534
-0.28497081995010376
-0.5632693767547607
-0.4162648916244507
0.13389477133750916
0.2850213944911957
0.137430340051651
-0.1909782588481903
0.1424044370651245
-0.14033928513526917
0.19432295858860016
0.1647486835718155
0.09089567512273788
0.09182385355234146
0.08231235295534134
0.12384538352489471
0.019055837765336037
-0.027007360011339188
-0.03606374189257622
0.025253700092434883
-0.020590221509337425
-0.11422435939311981
0.01020794827491045
0.1937369406223297
0.2104506641626358
-0.8836959600448608
-0.3892836570739746
-0.014617549255490303
-0.06324949860572815
-0.0027482882142066956
0.29505157470703125
0.019303185865283012
-0.6548578143119812
-0.0563528947532177
0.1068074107170105
-0.13483071327209473
-0.1361045241355896
-0.15658043324947357
-0.04900382459163666
-0.14273768663406372
0.0728500634431839
0.12813864648342133
-0.16972646117210388
0.27095210552215576
-0.1147121712565422
0.04005596041679382
0.029639236629009247
-0.02498624660074711
-0.19412429630756378
-0.06836573034524918
0.023609435185790062
0.48700907826423645
-0.3990726172924042
-0.36322009563446045
-0.3439193367958069
0.3951115310192108
0.04845096915960312
-0.017093639820814133
0.44167113304138184
0.133559912443161
-0.09084773808717728
-0.08387728780508041
-0.2020675539970398
0.17201539874076843
0.0021625771187245846
0.14441947638988495
0.005504956003278494
0.1439400017261505
0.24630539119243622
0.22990357875823975
0.067903533577919
-0.00830570887774229
0.013787469826638699
0.18967357277870178
-0.025540754199028015
-0.14300839602947235
0.08320160210132599
-0.014739878475666046
0.2287898063659668
0.21863573789596558
0.1341838240623474
-0.050204191356897354
0.20008249580860138
0.07521717995405197
0.03730200231075287
0.08683454245328903
0.18711146712303162
-0.27619093656539917
0.4671724736690521
-0.5213294625282288
-0.3843114376068115
0.06414707750082016
0.07521640509366989
-0.03178795427083969
0.05846632644534111
0.007476561237126589
0.11168751120567322
0.04926297813653946
0.08143095672130585
0.01825336553156376
0.12436603754758835
-0.09579072147607803
0.04944121092557907
0.09063579142093658
0.13984499871730804
0.005023821257054806
-0.06866666674613953
0.17745523154735565
-0.408402681350708
-0.07730155438184738
0.5597026944160461
0.03997325152158737
0.059212811291217804
0.05483800917863846
0.6082199215888977
0.10643451660871506
0.10407869517803192
0.20400747656822205
-0.19280950725078583
-0.21469834446907043
0.04215259104967117
-0.14559555053710938
0.19528338313102722
-0.047931596636772156
-0.013351413421332836
0.07241612672805786
0.09799423813819885
0.02306962013244629
0.1845487356185913
0.025063173845410347
0.18953247368335724
0.03140262886881828
0.16718511283397675
-0.12363050878047943
0.11914172023534775
0.11913727223873138
-0.36514535546302795
0.2384754866361618
0.34891000390052795
0.0866258516907692
-0.06652933359146118
0.08073464781045914
-0.08106965571641922
0.08960078656673431
-0.370837539434433
0.11351250112056732
-0.10397116839885712
-0.2993234097957611
-0.06279123574495316
0.10033737868070602
-0.12129203975200653
0.1889495849609375
0.04109237343072891
0.12765014171600342
0.016086207702755928
0.09026222676038742
0.3240413963794708
-0.19756394624710083
0.18287184834480286
0.1831291764974594
0.27703335881233215
0.0836849957704544
0.6513687968254089
0.5791392922401428
-0.10759386420249939
-0.34010183811187744
-0.4248351454734802
0.037773482501506805
0.011949174106121063
0.08229715377092361
0.5613089203834534
0.5972440838813782
0.21195946633815765
0.03250417858362198
0.3283758759498596
0.1928175389766693
-0.13900679349899292
-0.14454472064971924
0.17027294635772705
-0.16047948598861694
0.0019371598027646542
-0.051883239299058914
0.07084812968969345
0.07231471687555313
0.19491805136203766
0.4079743027687073
0.5962998270988464
0.459608256816864
0.2996511161327362
0.35650119185447693
1.1808398962020874
1.0302523374557495
0.6498181223869324
-0.4743228554725647
-0.4176822602748871
-0.04743211716413498
-0.013405866920948029
-0.04337022453546524
0.0005982443690299988
0.3734796345233917
0.7072653770446777
-0.18155422806739807
0.007702200673520565
0.42750585079193115
0.1380176544189453
0.06077386811375618
0.08985111117362976
0.22679436206817627
0.41196438670158386
0.26994410157203674
0.2614281475543976
-0.08420442044734955
-0.03644075617194176
0.07061539590358734
-0.22053736448287964
-0.11390139907598495
0.4807822108268738
0.2956543266773224
-0.7171417474746704
0.500266969203949
0.3313315510749817
-0.06454534828662872
0.01862301677465439
-0.03346284478902817
0.07171257585287094
-0.07628502696752548
-0.04666614159941673
-0.056002140045166016
0.0154886394739151
-0.05393640697002411
-0.0639934241771698
0.043460648506879807
-0.04537395387887955
-0.6080018877983093
0.1022677943110466
0.08488573133945465
-0.32300227880477905
0.10049458593130112
0.9293509125709534
0.6952759027481079
0.8336758613586426
0.3051280677318573
0.6686983108520508
0.7006713151931763
-0.24405770003795624
-0.6127406358718872
-0.7678091526031494
-0.010454617440700531
0.02902362495660782
0.07888781279325485
-0.05822526291012764
0.056090764701366425
