0.05267366021871567
-0.011741504073143005
-0.08597930520772934
0.08093614131212234
-0.08359694480895996
0.016627982258796692
0.017557233572006226
0.047268547117710114
0.08118412643671036
0.0014489814639091492
0.006751403212547302
0.06963623315095901
-0.00030739628709852695
0.022107481956481934
0.03551645576953888
0.07072316855192184
0.07971864193677902
0.05891378968954086
-0.06224522739648819
0.04920395463705063
-0.01617807149887085
0.0663079246878624
0.005958855152130127
0.055684082210063934
0.01349852979183197
-0.06077992916107178
-0.047660719603300095
0.025960996747016907
-0.0732332170009613
-0.05788758397102356
0.001385524868965149
0.0551280751824379
0.03756941854953766
-0.027546517550945282
-0.030094534158706665
-0.07647236436605453
-0.047380395233631134
-0.11301589012145996
-0.1428559571504593
-0.005169046111404896
2.9144010113668628e-05
-0.03513267636299133
-0.17829148471355438
-0.14041849970817566
-0.11725254356861115
-0.13963599503040314
-0.07683604955673218
-0.2753560245037079
-0.4246288537979126
-0.2703135013580322
-0.29066357016563416
-0.282589316368103
-0.035230983048677444
-0.07888112217187881
0.03275372087955475
0.025054462254047394
-0.038241177797317505
0.033719778060913086
-0.027263198047876358
-0.07101627439260483
-0.061297010630369186
-0.103363536298275
-0.46143192052841187
-0.42558619379997253
-0.45168110728263855
-0.7870508432388306
-1.083732008934021
-1.4457201957702637
-1.1177880764007568
-1.1953868865966797
-1.192422866821289
-0.8884851932525635
-0.4604322910308838
-0.46862655878067017
-0.6112227439880371
-0.1840137541294098
-0.203346848487854
-0.5505499243736267
-0.4559650123119354
-0.3818429708480835
-0.18289396166801453
-0.13036507368087769
0.08292233198881149
0.0004590079188346863
-0.02229570597410202
-0.03770330920815468
-0.0984741821885109
-0.24198327958583832
-0.08323244750499725
-0.0075422911904752254
-0.24369189143180847
-0.7706834077835083
-0.9956671595573425
-1.440847635269165
-0.9269158244132996
-0.5461737513542175
-1.4794723987579346
-2.1230580806732178
-1.3711379766464233
-1.154350996017456
-0.8030819892883301
-0.8652169108390808
-0.3840371370315552
-0.5722403526306152
-0.3982602059841156
-0.07269546389579773
-0.04674733430147171
0.16978716850280762
-0.0930996835231781
-0.7011621594429016
-0.5009057521820068
-0.07357868552207947
0.010970622301101685
0.17222446203231812
0.623064398765564
0.477468341588974
0.3065597414970398
-0.04508961737155914
0.07480622828006744
-0.22005097568035126
-0.09406780451536179
-0.22094294428825378
0.008279534988105297
-0.009851003997027874
-0.09878090023994446
-0.057348452508449554
0.14480088651180267
0.044294312596321106
-0.011390267871320248
-0.021374797448515892
0.18434077501296997
-0.026677656918764114
-0.22563213109970093
-0.16747279465198517
-0.21703653037548065
0.0225406214594841
0.7932878136634827
0.3441780209541321
0.6099856495857239
0.40334394574165344
-0.07374583929777145
0.039170242846012115
0.07287967205047607
-0.3591589033603668
0.2854316830635071
-0.21059608459472656
0.28175222873687744
0.3299398720264435
-0.043691616505384445
0.15739630162715912
-0.06229695677757263
0.1688312441110611
0.2755182087421417
0.03718900308012962
0.08120609819889069
-0.2674406170845032
0.018875546753406525
0.15311649441719055
-0.11956289410591125
-0.1712139993906021
0.16855598986148834
-0.2411165088415146
0.01859128288924694
-0.2059156894683838
-0.226935014128685
0.5576007962226868
-0.28467857837677
0.2544778883457184
-0.057928308844566345
-0.021454110741615295
0.0702100321650505
-0.46894708275794983
0.007619429845362902
0.6309540271759033
-0.028713388368487358
-0.14031445980072021
0.17800956964492798
0.281622976064682
-0.05939526483416557
0.02344617247581482
0.03634265065193176
0.15937191247940063
0.06864189356565475
0.16998210549354553
0.0057142144069075584
0.08394768089056015
-0.10162493586540222
0.17093658447265625
0.03989546373486519
0.043985962867736816
0.07300390303134918
0.26701682806015015
0.17254409193992615
0.43257778882980347
0.5573828220367432
-0.5011709332466125
-0.021810069680213928
-0.4629186689853668
-0.5915878415107727
-0.06565871834754944
0.1400817632675171
0.15190249681472778
-0.15684874355793
-0.07304932922124863
0.2076500952243805
-0.02738760970532894
0.04602557048201561
-0.08812947571277618
-0.06742960214614868
0.025621848180890083
-0.06010148674249649
0.2281569391489029
0.15454290807247162
0.0667533427476883
0.035507116466760635
-0.09361636638641357
0.07408078759908676
-0.11604436486959457
-0.24643608927726746
-0.049998991191387177
0.22083742916584015
0.6156731843948364
0.3039218783378601
-0.2320084124803543
0.03583816438913345
-1.110876202583313
-0.39519837498664856
-0.17706000804901123
0.06987346708774567
0.21742859482765198
0.049594730138778687
-0.08664500713348389
-0.00261397915892303
0.17646585404872894
-0.0061478326097130775
-0.0611787810921669
-0.12282972037792206
0.06299583613872528
-0.14791007339954376
-0.007556912489235401
0.05538410693407059
-0.24364778399467468
-0.017099710181355476
0.06533649563789368
0.014176719821989536
-0.05422995984554291
0.05813281238079071
-0.001220325706526637
0.6279808282852173
0.8083971738815308
0.3457169830799103
1.0004112720489502
0.034018389880657196
-0.7598902583122253
0.2900592088699341
-0.37370938062667847
-0.3237684667110443
0.1789783239364624
0.06694941222667694
0.08465398848056793
0.13574035465717316
0.16729900240898132
0.12286007404327393
0.11938654631376266
-0.13167516887187958
-0.13237541913986206
-0.27492183446884155
-0.21898843348026276
-0.13128790259361267
0.20216631889343262
-0.09979777783155441
0.0014492126647382975
0.23955343663692474
0.27918264269828796
0.4388142228126526
0.30900731682777405
0.4118405878543854
0.6973841190338135
0.6610827445983887
-0.3261571526527405
-0.008795596659183502
-0.4708828330039978
-0.4081502854824066
-0.6169930696487427
0.18579748272895813
-0.3949059545993805
0.09976363927125931
0.01528206281363964
0.1332225203514099
-0.08068107068538666
0.1219090074300766
-0.022609125822782516
0.0649491548538208
-0.24916283786296844
-0.35386526584625244
-0.3706250488758087
-0.26816099882125854
-0.02903428114950657
0.13241824507713318
0.16040825843811035
0.23782283067703247
0.16486923396587372
0.3515702188014984
0.30630040168762207
0.48602694272994995
0.48476195335388184
0.16482312977313995
-0.691837728023529
0.004129019565880299
-0.37086620926856995
-0.9649274349212646
-0.5171615481376648
-0.5141867399215698
0.19768790900707245
0.13322889804840088
-0.0013016671873629093
0.11202934384346008
0.24824677407741547
-0.04245675355195999
-0.0068485853262245655
0.14369311928749084
0.11016207188367844
-0.029236596077680588
-0.07946106791496277
0.025991760194301605
0.12013310194015503
-0.04076249152421951
-0.02978614717721939
0.14525477588176727
-0.25304895639419556
0.022965598851442337
0.10804960876703262
0.6989328861236572
1.4047431945800781
1.3708385229110718
-0.9316236972808838
0.08266361802816391
-0.0006826305179856718
-0.5140509009361267
-0.7809693217277527
-0.4229413866996765
0.10862262547016144
0.179765522480011
0.08061965554952621
-0.07335314154624939
0.11486687511205673
0.24700888991355896
0.20080670714378357
0.15862949192523956
0.5108864903450012
0.4326917827129364
0.205315962433815
0.1237693727016449
0.17932742834091187
-0.006897162180393934
0.05855373665690422
0.0973055362701416
0.030775191262364388
0.10674228519201279
0.24285250902175903
-0.014947944320738316
0.4555581212043762
0.2531988024711609
-0.8637226223945618
-0.003441326320171356
-0.03189726173877716
-0.41441407799720764
-0.783263623714447
-0.17792640626430511
0.0698382630944252
-0.0968414694070816
0.24120165407657623
0.05184907838702202
0.32536157965660095
0.13426102697849274
0.42913493514060974
0.451984703540802
0.5157788395881653
0.28814539313316345
0.1613243818283081
0.3086452782154083
0.27731943130493164
0.27269041538238525
0.19117408990859985
0.16566281020641327
0.15158654749393463
-0.09745024889707565
-0.31010672450065613
-0.45870745182037354
-0.25033310055732727
-0.11070912331342697
-0.062441177666187286
-0.4559627175331116
0.14916017651557922
-0.304958313703537
-0.4304827153682709
0.5157262682914734
0.11173746734857559
-0.04473995789885521
-0.07708446681499481
0.09058217704296112
0.03623197227716446
-0.06527838855981827
0.3503687381744385
0.23573783040046692
0.18609079718589783
0.335969477891922
0.10208338499069214
0.31158173084259033
0.4625922739505768
-0.052290018647909164
0.030508002266287804
-0.10643470287322998
-0.08989522606134415
-0.313872754573822
-0.7904196977615356
-0.6070746183395386
-0.6626494526863098
-0.7487258315086365
-0.26764774322509766
-0.4678357243537903
0.23568643629550934
0.6053770780563354
-0.22723987698554993
0.28625521063804626
0.3348750174045563
-0.15630832314491272
0.07904907315969467
-0.06730851531028748
0.08361782878637314
0.03970637172460556
0.032403431832790375
0.18068364262580872
0.30857500433921814
0.1722516417503357
0.24518561363220215
0.23139719665050507
0.004708264954388142
-0.05393702909350395
-0.12801621854305267
-0.04337121918797493
-0.29688939452171326
-0.1694795936346054
-0.20637521147727966
-0.38518601655960083
-0.947587251663208
-0.3426755368709564
0.41876423358917236
0.05517927557229996
-0.280987411737442
0.032379645854234695
-0.12546682357788086
-0.5678446292877197
-0.1847587674856186
-0.2016843855381012
0.10820170491933823
0.04269909858703613
0.15061511099338531
-0.019975675269961357
0.1569720208644867
0.44764384627342224
0.2420673966407776
0.0370560847222805
0.3413781225681305
0.19280533492565155
0.09724535048007965
0.11507722735404968
-0.2642304003238678
-0.22587759792804718
-0.3058309257030487
-0.23905253410339355
0.19516819715499878
0.07365209609270096
-0.26623356342315674
-0.9854834079742432
0.39432695508003235
0.03401864320039749
-0.25653132796287537
0.2947555482387543
-0.5931060910224915
-0.6367175579071045
-0.5678147673606873
-0.3579351305961609
-0.028783565387129784
-0.008352942764759064
0.14117349684238434
-0.02939325012266636
0.293874055147171
0.30111047625541687
0.25534912943840027
0.12799832224845886
-0.00403381884098053
0.03671896085143089
-0.13359345495700836
0.06657262146472931
-0.12632021307945251
-0.30798500776290894
0.06979017704725266
-0.13412658870220184
0.19041401147842407
0.09615001082420349
-0.4363901615142822
-0.8931042551994324
0.27632835507392883
0.20798176527023315
0.052126213908195496
0.463936448097229
-0.3701249063014984
-0.6004288792610168
-0.25696325302124023
-0.08645784854888916
-0.2797582745552063
-0.6292270421981812
-0.22604809701442719
-0.280047744512558
-0.008081297390162945
-0.05893906205892563
-0.010274858213961124
-0.2745533585548401
-0.20701466500759125
-0.06160479784011841
-0.2055446356534958
-0.2016880363225937
-0.14395540952682495
0.07251773029565811
0.06649544090032578
0.18499737977981567
-0.2978077530860901
-0.5967611074447632
-0.9785589575767517
-0.3580121397972107
-0.4345126450061798
-0.03876513987779617
-0.6040328145027161
0.3335205316543579
0.16354824602603912
0.24514219164848328
0.21291616559028625
-0.16689597070217133
-0.2540986239910126
-0.4069453477859497
-0.5404074788093567
-0.7538008093833923
-0.9417648315429688
-0.9623664617538452
-0.6783096194267273
-0.37006494402885437
-0.195573627948761
0.012761745601892471
0.12263674288988113
0.12636548280715942
-0.07996442168951035
0.11398620903491974
0.08725634962320328
-0.08078210055828094
0.056553393602371216
-0.26644954085350037
-0.9068707823753357
-0.43186259269714355
-0.5236050486564636
0.07791256159543991
0.524423360824585
1.139831781387329
0.03002750873565674
0.42723143100738525
0.26514995098114014
-0.048383813351392746
0.09841813147068024
-0.0007538413628935814
-0.11211157590150833
-0.12456049025058746
-0.3363402783870697
-0.22139079868793488
-0.20810924470424652
-0.20218554139137268
-0.0532686822116375
-0.1080927848815918
-8.780432835919783e-05
0.13612000644207
0.23596790432929993
0.052805688232183456
-0.0011226329952478409
-0.11531425267457962
0.29660454392433167
-0.9696096777915955
-0.9118269681930542
-0.8115885853767395
-0.3563472330570221
-0.04476359114050865
0.5593129396438599
0.6562683582305908
-0.18439309298992157
0.33662518858909607
0.03429204970598221
0.04109598696231842
0.23790857195854187
0.004421439953148365
0.07243431359529495
0.05345132201910019
-0.05801377072930336
-0.1446341723203659
-0.06496475636959076
-0.18883481621742249
-0.13532443344593048
-0.16085602343082428
-0.014048761688172817
-0.04173935204744339
-0.07671088725328445
-0.025446323677897453
0.09282318502664566
0.13521574437618256
0.17327584326267242
-0.789807915687561
-0.29042837023735046
-0.8350031971931458
-0.0010745972394943237
0.055256642401218414
0.20076420903205872
-0.09645006060600281
0.20505332946777344
0.5750378966331482
-0.25615188479423523
-0.048656415194272995
-0.08787722140550613
-0.11152827739715576
-0.11817365139722824
0.02409985475242138
0.1369977444410324
-0.029378239065408707
0.12873488664627075
-0.11086408793926239
-0.20735593140125275
-0.2846771776676178
-0.18265080451965332
0.08672497421503067
0.023259542882442474
-0.06662482768297195
-0.021787019446492195
-0.247414231300354
-0.245465949177742
-0.5156612396240234
0.20197793841362
-0.11380194872617722
0.02014947682619095
-0.08024952560663223
0.04767768830060959
0.1728266477584839
1.1273119449615479
0.15875042974948883
-0.3730415999889374
-0.07224789261817932
-0.2765536308288574
0.23801007866859436
-0.07256799191236496
0.0741444006562233
0.10563156753778458
0.1289757341146469
0.17916101217269897
0.1139114499092102
-0.004318948835134506
-0.06989768147468567
-0.2938501238822937
0.09307616949081421
-0.21867132186889648
0.1025724932551384
-0.172821044921875
-0.25904613733291626
0.7678897380828857
-0.07508749514818192
-0.11514490097761154
-0.8409445881843567
-0.008284755051136017
-0.0819823294878006
-0.056767843663692474
0.7504234313964844
0.4425138235092163
0.48595184087753296
-0.3653911352157593
-0.009679136797785759
0.1676904708147049
0.20146068930625916
-0.14812317490577698
0.051506079733371735
0.22361284494400024
-0.09890659898519516
0.0755477249622345
-0.00020577530085574836
-0.033270496875047684
0.13160523772239685
-0.10497856885194778
0.18359927833080292
0.39729613065719604
0.44408881664276123
0.08329590409994125
-0.1955093890428543
0.9247651100158691
-0.8834772109985352
-0.589890718460083
-0.7063961029052734
0.006953597068786621
-0.03247823938727379
-0.014035321772098541
0.6544495820999146
-0.4504583775997162
-0.17996938526630402
-0.3174741268157959
-0.37616226077079773
-0.22668391466140747
-0.06474721431732178
-0.247752845287323
-0.04912356659770012
-0.2823604941368103
-0.27749112248420715
-0.17752648890018463
-0.15415306389331818
-0.17347538471221924
0.0528319776058197
0.11974812299013138
0.03800516203045845
-0.027700141072273254
0.6466070413589478
0.6992002725601196
0.4038287401199341
1.454710602760315
-0.30454716086387634
0.10148551315069199
-0.4066368043422699
0.05468388646841049
-0.0348682627081871
0.023812860250473022
-0.027234453707933426
0.6720011830329895
0.8220890164375305
-0.607300877571106
-0.3118208348751068
-0.33622413873672485
-0.14795196056365967
-0.1436348855495453
-0.2170415073633194
-0.2017918974161148
-0.08995583653450012
-0.09577107429504395
-0.007575450465083122
0.031007777899503708
-0.2190171629190445
-0.17754922807216644
-0.16089889407157898
-0.5624922513961792
0.05039186030626297
-0.37722674012184143
-0.7639106512069702
0.6583555340766907
0.4624623954296112
0.02709300071001053
-0.08411805331707001
0.03441368788480759
0.031158849596977234
-0.008964143693447113
0.04029006510972977
0.07630714029073715
-0.002755500143393874
-0.1678609848022461
0.1418227106332779
-0.12536080181598663
-0.4788728356361389
-0.3034394383430481
-0.9212961792945862
-0.4116572141647339
0.17734059691429138
-1.2572672367095947
-0.12785430252552032
0.31869059801101685
-0.001980188302695751
-0.5908754467964172
-0.5722924470901489
-0.3550621271133423
-0.31206756830215454
-0.5665774941444397
-0.7380967736244202
-0.20726673305034637
-0.06495480239391327
0.07155268639326096
-0.053940095007419586
0.023719653487205505
