-0.03229063004255295
0.022562362253665924
-0.018130458891391754
0.03611283004283905
0.04608141630887985
0.03240468353033066
0.07349277287721634
-0.07781577110290527
-0.00010231882333755493
-0.015386439859867096
0.0714859887957573
-0.014736592769622803
0.07872415333986282
0.023348525166511536
0.023948460817337036
-0.07722281664609909
-0.018355228006839752
-0.026397060602903366
0.011935539543628693
0.017484091222286224
-0.01677343249320984
-0.0351947546005249
-0.010383136570453644
-0.035115208476781845
-0.049662038683891296
0.029690034687519073
-0.0032703205943107605
-0.025436121970415115
-0.04307214915752411
0.04039820283651352
0.04743172973394394
-0.010139361023902893
0.06898490339517593
0.004723116755485535
0.01925276219844818
0.39208123087882996
0.3121880888938904
0.009794188663363457
-0.17338965833187103
-0.17757011950016022
0.012964007444679737
0.130621537566185
0.3927648663520813
-0.04919450357556343
-0.06467371433973312
0.022149231284856796
0.03793437406420708
-0.05254388228058815
-0.05069134384393692
-0.04075874388217926
0.02170778624713421
-0.01285889744758606
-0.0498330220580101
-0.05655635893344879
-0.0053867921233177185
0.08448772877454758
0.07209637016057968
-0.002467602491378784
0.04816577583551407
-0.04434298723936081
0.03313120827078819
-0.025029627606272697
0.21018332242965698
-0.07374276965856552
0.16722872853279114
0.08322509378194809
0.2694035768508911
0.5979630947113037
0.7122357487678528
0.3070226311683655
-0.23000526428222656
-0.4854239225387573
-0.37925291061401367
-0.19409115612506866
0.1276397705078125
-0.22181962430477142
-0.6980060338973999
-0.25134557485580444
-0.16470187902450562
0.08059024810791016
0.584518551826477
0.08606553077697754
-0.006859689950942993
0.06580375880002975
0.06131855398416519
-0.05467556044459343
0.17266292870044708
-0.06214648485183716
0.3934467136859894
0.3191659450531006
-0.09982699155807495
-0.2207908183336258
0.34671294689178467
-0.028682967647910118
0.40446752309799194
0.1743243783712387
0.23243877291679382
-0.20270365476608276
0.14569440484046936
0.15367256104946136
-0.13217312097549438
0.2135702222585678
-0.11254837363958359
-0.04018356651067734
0.07731882482767105
0.4391900897026062
0.16216275095939636
0.29018333554267883
0.9300167560577393
-0.17487262189388275
0.07996059209108353
0.017239734530448914
-0.05174555256962776
0.3544771671295166
0.6972223520278931
0.7792384028434753
-0.06036072224378586
0.008596081286668777
0.314544677734375
1.0849964618682861
0.4551432430744171
0.629008412361145
0.33658161759376526
0.8396527767181396
0.47234785556793213
0.26688626408576965
0.08731935173273087
0.26448142528533936
-0.09571034461259842
-0.03490141034126282
-0.07127402722835541
-0.25411075353622437
-0.5713813304901123
-0.4548324942588806
-0.25650468468666077
-0.965463399887085
-0.12223930656909943
0.3385359048843384
0.17375431954860687
-0.4078289866447449
0.06494764238595963
-0.01887626200914383
0.7054747343063354
1.2661335468292236
1.2389339208602905
0.04998894780874252
0.7085782289505005
0.7280781865119934
0.23215888440608978
0.45963457226753235
0.4404788017272949
0.5067737102508545
0.5443257093429565
0.4828004837036133
0.21902599930763245
0.14804236590862274
0.24168159067630768
0.28286248445510864
-0.015355978161096573
-0.07742411643266678
0.0056905909441411495
-0.22288906574249268
-0.24724498391151428
-0.7286273241043091
-0.3390676975250244
1.2681330442428589
0.21103684604167938
-0.05398599058389664
-0.060944948345422745
0.738300085067749
0.1712273359298706
1.2765891551971436
0.45356839895248413
0.6593241095542908
0.5535843372344971
-0.4202917516231537
0.38413748145103455
0.10941606014966965
0.2294294536113739
0.17728139460086823
0.43193310499191284
0.45066744089126587
0.4114115834236145
0.612477719783783
0.3027089238166809
0.5057347416877747
0.5306747555732727
0.014845618978142738
0.13561178743839264
0.11791414022445679
0.37861987948417664
-0.16624926030635834
0.29353874921798706
0.8633263111114502
0.76548171043396
0.24672164022922516
0.13053493201732635
0.7499710917472839
-0.6044279932975769
0.839898407459259
0.8271603584289551
-0.14058567583560944
-0.16818834841251373
-0.3479633331298828
0.3528032898902893
-0.2518137991428375
0.28044554591178894
0.04473685473203659
-0.010378275997936726
0.223019078373909
0.5142815113067627
0.5681445002555847
0.37515994906425476
0.18496982753276825
0.31474220752716064
0.16758976876735687
0.0860656276345253
0.08418561518192291
0.226718932390213
0.1181434914469719
0.09705159813165665
0.6976399421691895
-0.05757555738091469
0.48580268025398254
0.21241894364356995
-0.0030583245679736137
-0.9090104103088379
0.36439040303230286
0.12224233150482178
-0.2983381748199463
-0.08139145374298096
-0.19968844950199127
0.008343986235558987
-0.19775865972042084
-0.08823515474796295
-0.25043824315071106
0.19683310389518738
0.14842049777507782
0.24890373647212982
0.043525148183107376
0.474695086479187
0.009288238361477852
0.15785494446754456
0.30294525623321533
0.37049680948257446
0.21814647316932678
0.4155122935771942
0.24739843606948853
0.4369412958621979
0.6261224746704102
0.14069072902202606
0.8886333703994751
0.3373814821243286
0.17877992987632751
-0.6230278015136719
-0.048751942813396454
-0.40710803866386414
-0.2223091721534729
-0.10901695489883423
-0.3181132972240448
-0.15388324856758118
-0.08228357881307602
-0.10659387707710266
-0.13874171674251556
-0.01828080229461193
-0.07822965085506439
0.008935590274631977
0.24721574783325195
0.12649807333946228
0.2760733962059021
0.25870445370674133
0.24702398478984833
0.32011836767196655
0.19384419918060303
0.021515658125281334
0.1859455555677414
0.4173395335674286
1.1842436790466309
0.836292028427124
0.5733087062835693
0.2495037317276001
0.13488033413887024
-0.5244673490524292
0.38071170449256897
-0.5081695914268494
0.1369929164648056
0.13187383115291595
0.05159873887896538
-0.007464808877557516
0.0328868143260479
0.046759966760873795
0.0005128192715346813
-0.49339988827705383
-0.47141149640083313
-0.5667423605918884
-0.39967766404151917
0.1858973503112793
-0.12711754441261292
0.22370636463165283
-0.04115656390786171
0.06605857610702515
0.13509050011634827
0.11004273593425751
0.3614008128643036
-0.2560451924800873
0.757473349571228
1.039929986000061
-0.2825588583946228
0.23606345057487488
0.07793997973203659
-0.3015967309474945
0.14890016615390778
-0.20629183948040009
-0.3131466507911682
-0.22243131697177887
-0.003262060461565852
-0.07227076590061188
-0.13101017475128174
-0.11710142344236374
-0.039656009525060654
-0.08874330669641495
-0.022664614021778107
-0.4004060924053192
-0.6892821192741394
-0.3557598292827606
-0.012312672100961208
-0.10019557178020477
-0.0705426037311554
0.020019711926579475
-0.11878259479999542
0.026294976472854614
0.18079809844493866
-0.41218116879463196
0.09652289003133774
0.8930787444114685
-0.5505425333976746
-0.1672196388244629
0.017941860482096672
-0.29910174012184143
-0.2114168256521225
0.08308260142803192
-0.3412134647369385
-0.1589818149805069
-0.2188882976770401
-0.07721705734729767
-0.1405278742313385
-0.07121019065380096
0.008984554558992386
0.21393941342830658
0.1190575435757637
-0.29615840315818787
-0.35962235927581787
-0.013925658538937569
-0.057679176330566406
-0.11945372074842453
0.015108020976185799
0.10442546755075455
-0.06754116714000702
-0.06241938844323158
0.16295269131660461
-0.09055563062429428
-0.4202057719230652
0.2985056936740875
-0.48958638310432434
-0.00939195603132248
0.2532579004764557
-0.07510798424482346
0.16476359963417053
-0.4360100030899048
0.003346598008647561
-0.15306875109672546
-0.007995621301233768
0.012726091779768467
0.08464600145816803
-0.059336550533771515
-0.0081663578748703
0.2150210291147232
-0.01738213375210762
-0.07536730915307999
-0.1317439079284668
-0.12411295622587204
-0.17419207096099854
0.11804307252168655
-0.16964881122112274
0.10030388087034225
-0.23836585879325867
-0.2991040349006653
-0.4201742112636566
-0.39327746629714966
-0.276865690946579
0.9429975748062134
0.039176035672426224
0.560979425907135
0.6712228059768677
-0.4195765256881714
-0.31712478399276733
-0.18671582639217377
0.1433212012052536
-0.27017977833747864
-0.1342984437942505
-0.1289939284324646
-0.2531728744506836
0.08429867774248123
-0.10394289344549179
-0.1777706891298294
-0.019191892817616463
0.16078421473503113
-0.25651416182518005
-0.22539666295051575
-0.11599764972925186
-0.2202814668416977
-0.3760237395763397
-0.3213341534137726
0.006595655344426632
-0.3244129419326782
-0.2076127529144287
-0.33191004395484924
-0.4766170382499695
0.815951406955719
0.5931705236434937
0.5615301728248596
0.3235976994037628
-0.5754417181015015
-0.635599672794342
0.4043956696987152
0.14037156105041504
0.005231909919530153
0.120628722012043
-0.007613752502948046
-0.1588355302810669
-0.026986731216311455
-0.15110880136489868
-0.2044478952884674
0.1062629446387291
-0.1044246032834053
-0.04596615582704544
-0.10298994928598404
-0.2995055317878723
-0.15121518075466156
-0.21821826696395874
-0.04709826409816742
-0.018021075055003166
-0.165797621011734
0.16597972810268402
0.25935837626457214
-0.49242472648620605
0.3659219741821289
1.321109414100647
0.04261958971619606
0.911935567855835
1.6767417192459106
0.0683775469660759
0.20388181507587433
-0.183759868144989
-0.2885231673717499
-0.16306675970554352
-0.09583377838134766
0.061270441859960556
0.0741976872086525
-0.12620721757411957
-0.003294342430308461
-0.07754199951887131
-0.27083685994148254
-0.21076740324497223
-0.12639544904232025
-0.1219080314040184
-0.18841156363487244
-0.06346205621957779
-0.27156928181648254
-0.21270331740379333
-0.12525230646133423
0.23714981973171234
0.05604442209005356
0.1548561453819275
-0.041341617703437805
1.1657657623291016
0.00433436781167984
1.080364465713501
0.20078127086162567
0.5032038688659668
0.26774317026138306
-0.030415205284953117
-0.2253781110048294
-0.32008031010627747
0.01835055649280548
-0.030186757445335388
-0.12544137239456177
0.09551040083169937
0.2197675108909607
-0.06562882661819458
-0.2732565701007843
-0.06134755536913872
-0.009151548147201538
0.06013588607311249
-0.11901049315929413
0.10142477601766586
-0.1446203738451004
0.20209594070911407
-0.2138497233390808
-0.17088326811790466
-0.13193997740745544
0.12930668890476227
-0.36773207783699036
0.9297402501106262
-0.08914037048816681
0.8461073637008667
-0.520250678062439
-0.24406544864177704
-0.06698129326105118
0.41985413432121277
-0.04965181276202202
-0.1608441025018692
-0.09534876048564911
-0.30936697125434875
-0.19404767453670502
-0.23911479115486145
-0.3510476052761078
-0.47961553931236267
-0.5054638981819153
-0.035361893475055695
0.0680551528930664
0.09486944228410721
0.0746878907084465
0.15028280019760132
0.010788996703922749
0.13011789321899414
0.20002911984920502
-0.1757456660270691
0.5814827084541321
0.7655439972877502
0.13811855018138885
0.11695718765258789
-0.060677360743284225
0.662720799446106
0.10476715862751007
-0.533138632774353
0.06295673549175262
0.3478988707065582
0.39304694533348083
0.3091883659362793
0.028769558295607567
0.015357357449829578
-0.16349996626377106
-0.2743067443370819
-0.2206588089466095
-0.028348777443170547
-0.2031346559524536
0.04983747377991676
-0.2706144452095032
0.13506461679935455
0.35509350895881653
-0.022058025002479553
0.13832296431064606
-0.1256290227174759
0.27716150879859924
0.5582886934280396
1.3843411207199097
0.24811886250972748
-0.20753714442253113
-0.20827822387218475
-0.07023672014474869
1.1907912492752075
0.5226679444313049
0.6022327542304993
0.7854166030883789
1.1295506954193115
0.93947833776474
0.5884690880775452
0.32109901309013367
0.1217811331152916
0.10914165526628494
-0.16850398480892181
0.015952086076140404
0.04168154299259186
-0.20463117957115173
0.20635604858398438
-0.021707015112042427
-0.005722631234675646
-0.07563520222902298
0.04201952740550041
0.028391176834702492
0.046905674040317535
0.03622167930006981
0.1388809084892273
0.10175927728414536
-0.012255649082362652
-0.32086870074272156
0.15030406415462494
-0.006027333438396454
1.199679970741272
2.814627170562744
1.771309733390808
1.2691445350646973
-0.3664185404777527
0.38913458585739136
0.1535346657037735
0.05359932407736778
0.29494553804397583
0.10363689064979553
-0.0008729789406061172
-0.10493669658899307
-0.04623313248157501
-0.04506663233041763
-0.21719254553318024
-0.028457749634981155
-0.05002538487315178
-0.1715715229511261
-0.022623155266046524
-0.13823261857032776
-0.04306524246931076
0.11295010149478912
0.3239061236381531
-0.49050435423851013
0.2913902699947357
0.12838098406791687
0.6214526295661926
-0.07240214198827744
0.6656357049942017
2.3931310176849365
2.068197250366211
0.03150425851345062
-0.2901877462863922
0.23028171062469482
0.5501026511192322
0.4011443257331848
0.23725302517414093
0.175269216299057
0.08626482635736465
0.11686791479587555
0.11962820589542389
0.07971519976854324
-0.007619272917509079
0.08113513141870499
0.02287057228386402
0.06266455352306366
0.14997677505016327
0.049213044345378876
-0.2843444347381592
0.08148326724767685
0.3245421350002289
0.6454974412918091
0.43880823254585266
-0.326050341129303
0.6062330603599548
-0.014795184135437012
-0.04854252561926842
2.9390015602111816
4.347070217132568
0.2502802014350891
-0.43820834159851074
-0.20641225576400757
0.2894657552242279
0.1430550515651703
0.05176440253853798
0.42068639397621155
0.7175384163856506
0.18890368938446045
0.38704147934913635
0.24256540834903717
0.0039286850951612
0.2055480033159256
0.26646095514297485
-0.10756786912679672
-0.05857139825820923
-0.09797931462526321
-0.00716773234307766
0.20664267241954803
0.5576005578041077
-0.05133291333913803
0.6153339147567749
-0.7252610325813293
-0.07655012607574463
0.07172519713640213
0.016979821026325226
0.07279245555400848
1.4183940887451172
0.49889495968818665
-0.529167652130127
-0.2030433714389801
-0.3896162807941437
-0.19399766623973846
-0.09889186918735504
-0.18955622613430023
0.18580757081508636
0.19132235646247864
0.27564314007759094
0.31524282693862915
0.24036316573619843
0.2574559152126312
-0.017839208245277405
0.4215715229511261
0.1827278435230255
0.25017571449279785
0.23973888158798218
0.0005985802272334695
0.3611508309841156
1.3136796951293945
0.006400540936738253
0.12925362586975098
-0.08542203903198242
0.057712845504283905
-0.0017512887716293335
0.1136610358953476
-0.919828474521637
-0.6509726047515869
-0.5788179636001587
0.03203831985592842
-0.4110979437828064
-0.05831010639667511
0.20530076324939728
0.22079962491989136
-0.03109033778309822
0.13898758590221405
0.2432069033384323
0.06576231122016907
0.5817168354988098
0.5239341259002686
0.5096521377563477
0.8066961169242859
0.7613072395324707
1.2104781866073608
0.9011387825012207
0.30228403210639954
0.09386098384857178
1.2149022817611694
-0.18204939365386963
0.4490390717983246
0.03504578024148941
-0.042374156415462494
-0.019825823605060577
-0.006362192332744598
0.01630931906402111
0.3517318069934845
0.5341936349868774
0.5685374736785889
0.40078142285346985
0.3740968406200409
-0.024523388594388962
0.14309149980545044
0.14916379749774933
0.23415416479110718
0.4434012770652771
0.45071932673454285
0.13866131007671356
0.9186938405036926
0.6142544150352478
0.5053761005401611
0.6985974907875061
1.0912046432495117
1.3249447345733643
1.2770769596099854
0.7300694584846497
-0.02822430431842804
0.18169476091861725
-0.02595052868127823
0.08309536427259445
-0.05733510106801987
0.06624958664178848
0.027040839195251465
0.045643918216228485
0.03467610478401184
0.08594848960638046
0.25905928015708923
0.7702698707580566
0.8292770385742188
0.32758986949920654
0.7582400441169739
0.7769424319267273
0.2858540415763855
0.03418813645839691
-0.10899665206670761
0.07808168977499008
0.2725190222263336
0.40253517031669617
0.5038415789604187
0.3672711253166199
0.2749617397785187
0.17989139258861542
-0.07044297456741333
-0.021866166964173317
-0.07485813647508621
0.07008161395788193
0.04708332568407059
0.0018406957387924194
