-0.060423411428928375
0.007089540362358093
-0.06689029186964035
-0.07941795885562897
-0.06732818484306335
0.01803429424762726
0.055054254829883575
0.06778200715780258
-0.027645524591207504
0.061653055250644684
0.005147203803062439
-0.05987004190683365
0.05546313151717186
0.18569521605968475
0.07809960097074509
-0.05063201114535332
0.06349682062864304
-0.06955652683973312
0.06894748657941818
-0.06412681192159653
0.03769632428884506
0.015645243227481842
0.010234780609607697
-0.013918660581111908
0.040175192058086395
0.027820944786071777
0.001439407467842102
-0.049089059233665466
-0.04513423517346382
-0.032792456448078156
0.029677100479602814
0.06822866946458817
0.2410079538822174
0.2849520742893219
0.08898680657148361
0.6108099222183228
0.6278544664382935
0.7915690541267395
0.6413186192512512
1.217548131942749
1.6701891422271729
0.8656611442565918
0.07634826749563217
0.773973286151886
-0.15867967903614044
0.3633524775505066
1.0095418691635132
1.2303680181503296
1.0890161991119385
0.9084302186965942
0.6320164799690247
0.4708980619907379
-0.033265870064496994
-0.058338817209005356
-0.04972384124994278
0.0031486600637435913
0.020899884402751923
-0.0811222568154335
0.3576158881187439
0.5758469104766846
0.9582036137580872
0.7401052713394165
0.3954017758369446
0.8686968088150024
0.610135018825531
0.37004193663597107
0.5076507329940796
0.5416197180747986
1.0971912145614624
1.0067310333251953
0.6477319598197937
0.4897041916847229
0.7668176889419556
0.4974205195903778
0.841185986995697
0.964528501033783
1.0632840394973755
1.0090444087982178
1.0177431106567383
0.5501024127006531
-0.6714909076690674
-0.6284534335136414
0.017319299280643463
0.02409161627292633
0.012003578245639801
-0.007586784660816193
0.1682838350534439
0.8073853254318237
1.1514064073562622
1.0335667133331299
0.5494787693023682
0.15315669775009155
0.14822427928447723
-0.08570901304483414
0.47362345457077026
0.13887080550193787
-0.29974836111068726
-0.18152770400047302
-0.2526949644088745
-0.0684225782752037
-0.23071008920669556
-0.17479823529720306
0.006711657624691725
0.12123838812112808
-0.02987450733780861
0.17396636307239532
0.2399161159992218
0.4122467041015625
-0.013209358789026737
-0.9434665441513062
-0.20032452046871185
0.0579337552189827
0.0782771185040474
0.05829032510519028
0.15017545223236084
0.9440774917602539
-0.3239637315273285
-0.5128743052482605
-0.7828139662742615
-0.39533671736717224
-0.547856330871582
-0.7723667621612549
-0.28473660349845886
-0.51027911901474
-0.20883560180664062
-0.12922082841396332
-0.09642297029495239
0.045159611850976944
-0.1639697253704071
0.015797484666109085
-0.1303168386220932
-0.1257137656211853
-0.13667787611484528
-0.0015641001518815756
-0.02832375280559063
0.21978458762168884
-0.5322889089584351
-0.8094049692153931
0.10052163898944855
0.5680685043334961
0.0063341110944747925
0.006950736045837402
0.8551034927368164
0.39321911334991455
-0.5473634004592896
-1.371701717376709
-0.8942074775695801
-0.23881131410598755
-0.2074727863073349
0.09613226354122162
-0.14910443127155304
-0.052457861602306366
-0.21880577504634857
-0.1552141308784485
-0.06423374265432358
-0.10223400592803955
-0.06904597580432892
0.06533661484718323
-0.03226952627301216
0.145440474152565
0.2581426203250885
0.10462047159671783
0.09025869518518448
-0.3608437776565552
-0.19484862685203552
-0.19880661368370056
0.6187701225280762
0.3086349070072174
0.04736439138650894
-0.0735451728105545
0.13603021204471588
-0.392084002494812
0.26298293471336365
-0.5461922287940979
-0.4200977385044098
0.07411586493253708
-0.12549865245819092
-0.4916671812534332
-0.2301989644765854
-0.22807009518146515
-0.1379675716161728
-0.07153964042663574
0.08719305694103241
0.03128015249967575
-0.10147852450609207
-0.05335080251097679
-0.18273937702178955
-0.011697790585458279
-0.04447631537914276
-0.08817799389362335
0.167449951171875
0.25280553102493286
-0.17206622660160065
0.26011234521865845
-0.004585356917232275
0.21283110976219177
0.07020968943834305
-0.7176715731620789
0.250699520111084
-0.7311418652534485
-0.43755897879600525
-0.5260497331619263
-0.40925681591033936
-0.1305723339319229
-0.19079603254795074
0.09027912467718124
0.020556043833494186
0.01847691647708416
-0.05025257542729378
-0.1741170883178711
-0.08719877153635025
-0.029636874794960022
-0.15127955377101898
0.059796836227178574
0.1515277773141861
0.0148855522274971
-0.03728429600596428
0.14571821689605713
0.09742478281259537
0.314946711063385
0.14103452861309052
-0.15347911417484283
-0.7883964776992798
0.4656151831150055
0.04890105873346329
-0.655977725982666
-0.014468571171164513
-0.23818320035934448
-1.1485785245895386
-1.1251550912857056
-0.05696774274110794
-0.041998766362667084
-0.015048437751829624
0.05330735072493553
0.020829111337661743
-0.005786586552858353
0.05167990177869797
0.1695156842470169
-0.014067699201405048
-0.10033424198627472
-0.010379274375736713
-0.08202683180570602
-0.1621256172657013
-0.06472217291593552
0.03497505187988281
-0.04523784667253494
-0.12081264704465866
0.32163748145103455
0.3691317141056061
-0.1514834612607956
0.11637774109840393
0.4686617851257324
-0.012094691395759583
-0.5117263793945312
0.15775083005428314
-0.6084162592887878
-0.8972116112709045
-1.0792629718780518
0.0003205170214641839
0.055682457983493805
0.15019480884075165
0.0904136598110199
-0.005969400517642498
0.08566692471504211
-0.09212163090705872
-0.04629242792725563
-0.24377237260341644
-0.39485788345336914
-0.25385773181915283
-0.05881624296307564
-0.07687467336654663
0.050567060708999634
-0.08995741605758667
0.1180630549788475
-0.008787430822849274
0.07347917556762695
1.1515942811965942
0.581017792224884
0.12063287943601608
-0.37753427028656006
-0.07195459306240082
-0.19143928587436676
0.14525800943374634
0.037805233150720596
-0.07319554686546326
-0.6949809789657593
-0.1068328246474266
0.14999401569366455
0.15789224207401276
0.5142232179641724
0.33393388986587524
0.37825527787208557
0.40237194299697876
0.1955278217792511
0.10193387418985367
-0.35993465781211853
-0.44732847809791565
-0.25095847249031067
-0.13056451082229614
-0.18735451996326447
0.03444649279117584
0.20205602049827576
0.1604551374912262
0.10220246762037277
0.08327941596508026
0.28359559178352356
0.6937304139137268
-0.12545394897460938
0.02847844362258911
-0.08004818111658096
-0.26293155550956726
-0.4749910235404968
-1.0786372423171997
-0.9630333185195923
0.3794000446796417
0.35063472390174866
0.100818932056427
0.10247445106506348
-0.0479317344725132
0.09213864058256149
0.05340167135000229
0.290138304233551
0.26312652230262756
-0.21778929233551025
-0.5706067085266113
-0.30740055441856384
-0.2841806709766388
0.05653379485011101
-0.2131601870059967
-0.09961957484483719
-0.22298739850521088
0.2411462962627411
0.3684643805027008
0.11996821314096451
0.9644936919212341
0.5151446461677551
-0.03693198785185814
0.6390371918678284
-0.7354955673217773
0.9390701651573181
-1.2214350700378418
-0.3172354996204376
0.22651267051696777
0.12081319093704224
-0.001878980896435678
0.04261324182152748
0.08315370976924896
0.11850631982088089
0.19700957834720612
0.21462666988372803
0.20528586208820343
-0.05606275051832199
-0.24333743751049042
-0.28384119272232056
-0.03826339542865753
-0.21628938615322113
0.12294428050518036
0.19626601040363312
0.022891957312822342
0.6593543291091919
0.07524504512548447
-1.0554965734481812
-0.6239631772041321
-0.42262014746665955
0.45514094829559326
0.6194406151771545
-0.07773615419864655
0.9200893640518188
-0.7679192423820496
-0.4761686623096466
0.033331144601106644
0.0734851136803627
0.12151197344064713
0.3307272791862488
-0.011387774720788002
0.10671662539243698
0.12259964644908905
-0.034687209874391556
0.13132141530513763
0.1940438151359558
-0.15901105105876923
-0.3638225793838501
0.02739594876766205
-0.12695224583148956
-0.21761421859264374
-0.1999770551919937
0.3591464161872864
0.6807432770729065
-0.5614656209945679
-1.1826250553131104
-1.7642877101898193
-0.4976704716682434
0.6158618927001953
0.03787225857377052
0.03420544043183327
0.010998167097568512
-0.5796631574630737
-0.028683491051197052
-0.31924736499786377
0.007066780235618353
-0.18585778772830963
0.05062057822942734
0.1913001537322998
0.12278760224580765
-0.21397826075553894
0.29523009061813354
0.16906991600990295
0.11182171106338501
-0.2653127610683441
-0.4123086631298065
-0.2689165472984314
-0.34070733189582825
-0.11971962451934814
0.020621398463845253
0.06984031200408936
0.12776456773281097
0.21043238043785095
-1.0197718143463135
-1.3234329223632812
-0.7487028241157532
-0.1603560894727707
0.06716644018888474
0.3729402720928192
-0.26004818081855774
0.09315279871225357
-0.13165956735610962
-0.35459330677986145
0.22105461359024048
-0.021937120705842972
0.23358163237571716
0.09874136745929718
-0.03411072865128517
0.04528521001338959
0.18741105496883392
0.22396746277809143
-9.271326416637748e-05
-0.3449174165725708
-0.24825896322727203
0.039636097848415375
-0.34782305359840393
-0.04962371662259102
0.1758553385734558
-0.163548082113266
0.04204898700118065
0.6149030327796936
-0.75877445936203
-1.5693135261535645
-0.3778674006462097
-0.8310560584068298
0.0945052057504654
0.23165565729141235
-0.11854157596826553
-0.08692976832389832
-0.06063230708241463
0.0008543666335754097
-0.19626855850219727
0.08131089806556702
0.03617292270064354
0.0037450871895998716
0.06937800347805023
-0.05173066630959511
0.10542929917573929
0.13197952508926392
-0.16799087822437286
-0.39148494601249695
-0.35355523228645325
-0.3845701813697815
-0.04790615662932396
-0.11367718875408173
0.1680038571357727
-0.033734917640686035
0.17408767342567444
-0.32915857434272766
-1.8931399583816528
-1.175279974937439
-0.3398035168647766
0.006064429879188538
0.15783832967281342
-0.17745131254196167
-0.6172124743461609
-0.11930885165929794
0.05914905667304993
0.11329634487628937
-0.11833327263593674
-0.02663489058613777
0.04892835021018982
0.43111473321914673
0.21242576837539673
0.19557462632656097
-0.09208136051893234
0.12397296726703644
-0.21292857825756073
-0.1642211526632309
-0.13434818387031555
0.005496691446751356
-0.12235328555107117
0.17239046096801758
0.1742698848247528
0.11910638958215714
0.23814502358436584
-0.09380713850259781
-2.8037338256835938
-0.30979737639427185
-0.4027693569660187
0.11898122727870941
0.06907377392053604
-0.37954360246658325
-0.9446707367897034
-0.33710211515426636
-0.2236602008342743
0.234608992934227
0.1268761157989502
0.07900077849626541
0.216157466173172
0.16210252046585083
0.1930164247751236
0.06639614701271057
-0.046373654156923294
-0.12460026144981384
-0.051802460104227066
-0.18375703692436218
-0.09281464666128159
0.0699806734919548
-0.09789413213729858
0.006543552502989769
-0.24828937649726868
0.08261292427778244
-0.12209581583738327
-0.8522807359695435
-2.162248373031616
-0.3212280571460724
0.6138680577278137
0.24698403477668762
0.7525771260261536
0.13559237122535706
-0.3235267102718353
-0.09410186856985092
-0.2066456377506256
-0.03364565595984459
0.09463297575712204
0.29088902473449707
0.34470000863075256
0.3335355818271637
0.3802032172679901
0.1909254640340805
0.037594616413116455
-0.0159541554749012
0.07207794487476349
0.17870722711086273
-0.14296014606952667
0.0461571179330349
-0.08638028055429459
-0.017852045595645905
-0.07600615918636322
0.15516138076782227
0.26286542415618896
-1.3345625400543213
-1.0902801752090454
0.14721496403217316
0.6107861995697021
-0.08258997648954391
0.6649209260940552
0.44476914405822754
-0.29986223578453064
-0.1310013383626938
0.03410039842128754
-0.11453870683908463
0.04246267303824425
0.10689891874790192
-0.06255985796451569
0.3053531050682068
0.2887260317802429
0.38057005405426025
0.0893394723534584
0.02907947078347206
0.1657661348581314
-0.05070232227444649
0.010766829364001751
-0.011706437915563583
-0.10735393315553665
-0.07781924307346344
-0.09733040630817413
0.21507015824317932
-0.8733080625534058
-1.857818841934204
-0.8592054843902588
0.3972228467464447
0.27554285526275635
0.2932083010673523
0.18562045693397522
0.201974555850029
0.039856571704149246
-0.5472846627235413
-0.1357022225856781
-0.08648186177015305
-0.02603841759264469
-0.02786833606660366
0.3247392475605011
0.12505672872066498
0.2600138187408447
0.22886709868907928
0.15017254650592804
0.1570957452058792
-0.037401292473077774
-0.09564614295959473
0.1267930269241333
-0.08612681925296783
-0.24540656805038452
-0.016729820519685745
0.1103125587105751
0.17302662134170532
-1.3495848178863525
-0.482261061668396
0.3548434376716614
1.0660783052444458
0.7345563173294067
0.15045970678329468
0.2690860629081726
0.21278667449951172
0.3297294080257416
-0.5012754201889038
0.22830501198768616
-0.053428079932928085
0.18812334537506104
-0.018368883058428764
0.0644734799861908
-0.0054061440750956535
0.07998031377792358
0.06182319298386574
0.27844366431236267
0.2012607306241989
0.08582686632871628
-0.02712804265320301
-0.07861734181642532
0.09060564637184143
0.06001776084303856
-0.24224279820919037
0.021602191030979156
-0.4139975607395172
-0.8358095288276672
-0.125651016831398
1.0721235275268555
0.5144904255867004
0.7172212600708008
-0.032000452280044556
-0.06832578778266907
0.31176039576530457
0.010282592847943306
-0.5133044123649597
0.008266422897577286
-0.011695172637701035
-0.08637062460184097
0.3456805646419525
0.03498018532991409
0.17061647772789001
0.19018323719501495
0.23324115574359894
0.33518508076667786
0.3469999432563782
0.3692057132720947
0.37349027395248413
0.36930209398269653
-0.05024614557623863
-0.17840135097503662
-0.07107411324977875
-0.9983357191085815
-1.4115324020385742
0.2773987650871277
0.14092570543289185
0.3315124809741974
-0.9376060366630554
-0.04656927287578583
0.03033033013343811
0.0386897549033165
0.06664422154426575
0.06102048233151436
-0.8786764740943909
-0.5632726550102234
-0.18401049077510834
-0.5016443133354187
-0.22222334146499634
0.011266225948929787
-0.09966714680194855
-0.1134139746427536
-0.04052453860640526
-0.11124860495328903
0.013783722184598446
0.12073767185211182
0.07683645933866501
-0.03698725998401642
0.3943899869918823
0.06316662579774857
-0.08416374027729034
-0.8478786945343018
-0.5991160273551941
-0.3512488901615143
-0.3816438913345337
-0.20185697078704834
-0.518101155757904
-0.07003223896026611
0.0853557363152504
0.0008124411106109619
-0.11650101840496063
-0.06960002332925797
-0.6442545056343079
-1.740103006362915
-0.9199224710464478
-0.9988253712654114
-1.051853060722351
-0.5118462443351746
-0.31155556440353394
-0.43078622221946716
-0.6091238260269165
-0.4255339801311493
-0.5831426382064819
-0.7153841853141785
-0.9258782267570496
-1.0329711437225342
-0.74205482006073
-0.354647696018219
-0.8974198698997498
-0.9820187091827393
-0.6453738212585449
-0.6475920677185059
-0.708992063999176
0.025447912514209747
0.073262058198452
-0.05203885957598686
-0.03827141597867012
-0.0036325007677078247
0.04254954308271408
0.07491473108530045
-0.020687708631157875
-0.908146321773529
-1.1656113862991333
-0.9228652715682983
-0.5605073571205139
-0.2644421458244324
-0.1741873174905777
0.03530275076627731
0.043523263186216354
0.284444659948349
-0.56391841173172
-1.0203570127487183
-0.8537430763244629
-0.6195257902145386
-0.9299494624137878
-0.49241191148757935
-0.8818690180778503
-0.5581890940666199
-0.35590219497680664
0.44488784670829773
-0.058362171053886414
0.0006764382123947144
-0.03561342880129814
0.07675536721944809
-0.01733884960412979
0.07404588907957077
-0.030684590339660645
0.04097338765859604
-0.019076138734817505
0.052984483540058136
-0.06961219012737274
-0.09336245805025101
-0.10952620208263397
-0.10687635838985443
-0.4966588616371155
-0.11178658902645111
-0.21507595479488373
-0.0987616553902626
-0.046016957610845566
-0.07313614338636398
-0.17111031711101532
-0.21679474413394928
-0.14995437860488892
-0.15391716361045837
-0.23712663352489471
-0.2957373559474945
-0.23850661516189575
0.0054070730693638325
-0.07197919487953186
-0.08556491881608963
0.04968851059675217
-0.05067827180027962
